tree
version=v4
num_class=1
num_tree_per_iteration=1
label_index=0
max_feature_idx=28
objective=binary sigmoid:1
feature_names=TempOut OutHum DewPt. WSpeed WRun WHSpeed WChill HeatIx ThwIx ThswI Bar Rain HiSlE Rad. uvIndex uDose hiUV hetD-D colD-D inTemp inHum inDew iHeat ET WSamp iRecept WDir_deg HWDir_deg Date_num
feature_infos=[-2.2312500000000002:13.3375] [5:91.5] [-30.9354166667:5.2770833333000002] [0:40.897916666699999] [0:981.70000000000005] [0:289.69999999999999] [-22.800000000000001:7.2000000000000002] [2.7000000000000002:19.5] [-9.0124999999999993:11.860416666700001] [-10.297916666700001:11.6111111111] [591.58749999999998:1012.3354166667] [0:16] [0:63.689999999999998] [0:563.04166666670005] [0:16] [0:3.4300000000000002] [0:16] [0:20.568999999999999] [0:0.80600000000000005] [4.4000000000000004:29.25] [4:52] [-27.585416666699999:8.15625] [12:40.700000000000003] [0:86.030000000000001] [0:33640] [0:100] [0:337.5] [0:337.5] [1204243200:1670457600]
tree_sizes=2482 3260 3572 3038 3044 3473 2845 2932 2859 3264 2955 3275 2636 3667 3669 2242 2943 3674 3050 3155 3462 2842 1816 2873 3385 3273 3698 3612 3184 1934 3283 3196 3075 3197 2895 2157 3074 3084 2754 2149 3317 1730 2137 2987 3276 2568 2575 2478 3674 3299 2787 2591 3848 3002 2772 3626 2692 3304 3204 2891 3803 2150 3396 3008 3835 2259 3065 3402 3824 3202 3003 2063 3602 3488 3626 3421 3308 3839 3624 3638 3734 2584 3855 3546 3208 3726 2570 2050 2685 3852 3622 2570 3744 3018 3247 3036 2477 2673 2595 3646

Tree=0
num_leaves=23
num_cat=0
split_feature=5 22 17 19 1 16 27 25 25 24 22 23 22 21 9 26 22 8 17 21 2 19
split_gain=61.8749 43.9773 30.6384 17.4462 25.8985 17.3367 15.6467 12.4636 11.5855 11.1613 10.8719 5.12839 4.09912 4.64886 4.11382 4.67761 2.57979 2.40704 4.24102 1.50159 1.28077 1.02058
threshold=74.800000000000011 19.550000000000004 15.346500000000001 13.168750000000001 21.750000000000004 8.1000000000000032 281.25000000000006 99.163903985500014 98.719791666650011 31884.000000000004 24.050000000000004 18.145000000000003 22.150000000000002 -13.971874999999999 -0.22812499999999999 214.59503034900004 29.250000000000004 2.2635416666500006 14.591500000000002 -10.828124999999998 -9.2718749999999979 15.224013157900002
decision_type=2 2 2 2 2 2 2 2 2 2 2 2 2 2 2 2 2 2 2 2 2 2
left_child=1 3 7 -1 -5 6 21 -2 9 -7 19 12 14 -14 -10 -16 17 18 -15 -9 -19 -3
right_child=2 5 -4 4 -6 8 -8 10 11 -11 -12 -13 13 16 15 -17 -18 20 -20 -21 -22 -23
leaf_value=-1.9413950586667033 -1.4621031658801917 -1.9324178858607921 -1.2475230757290146 -1.2361719097171024 -1.814769673825432 -2.0724073745250897 -1.6095389039415255 -1.9026136721451676 -2.1402363828574944 -1.6689968050408777 -1.6388915386614589 -1.8928229159487304 -1.9358201933625758 -1.9253216444999293 -2.0413514155231627 -1.7684009864823549 -1.9752400320039309 -2.1807863334909974 -2.1393915922192965 -2.0639070640179598 -2.1171648592211909 -2.0661547422770563
leaf_weight=9.1961710304021853 5.2074703425169053 5.3182675838470477 7.3126179277896872 6.7586317211389533 8.4205903410911542 6.0938482731580716 8.8637793064117414 5.5398620665073457 5.4290648251771954 7.3126179277896881 7.3126179277896872 7.6450096517801276 8.0881986171007139 7.7558068931102779 6.3154427558183652 5.8722537904977798 6.4262399971485129 23.267420679330819 10.63653516769409 5.6506593078374818 44.983679980039604 5.7614565491676331
leaf_count=83 47 48 66 61 76 55 80 50 49 66 66 69 73 70 57 53 58 210 96 51 406 52
internal_value=-1.92909 -1.97755 -1.64147 -1.70211 -1.55715 -2.01957 -1.82755 -1.76297 -2.04696 -1.85237 -1.84765 -2.06759 -2.07884 -2.09591 -1.98084 -1.90984 -2.10982 -2.11981 -2.04912 -1.98406 -2.13885 -2.00196
internal_weight=215.168 184.145 31.0232 24.3754 15.1792 159.77 19.9435 23.7106 139.826 13.4065 18.5031 126.42 118.775 101.158 17.6168 12.1877 93.0697 86.6434 18.3923 11.1905 68.2511 11.0797
internal_count=1942 1662 280 220 137 1442 180 214 1262 121 167 1141 1072 913 159 110 840 782 166 101 616 100
is_linear=0
shrinkage=1


Tree=1
num_leaves=30
num_cat=0
split_feature=28 28 28 5 3 19 4 28 5 7 7 22 23 23 12 8 2 22 13 13 9 22 4 23 4 13 22 23 12
split_gain=96.0188 35.7992 33.1996 21.2363 16.9823 17.8154 16.9247 9.13207 7.91526 6.27055 5.75609 4.74276 4.68861 7.76186 4.25864 9.61581 2.67744 3.14716 2.63266 3.75433 0.876719 0.617043 0.441573 0.415943 0.183513 0.178215 0.00373322 0.000697333 0.000127579
threshold=1279022400.0000002 1552910400.0000002 1237852800.0000002 81.300000000000011 6.6041666666500012 17.003125000000001 213.19000000000003 1259150400.0000002 74.800000000000011 13.450000000000001 10.250000000000002 23.250000000000004 3.9750000000000005 4.2550000000000008 34.040000000000013 0.077083333350000019 -18.182291666649999 25.050000000000004 385.84375000000006 416.05208333330006 0.40416666665000006 27.050000000000004 179.41500000000002 18.145000000000003 164.93000000000004 303.42708333330006 20.450000000000003 3.5750000000000006 36.320000000000007
decision_type=2 2 2 2 2 2 2 2 2 2 2 2 2 2 2 2 2 2 2 2 2 2 2 2 2 2 2 2 2
left_child=2 3 -1 12 5 -3 22 -4 9 10 -8 -10 21 -14 15 -15 17 -16 23 -20 -12 25 -6 24 -18 26 -2 28 -28
right_child=1 4 7 -5 6 -7 8 -9 11 -11 20 -13 13 14 16 -17 18 -19 19 -21 -22 -23 -24 -25 -26 -27 27 -29 -30
leaf_value=-0.0026235835378762471 -0.25424942897448255 0.48081103063080655 0.65096923154472663 0.19204573817789133 -0.16418955392809922 -0.036065784071484544 0.11072878971015646 0.35378572078806669 0.083668011602714532 0.19103481191822422 -0.091018325568513719 0.3386064954474784 0.10809467501506721 -0.19156843564425688 -0.18372770537455099 0.13974009588705383 -0.20231225468621175 0.047431523172103127 -0.01196902139437288 -0.24939621585708849 -0.21409412335281194 -0.15518299298526142 -0.24950636861312095 -0.17357751133721314 -0.2486517537011084 -0.20291585620621641 -0.24625267154501196 -0.24994870141725281 -0.2477203556040041
leaf_weight=8.2536810114979762 5.6937528252601686 8.6316806450486165 11.441892303526403 9.1049480810761434 4.9791080579161626 5.1661437377333632 6.0225301682949128 8.916557811200617 6.9050496369600278 6.4753994271159163 5.3182359263300878 7.2499094754457474 6.1660010591149321 10.143298059701921 6.4506254941225034 7.3022499606013289 4.9706950634717968 5.1202481687068939 7.4162663295865041 5.7151700109243393 5.9360110983252525 4.7455964833497992 7.1795803382992744 5.2232751846313468 24.839187674224377 4.8625918477773658 7.2882863432168978 4.8901663124561301 4.7353778257966042
leaf_count=59 50 69 77 67 46 51 52 68 52 62 45 50 61 90 60 67 52 46 73 56 56 48 70 43 250 49 77 48 48
internal_value=-0.00596698 -0.062997 0.369816 -0.131658 0.0710355 0.287283 0.011439 0.520809 0.0839306 0.00627194 -0.0629779 0.214243 -0.157162 -0.129593 -0.148582 -0.0528914 -0.176528 -0.081437 -0.199372 -0.115304 -0.155934 -0.228486 -0.214568 -0.230884 -0.240925 -0.24115 -0.249374 -0.247732 -0.246831
internal_weight=217.144 188.531 28.6121 124.668 63.8636 13.7978 50.0658 20.3585 37.9071 23.7522 17.2768 14.155 115.563 83.347 77.181 17.4455 59.7355 11.5709 48.1646 13.1314 11.2542 32.2158 12.1587 35.0332 29.8099 27.4702 22.6076 16.9138 12.0237
internal_count=1942 1738 204 1185 553 120 433 145 317 215 153 102 1118 798 737 157 580 106 474 129 101 320 116 345 302 272 223 173 125
is_linear=0
shrinkage=0.220148


Tree=2
num_leaves=33
num_cat=0
split_feature=22 5 16 6 19 19 22 23 26 24 13 12 23 7 12 23 16 20 12 22 12 23 22 2 7 4 13 11 24 3 19 2
split_gain=17.6144 14.1314 10.8159 8.72073 10.9425 9.28341 7.33782 6.48159 6.71452 9.30352 8.98182 10.5759 5.95348 5.37657 4.71581 3.78324 3.29892 3.12801 2.53826 2.36501 2.34001 3.5038 2.32794 2.52656 1.01148 0.722468 0.190734 0.00456809 0.00253136 0.00186658 0.000202394 0.000159008
threshold=19.550000000000004 79.700000000000017 8.5500000000000025 -7.3499999999999988 13.990625000000001 16.219791666700004 26.050000000000004 3.6900000000000008 281.25000000000006 33220.500000000007 327.55208333335003 39.890000000000008 5.7650000000000006 10.450000000000001 38.250000000000007 3.8550000000000004 8.6500000000000004 12.750000000000002 49.865000000000009 24.250000000000004 43.670000000000009 4.7550000000000008 22.450000000000003 -20.598958333349994 15.350000000000003 55.050000000000004 317.03125000000006 2.7000000000000006 33548.500000000007 13.821875000000002 16.625000000000004 -7.6760416666499998
decision_type=2 2 2 2 2 2 2 2 2 2 2 2 2 2 2 2 2 2 2 2 2 2 2 2 2 2 2 2 2 2 2 2
left_child=3 2 6 4 -1 12 15 18 9 10 11 -9 16 -11 -3 -2 -5 -15 25 -12 28 -22 -10 -24 26 -4 29 30 -19 -25 -27 -32
right_child=1 14 7 5 -6 -7 -8 8 22 13 19 -13 -14 17 -16 -17 -18 20 -20 -21 21 -23 23 24 -26 27 -28 -29 -30 -31 31 -33
leaf_value=0.038984829138516509 0.088683483037867314 0.03884904156584814 -0.14472714417006416 0.15634740067487021 0.3785705491223173 0.23238994154071568 0.21120465977092251 0.048160320809211517 -0.032666340406208229 0.11968742169656814 0.02874759709684881 0.43714036932412836 -0.23577718269861581 0.038080944570998594 0.2676395724804394 -0.12758317649707052 -0.05840979630599695 -0.25079874015796066 -0.031260344378045167 -0.15217675257000129 0.011682626976599289 -0.18809968079797892 -0.035779878665485008 -0.24392712425915669 -0.12348261144522472 -0.24342395400241171 -0.19195583076865397 -0.25057545960829442 -0.2435985390997614 -0.24925617196118272 -0.24057594231645979 -0.24251745572753619
leaf_weight=8.3296197205781954 7.197817079722884 9.5445999950170535 4.4976269453764024 5.8232306540012422 10.267774522304533 8.0375465825200063 10.088560059666632 9.3544416204094905 7.0498509332537642 4.7654921784996978 7.3604173734784109 5.3109052255749694 5.7950241491198531 4.5583633556962004 8.047835171222685 8.6092733889818174 8.5660953447222692 4.3100189566612261 3.9869767203927031 6.6791186407208443 6.8649222180247333 11.18901254981756 5.1633393466472652 6.6421018913388306 5.3676816597580901 4.0675310567021397 4.1103841438889495 4.1903339922428122 5.247761070728302 6.1211692169308662 4.1873699948191696 3.994795687496655
leaf_count=58 46 58 54 47 56 50 78 85 68 49 57 43 44 44 51 76 73 44 42 67 77 122 52 78 58 48 47 43 62 63 54 48
internal_value=-0.0100235 -0.0432132 -0.06498 0.10943 0.226473 0.0323016 0.0645159 -0.0918028 -0.0667892 -0.0254793 0.0685358 0.189025 -0.0473749 -0.0985442 0.143512 -0.0291054 0.0285005 -0.130872 -0.192255 -0.0573247 -0.158764 -0.112133 -0.14549 -0.174514 -0.206721 -0.222912 -0.2332 -0.244301 -0.246845 -0.246483 -0.242155 -0.241524
internal_weight=215.327 168.508 150.915 46.8193 18.5974 28.2219 25.8957 125.02 100.095 65.6405 28.7049 14.6653 20.1844 36.9356 17.5924 15.8071 14.3893 32.1701 24.9246 14.0395 27.6117 18.0539 34.4545 27.4047 22.2413 20.9377 16.8737 16.44 9.55778 12.7633 12.2497 8.18217
internal_count=1942 1614 1505 328 114 214 200 1305 1016 650 252 128 164 398 109 122 120 349 289 124 305 199 366 298 246 247 188 193 106 141 150 102
is_linear=0
shrinkage=0.220148


Tree=3
num_leaves=28
num_cat=0
split_feature=28 28 5 25 10 28 24 28 28 27 23 20 28 10 0 24 28 0 17 1 13 2 12 2 5 5 5
split_gain=34.2764 19.465 11.4031 10.9858 7.78658 6.9425 8.32418 9.21777 7.55472 6.62215 5.51497 5.20073 6.87812 3.57364 2.81963 2.60072 6.94337 8.39091 2.56711 2.26231 2.12087 1.71418 3.95615 0.58922 0.433408 1.46546 0.00929197
threshold=1279022400.0000002 1552910400.0000002 89.300000000000011 99.984375000000014 607.30520833335015 1561420800.0000002 33217.000000000007 1603713600.0000002 1637755200.0000002 258.75000000000006 29.195000000000004 11.750000000000002 1320580800.0000002 614.02187500000014 9.4156250000000004 33542.500000000007 1441238400.0000002 7.3145833333000008 14.815500000000002 25.250000000000004 326.98958333330006 -18.832291666649997 37.780000000000008 1.3833333333500002 63.600000000000009 53.900000000000013 71.600000000000009
decision_type=2 2 2 2 2 2 2 2 2 2 2 2 2 2 2 2 2 2 2 2 2 2 2 2 2 2 2
left_child=3 2 10 4 14 -3 13 19 -9 -10 11 -2 -13 -7 -1 21 24 -18 -11 -8 -19 22 -14 26 25 -17 -23
right_child=1 5 -4 -5 -6 6 7 8 9 18 -12 12 15 -15 -16 16 17 20 -20 -21 -22 23 -24 -25 -26 -27 -28
leaf_value=0.28936273042366639 0.0094042751948797462 0.24714395964973188 0.22908120564844195 0.38642888840031525 -0.041125459847541533 0.27593667781287318 -0.078978633152895675 0.25357599645970608 -0.17445666477185717 -0.01361605070907094 0.10407797132021379 0.032148043658732021 -0.24508161299979098 0.048176025026350315 0.11169713025382932 -0.23945944062104882 0.24416988741061871 -0.24029696342248819 0.15442117723835583 -0.25143611587310444 -0.013695855797301152 -0.24244924889783787 0.021420781675298088 -0.16818833096797633 -0.25731344198221995 -0.077013343638679038 -0.25350554118177665
leaf_weight=8.7390219643712097 10.502109810709952 7.0701832622289649 4.5943904221057883 9.4658421128988248 10.198624983429907 7.1607391759753209 6.9304162412881833 6.3810767680406562 8.4142046719789523 9.7145382985472697 4.8318584710359564 8.6048513464629632 6.3771529681980521 6.2553644925355911 8.5795792341232282 8.2800665646791511 4.438864789903163 4.227781940251587 8.063569173216818 7.8761577010154724 3.801999919116497 25.536521498113881 4.6813399940729141 5.9528121054172507 6.4035904482007018 3.9876431673765174 4.3050655946135512
leaf_count=46 93 47 27 48 61 50 52 52 84 81 42 92 76 49 49 115 46 58 51 87 44 322 40 75 64 50 41
internal_value=-0.0106538 -0.0514785 -0.110184 0.181854 0.111481 0.0406683 0.0166565 -0.026691 0.0387766 -0.0135537 -0.125476 -0.136899 -0.154642 0.169741 0.201348 -0.17525 -0.125939 0.00127057 0.0626002 -0.170715 -0.133004 -0.208024 -0.132264 -0.231429 -0.210889 -0.186656 -0.244044
internal_weight=211.375 174.392 106.526 36.9831 27.5172 67.8662 60.7961 47.38 32.5734 26.1923 101.932 97.0998 86.5977 13.4161 17.3186 77.9928 31.1399 12.4686 17.7781 14.8066 8.02978 46.8529 11.0585 35.7944 18.6713 12.2677 29.8416
internal_count=1942 1738 1185 204 156 553 506 407 268 216 1158 1116 1023 99 95 931 377 148 132 139 102 554 116 438 229 165 363
is_linear=0
shrinkage=0.220148


Tree=4
num_leaves=28
num_cat=0
split_feature=28 28 28 5 23 23 19 23 19 17 5 16 0 27 7 10 24 7 17 20 24 22 19 6 22 23 12
split_gain=20.4048 13.2475 9.09612 7.26141 4.98492 5.50327 4.40915 5.11751 4.3288 7.89174 5.79795 5.76134 3.84268 3.1335 3.89019 2.91399 2.88626 2.83347 2.35197 1.97081 1.52623 0.880632 0.678096 0.260058 0.00505701 0.000429712 0.000170268
threshold=1279022400.0000002 1552910400.0000002 1237852800.0000002 89.300000000000011 3.9750000000000005 4.1750000000000007 13.168750000000001 30.175000000000004 18.426041666650004 11.032000000000002 73.200000000000017 8.5500000000000025 3.4343750000000006 214.11442454270002 10.250000000000002 612.86979166670005 32914.000000000007 13.15 8.929000000000002 13.750000000000002 32959.500000000007 27.150000000000002 21.328125000000004 3.2500000000000004 20.050000000000004 3.6750000000000003 36.320000000000007
decision_type=2 2 2 2 2 2 2 2 2 2 2 2 2 2 2 2 2 2 2 2 2 2 2 2 2 2 2
left_child=2 3 -1 4 21 -6 -7 13 9 11 18 -3 19 14 -8 -14 -4 -16 -10 -11 -15 23 -22 24 -2 26 -26
right_child=1 8 16 -5 5 6 7 -9 10 12 -12 -13 15 20 17 -17 -18 -19 -20 -21 22 -23 -24 -25 25 -27 -28
leaf_value=-0.057240904890205571 -0.24577931662743585 0.34054739604191964 0.13667159858715092 0.15841136130206962 0.13617739754327932 0.056254432341812051 0.10360564962178799 0.11585303572017833 -0.02535665297873619 0.15813312676188546 0.10971038939877892 0.074711837577850965 0.036575052476935224 -0.094373920525686744 -0.24336010493040977 -0.14737334144765091 0.27733298587327915 -0.079041828098849756 -0.22080199481544702 0.0069212036976495422 -0.24921327635073964 -0.099473846576251745 -0.15209079948986062 -0.16809146913571321 -0.23426855458827564 -0.23822762137970088 -0.23628783730092415
leaf_weight=9.4192727953195554 3.2497984617948594 6.9596268236637142 18.338324435055259 5.0999189913272849 5.1130778491497031 7.6628238782286635 4.2607926875352886 4.103508658707141 4.801870137453081 7.8232850804924992 6.4371709674596778 9.1405726820230466 7.1549609974026707 5.4638071916997459 6.9706484898924854 10.017063044011591 11.505728974938391 18.811456795781851 7.8828272745013237 8.9636956453323346 14.701257254928352 3.1606936492025843 4.5661649331450453 3.1241942681372157 4.8412424288690072 2.8927909582853308 3.4775383621454239
leaf_count=59 39 42 90 27 51 76 41 34 52 49 35 87 56 59 90 91 55 247 87 54 185 46 55 48 87 44 56
internal_value=-0.0114047 -0.0450371 0.131371 -0.0973165 -0.111431 -0.0839167 -0.100829 -0.121273 0.0286425 0.0626777 -0.0604585 0.189624 0.00249139 -0.139038 -0.0912637 -0.0707287 0.190901 -0.123468 -0.146815 0.0773909 -0.197073 -0.206461 -0.226196 -0.225689 -0.238133 -0.235916 -0.235113
internal_weight=205.944 166.681 39.2633 97.4997 92.3998 71.6535 66.5405 58.8776 69.1811 50.0592 19.1219 16.1002 33.959 54.7741 30.0429 17.172 29.8441 25.7821 12.6847 16.787 24.7312 20.7463 19.2674 17.5856 14.4614 11.2116 8.31878
internal_count=1942 1738 204 1185 1158 838 787 711 553 379 174 129 250 677 378 147 145 337 139 103 299 320 240 274 226 187 143
is_linear=0
shrinkage=0.220148


Tree=5
num_leaves=32
num_cat=0
split_feature=28 28 21 28 20 12 13 28 17 2 0 3 4 28 14 24 28 13 23 23 24 8 23 6 22 28 12 19 23 7 13
split_gain=12.5923 9.45171 6.13637 5.97715 4.11172 5.87863 5.1588 3.79827 3.66925 3.46811 5.04809 3.1217 7.4625 4.14993 4.24215 3.44862 3.92213 3.05074 3.00695 2.87138 2.76371 1.83582 1.72036 0.692167 0.449202 0.00466366 0.00280785 0.00228097 0.000512308 0.000435739 4.77559e-05
threshold=1279022400.0000002 1441238400.0000002 2.0906250000000006 1248912000.0000002 14.750000000000002 29.395000000000007 376.06250000000006 1259150400.0000002 14.029000000000002 -21.729166666649999 2.0312500000000004 6.8687500000000012 223.23000000000005 1537444800.0000002 7.6500000000000012 33539.500000000007 1603713600.0000002 400.62500000000006 7.1850000000000014 5.830000000000001 33300.500000000007 7.6093750000000009 19.500000000000004 2.5500000000000003 20.750000000000004 1312156800.0000002 37.995000000000012 23.191666666650004 3.8250000000000006 12.750000000000002 216.64583333335003
decision_type=2 2 2 2 2 2 2 2 2 2 2 2 2 2 2 2 2 2 2 2 2 2 2 2 2 2 2 2 2 2 2
left_child=3 4 9 8 5 -2 22 -5 -1 -3 -11 13 21 -12 -15 16 18 -8 -14 -18 -7 26 24 -4 -6 -26 -13 28 30 -30 -27
right_child=1 2 23 7 6 20 17 -9 -10 10 11 12 15 14 -16 -17 19 -19 -20 -21 -22 -23 -24 -25 25 27 -28 -29 29 -31 -32
leaf_value=-0.10072608899141133 0.14266628093024003 -0.10437489006265652 -0.10524613078839708 0.27585453179783365 -0.16427420937260967 -0.03744065248179157 0.13355470682496928 0.095138649318801408 0.10165739286109308 0.21477257515181652 -0.08312315783740791 -0.24581339697050439 -0.12879735786621171 0.028480068133160959 0.24493065134034978 0.159111436878275 0.0048467640459770259 -0.13473357162427768 0.039076934715370652 0.19296910604128156 -0.25213938428547344 -0.044327136938667015 -0.043790048740383301 -0.23797171817489207 -0.24485070680467907 -0.23106672830435246 -0.23717351799751105 -0.24027389473542596 -0.23607832697468645 -0.23305394519455305 -0.23250408151225863
leaf_weight=8.6257234215736407 6.3614131547510651 10.488899566233156 3.1408313997089854 9.8236804902553576 5.3610910251736703 7.7856590412557107 4.028870511800049 13.225007146596907 8.7417708635330182 6.5959887057542792 5.5657230690121677 3.7213687747716886 13.295561257749798 8.9144001454114932 8.6431218907237035 7.7260991893708697 9.9918996095657366 4.1909420266747475 8.4625974074006063 6.4839828237891188 4.6360798999667168 3.3307651728391647 2.9838643968105307 4.8368953242897987 2.6334971897304085 2.3812822550535229 3.5736601650714874 3.1085210144519797 4.7487037219107133 4.4935027435421944 2.1155771166086197
leaf_count=53 64 74 42 42 67 83 48 68 41 44 80 45 130 59 72 69 73 63 70 47 53 46 27 75 33 54 59 48 81 89 43
internal_value=-0.0110956 -0.0388924 -0.000136617 0.098672 -0.11295 -0.0294349 -0.156469 0.172162 0.0011418 0.0151589 0.0296862 0.0143701 -0.01348 0.0825234 0.135033 0.0249609 -0.00214741 -0.00323438 -0.0635045 0.0788812 -0.117571 -0.17975 -0.201735 -0.185718 -0.220706 -0.236235 -0.241581 -0.234889 -0.23367 -0.234608 -0.231743
internal_weight=200.017 159.601 104.772 40.4162 54.829 18.7832 36.0459 23.0487 17.3675 96.7941 86.3052 79.7092 56.5859 23.1232 17.5575 45.9601 38.234 8.21981 21.7582 16.4759 12.4217 10.6258 27.826 7.97773 24.8422 19.4811 7.29503 16.8476 13.7391 9.24221 4.49686
internal_count=1942 1738 985 204 753 200 553 110 94 868 794 750 539 211 131 389 320 111 200 120 136 150 442 117 415 348 104 315 267 170 97
is_linear=0
shrinkage=0.220148


Tree=6
num_leaves=26
num_cat=0
split_feature=28 5 22 16 27 20 28 22 3 23 19 10 23 13 20 6 23 21 12 10 3 13 3 23 27
split_gain=9.37863 6.9697 8.07939 5.15087 5.61071 5.04068 3.93705 3.93182 3.71165 9.29274 3.27266 3.156 2.83891 5.13759 3.73451 2.72115 1.86181 1.84944 3.52848 1.07816 1.28335 1.38377 0.00426693 0.00244386 0.000828849
threshold=1284076800.0000002 73.200000000000017 24.450000000000003 8.5500000000000025 281.25000000000006 12.750000000000002 1322265600.0000002 24.150000000000002 8.1562500000000018 8.4500000000000011 12.548958333350003 613.88437500000009 5.455000000000001 396.23958333330006 11.750000000000002 -4.2499999999999991 6.4450000000000012 2.0906250000000006 43.670000000000009 605.13229166665008 15.433333333350001 304.03125000000006 16.672916666650003 3.6250000000000004 214.11442454270002
decision_type=2 2 2 2 2 2 2 2 2 2 2 2 2 2 2 2 2 2 2 2 2 2 2 2 2
left_child=8 3 5 4 15 -3 7 -5 -1 -10 -8 -6 13 14 -12 -2 -7 18 -16 22 21 -21 24 -19 -14
right_child=1 2 -4 6 11 16 10 -9 9 -11 12 -13 19 -15 17 -17 -18 23 -20 20 -22 -23 -24 -25 -26
leaf_value=0.19713284273032167 -0.16831878397760366 0.082587651908766158 0.20879585012665144 -0.11008253349572877 0.19152916629918676 -0.02566992031664906 0.069867778232484704 0.17656171877956817 -0.082052116364744951 0.1543342510590868 0.113466833310138 -0.0014874137562241061 -0.237955503764992 0.12188783209811054 -0.17388140775627076 0.031944114119138514 -0.17328546618244467 -0.23204084688675364 -0.0016377483801159728 0.011858334023242519 -0.24255253561818929 -0.16804187487507247 -0.24571319645801981 -0.23969636898070723 -0.23324178951114818
leaf_weight=9.3685035482048971 9.0897941626608389 12.780437521636488 9.8866265341639501 4.6187360361218435 8.0366092547774333 8.0710665248334426 4.1923656426370135 4.6582192294299603 15.644750706851481 16.624584503471851 2.9707351066172114 8.3936398178338987 5.4242771007120627 4.674707453697919 16.866422422230247 5.152306154370307 8.5041586197912675 4.2420774996280652 8.7567178495228273 3.4082693457603437 4.4808713905513278 5.2860689461231232 3.3566368818283072 3.8597956672310829 2.711756706237793
leaf_count=49 76 88 59 52 46 64 59 55 85 78 28 54 86 61 304 49 73 92 112 48 60 74 42 60 55
internal_value=-0.0172527 -0.0430003 0.0366687 -0.0713756 0.00526086 -0.0213017 -0.10094 0.0338496 0.0751455 0.0397299 -0.118745 0.0929237 -0.130719 -0.0954726 -0.123162 -0.0958705 -0.101406 -0.144006 -0.115017 -0.18983 -0.146845 -0.0975192 -0.239109 -0.235688 -0.236384
internal_weight=191.06 149.422 39.2423 110.18 30.6723 29.3557 79.5077 9.27696 41.6378 32.2693 70.2307 16.4302 66.0383 41.3705 36.6957 14.2421 16.5752 33.725 25.6231 24.6679 13.1752 8.69434 11.4927 8.10187 8.13603
internal_count=1909 1697 284 1413 225 225 1188 107 212 163 1081 100 1022 657 596 125 137 568 416 365 182 122 183 152 141
is_linear=0
shrinkage=0.220148


Tree=7
num_leaves=27
num_cat=0
split_feature=28 21 28 23 4 23 28 23 7 3 19 19 13 3 3 2 24 10 5 21 7 26 25 10 23 23
split_gain=5.97479 5.16831 4.46391 3.78446 3.65353 5.85549 3.57832 3.07994 3.64914 3.31802 4.74879 3.09962 3.98684 3.07016 3.27332 2.6513 2.56977 3.33041 2.16022 1.81401 1.65981 1.60496 0.878225 0.328506 0.00437238 0.0031861
threshold=1284076800.0000002 2.1270833333500003 1552910400.0000002 3.6750000000000003 183.42000000000004 8.4500000000000011 1561420800.0000002 4.1750000000000007 11.65 26.766666666650003 12.525000000000002 21.328125000000004 291.73958333335003 10.890625000000002 6.3968750000000005 -4.4010416666499994 33252.500000000007 705.18333333335011 81.300000000000011 -3.6385416666499997 12.750000000000002 101.25000000000001 98.388541666700021 614.2260416667001 3.2150000000000003 3.6250000000000004
decision_type=2 2 2 2 2 2 2 2 2 2 2 2 2 2 2 2 2 2 2 2 2 2 2 2 2 2
left_child=4 2 3 23 -1 22 -4 8 -5 10 -9 15 -13 14 -8 18 -15 -18 -12 -14 -16 -3 -6 24 -2 -23
right_child=1 21 6 7 5 -7 13 9 -10 -11 11 12 19 16 20 -17 17 -19 -20 -21 -22 25 -24 -25 -26 -27
leaf_value=0.19021984198744604 -0.2313765048854696 -0.060973430489235529 0.15174502039074772 0.22573357062756469 -0.11616134099325595 0.11675629243840328 0.034379534749243282 0.13260875103323436 -0.072604634364219892 0.095749147971383383 -0.19404907245537717 0.14230347159932422 -0.24217423522922832 0.13010103534950587 -0.19936454016774466 0.019147446363139461 -0.088901827077124962 0.090763220924092738 -0.019403489443172939 0.0047024703177011408 -0.051817729928773884 -0.23064038486607646 -0.015949851784791014 -0.1370759950763254 -0.24375011068235519 -0.23992264717453335
leaf_weight=8.103757441043852 2.9435896798968306 3.7604821864515525 8.3042959868907911 4.1288490556180468 8.4511045366525668 17.069373957812786 10.424722939729692 4.4254707284271708 3.8304470628499985 5.5598409846425048 22.856966679915786 4.8613627366721612 3.118209371343255 10.791201837360861 7.5036883018910867 4.2576449364423814 10.476357173174621 9.5664154812693578 4.0390810444951049 2.6841719560325146 7.2801893651485443 2.8458371963351965 8.5026334524154645 2.2241953611373901 2.6124115195125341 4.8405378479510546
leaf_count=40 69 73 46 59 49 78 68 44 51 38 372 51 47 71 81 70 89 61 26 48 85 71 45 48 48 81
internal_value=-0.0155086 -0.0369301 -0.0246146 -0.0641462 0.0573777 0.0257369 0.01688 -0.0453439 0.082157 -0.0649339 -0.084253 -0.107203 -0.00475808 -0.00310402 -0.0600912 -0.14227 0.0434864 -0.0031477 -0.167822 -0.127969 -0.126706 -0.178827 -0.0659033 -0.208573 -0.237195 -0.236486
internal_weight=185.463 143.336 131.889 67.5422 42.1269 34.0231 64.3469 59.762 7.9593 51.8027 46.2429 41.8174 10.6637 56.0426 25.2086 31.1537 30.834 20.0428 26.896 5.80238 14.7839 11.4469 16.9537 7.7802 5.556 7.68638
internal_count=1909 1697 1472 971 212 172 501 806 110 696 658 614 146 455 234 468 221 150 398 95 166 225 94 165 117 152
is_linear=0
shrinkage=0.220148


Tree=8
num_leaves=26
num_cat=0
split_feature=28 25 24 8 28 19 28 28 23 10 19 22 12 5 6 19 27 0 12 27 28 24 28 5 20
split_gain=3.85961 4.73739 4.16403 5.83476 3.75225 7.35942 6.36567 4.25006 3.55711 4.27369 3.48453 2.59214 3.99746 2.84372 2.11852 3.07731 1.50619 1.18727 0.89971 0.473614 0.888329 0.0261752 0.0153055 0.0064032 0.00391846
threshold=1284076800.0000002 97.121875000000003 32303.500000000004 8.0802083333500025 1373544000.0000002 22.690625000000001 1383652800.0000002 1407888000.0000002 3.9550000000000005 612.65104166665003 15.061458333350002 17.250000000000004 32.275000000000006 73.200000000000017 -6.4499999999999993 18.348958333300001 303.75000000000006 7.6510416666500012 47.030000000000008 202.86442454270002 1330905600.0000002 33283.500000000007 1309435200.0000002 63.600000000000009 27.250000000000004
decision_type=2 2 2 2 2 2 2 2 2 2 2 2 2 2 2 2 2 2 2 2 2 2 2 2 2
left_child=1 -1 -2 4 5 10 -6 17 9 21 -4 -10 -13 -14 -3 -16 -11 -8 -5 20 -12 -9 -21 -24 -20
right_child=2 14 3 18 6 -7 7 8 11 16 19 12 13 -15 15 -17 -18 -19 24 22 -22 -23 23 -25 -26
leaf_value=-0.10540955911761565 0.12505274750866929 0.15849160726540779 0.049685644532109337 -0.11545732343023922 0.24945646724780668 0.17799170642659332 -0.24412421340450491 -0.26438544529590008 -0.10545908951894527 -0.084910546403643053 -0.060534429666570203 0.15476871392099698 -0.032538653418564094 0.079416531683071542 -0.04107750728811297 0.12141629757071115 0.068465266883615122 -0.05616900572915904 -0.24344785214100628 -0.25852999743511557 -0.23407039623988657 -0.23472018003702325 -0.23190821890739635 -0.24691535450697136 -0.23294671541697495
leaf_weight=8.2340051159262639 7.7498710770159951 11.31817004829645 2.939545037224895 5.0171875376254302 4.4455810599029055 3.5654566325247279 4.8691001627594224 2.7169431187212494 7.4191787913441649 7.3904719520360214 2.3644150849431744 10.646705012768505 32.044122859835625 16.740255549550056 11.073051787912847 11.529922030866144 5.3490560408681631 2.4475737567991018 2.9713616818189621 3.0878587737679464 3.6161013543605804 3.0708099436014891 2.8462683744728565 2.6710743512958288 4.0963464248925447
leaf_count=47 80 52 47 90 51 47 85 31 57 72 34 72 397 114 55 58 40 51 42 32 79 77 70 42 87
internal_value=-0.0139218 0.0443827 -0.0317237 -0.0410472 -0.0261541 -0.110323 -0.0078797 -0.0202214 -0.00642169 -0.0917785 -0.168979 0.0172346 0.0325513 0.00587853 0.0807432 0.0418116 -0.0205113 -0.181249 -0.186752 -0.213048 -0.165462 -0.248646 -0.246119 -0.239174 -0.237362
internal_weight=180.22 42.1551 138.065 130.315 118.231 21.0907 97.1398 92.6942 85.3775 18.5273 17.5253 66.8503 59.4311 48.7844 33.9211 22.603 12.7395 7.31667 12.0849 14.5857 5.98052 5.78775 8.6052 5.51734 7.06771
internal_count=1909 212 1697 1617 1398 351 1047 996 860 220 304 640 583 511 165 113 112 136 219 257 113 108 144 112 129
is_linear=0
shrinkage=0.220148


Tree=9
num_leaves=30
num_cat=0
split_feature=15 28 28 9 1 23 20 20 0 13 23 26 1 1 27 12 6 6 19 7 17 19 22 24 21 5 3 1 12
split_gain=3.33977 3.25632 6.16218 5.08777 4.07969 3.60099 4.67603 4.23837 5.08553 3.71544 3.3615 3.35108 3.26117 3.11415 5.25199 3.04005 2.67899 4.62892 2.12968 2.02095 1.97451 1.4209 0.937266 0.186228 0.0159553 0.00934831 0.000723235 0.000678256 0.000100456
threshold=0.18937500000000004 1322265600.0000002 1373544000.0000002 7.9947916666500012 12.750000000000002 3.5750000000000006 21.750000000000004 11.250000000000002 6.0531250000000005 386.57291666665009 25.510000000000002 303.75000000000006 39.750000000000007 21.250000000000004 78.750000000000014 36.920000000000009 -7.4499999999999993 -2.6499999999999999 16.434375000000003 12.250000000000002 13.893000000000002 22.690625000000001 22.650000000000002 33276.500000000007 -0.20208333334999998 74.800000000000011 12.68125 49.250000000000007 45.350000000000001
decision_type=2 2 2 2 2 2 2 2 2 2 2 2 2 2 2 2 2 2 2 2 2 2 2 2 2 2 2 2 2
left_child=-1 4 21 5 -2 18 7 8 15 11 16 12 -8 20 -15 -7 -9 -18 22 -16 -6 25 -4 -5 -20 26 28 -25 -3
right_child=1 2 3 23 13 6 9 10 -10 -11 -12 -13 -14 14 19 -17 17 -19 24 -21 -22 -23 -24 27 -26 -27 -28 -29 -30
leaf_value=0.15432923920505165 -0.077828904660328629 -0.22706683275557449 -0.12463771515850293 -0.15741365444668404 0.056745001795817478 0.08727656671919827 0.099084758431752074 -0.19071401591244211 0.22824966831253188 0.30202505966553211 0.13336584076569458 0.21595588894951095 -0.17759144662894807 0.16456578944352299 0.018750665860233721 -0.10596584067529267 0.0130615322061457 -0.14538513159013827 -0.25497169965270472 -0.14701692494686747 0.20886068587508419 -0.033101896182886059 0.019801355351397525 -0.23727958830311291 -0.22855476654622192 -0.24780738409506367 -0.23247063347243019 -0.23179712631472624 -0.22940852500516545
leaf_weight=5.6312163509428492 13.003169175237415 2.2238685078918921 4.4290170148015005 2.3199866414070121 7.8748783916234997 8.2906394116580504 4.5645282436162251 7.5571714453399101 6.3721951730549327 3.8413239382207385 4.2656337842345229 4.154930828139185 3.7700718976557255 7.0762030184268978 6.8604495953768474 7.5282764844596377 23.506732339039438 14.416342522948993 2.0283737629652014 7.4190249070525169 8.7096973359584791 2.119315778836607 4.2827585320919752 2.2138093188405037 2.4422710239887238 1.8235002271831033 3.3375910948961973 2.1613634862005711 1.4779066275805233
leaf_count=44 73 82 59 41 50 48 50 73 52 43 36 42 75 48 48 63 250 188 34 53 53 40 45 43 77 23 78 54 44
internal_value=-0.0124719 -0.0179949 -0.0379154 -0.0219597 0.0285879 -0.00969298 0.00633565 -0.0178068 0.0622001 0.112682 -0.053497 0.0544476 -0.0260669 0.0650599 0.00947836 -0.00468816 -0.0710231 -0.0471715 -0.117019 -0.0673753 0.136631 -0.195037 -0.0536306 -0.207835 -0.24054 -0.23376 -0.230121 -0.234571 -0.228002
internal_weight=175.702 170.071 119.128 108.145 50.9434 101.45 88.2678 71.937 22.1911 16.3309 49.7459 12.4895 8.3346 37.9403 21.3557 15.8189 45.4802 37.9231 13.1824 14.2795 16.5846 10.9822 8.71178 6.69516 4.47064 8.86287 7.03937 4.37517 3.70178
internal_count=1909 1865 1540 1273 325 1135 920 710 163 210 547 167 125 252 149 111 511 438 215 101 103 267 104 138 111 227 204 97 126
is_linear=0
shrinkage=0.220148


Tree=10
num_leaves=27
num_cat=0
split_feature=24 12 23 8 8 17 19 20 17 22 8 6 8 13 26 6 2 25 3 15 10 5 22 10 3 28
split_gain=2.49755 2.9169 4.88303 3.20332 5.03765 5.84837 4.46967 3.46374 4.83772 3.21959 3.10124 2.96399 2.79202 2.56465 2.49321 2.22648 2.44363 2.08513 1.52328 1.38537 0.767792 0.0147635 0.00955074 0.00382037 0.00113196 0.000234619
threshold=33585.500000000007 47.630000000000003 29.195000000000004 7.6489583333500013 5.2916666666500012 11.165500000000002 17.433333333350003 21.250000000000004 12.154500000000001 20.750000000000004 8.2854166666500024 2.3500000000000001 7.8333333333000015 386.57291666665009 303.75000000000006 -9.9499999999999975 -17.756249999999998 99.411458333350012 9.5938446970000033 0.51093750000000016 609.15520833335006 70.000000000000014 23.850000000000005 605.51666666665017 10.035416666700003 1420632000.0000002
decision_type=2 2 2 2 2 2 2 2 2 2 2 2 2 2 2 2 2 2 2 2 2 2 2 2 2 2
left_child=1 2 3 4 5 6 -1 8 -7 -6 -5 18 -13 14 21 -10 -17 -14 -3 22 -9 24 -11 -24 25 -2
right_child=13 11 -4 10 9 7 -8 20 15 19 -12 12 17 -15 -16 16 -18 -19 -20 -21 -22 -23 23 -25 -26 -27
leaf_value=0.036821854904310253 -0.22637540395365852 -0.2539542258852992 0.19100558643728568 0.26467812489841441 0.039816996358571506 -0.20356144250574784 0.27089974827776553 0.16392021165862755 -0.14949260333183489 -0.25406137845682814 0.024264151399120925 0.1072167598399188 0.025279690925669011 0.08365952177943807 0.024152749071812162 0.022153223932243553 -0.069657346834414255 -0.24064931690663138 -0.076144169673689449 -0.067766803942473891 0.042778492719441806 -0.25401813611321605 -0.23178117156553069 -0.24361825038672777 -0.23559677314682628 -0.23038278596943576
leaf_weight=10.835978556424381 1.4042015448212608 5.1126413531601447 6.6599022112786761 4.0342847518622857 3.8498845379799596 7.3763611633330575 6.2245938312262288 5.031088585034011 5.6242954563349334 2.5808960832655412 7.316642640158534 5.4770623631775361 2.7549139391630888 2.5525212641805402 2.415008882060647 47.009595755487666 20.039564860053389 2.9691072339192033 4.2981203980743885 3.0242981370538473 5.1121011804789305 1.9462690614163873 2.6321863159537315 2.6536578275263309 1.6890247296541927 1.4282621964812277
leaf_count=85 57 83 39 55 37 91 46 37 57 42 84 52 27 37 39 378 240 70 46 26 61 32 68 41 37 42
internal_value=-0.0114232 -0.00434587 0.00703737 -0.00215087 -0.012559 0.00402602 0.122226 -0.0183322 -0.0336893 -0.13323 0.109711 -0.0816662 -0.0051457 -0.11083 -0.166717 -0.0164473 -0.005287 -0.11266 -0.172744 -0.194401 0.102866 -0.237987 -0.243084 -0.237724 -0.231086 -0.228396
internal_weight=172.052 160.617 140.005 133.345 121.995 107.254 17.0606 90.193 80.0498 14.7409 11.3509 20.6118 11.2011 11.4353 8.88277 72.6735 67.0492 5.72402 9.41076 10.891 10.1432 6.46776 7.86674 5.28584 4.52149 2.83246
internal_count=1909 1665 1387 1348 1209 995 131 864 766 214 139 278 149 244 207 675 618 97 129 177 98 168 151 109 136 99
is_linear=0
shrinkage=0.220148


Tree=11
num_leaves=30
num_cat=0
split_feature=28 28 21 20 20 22 5 24 10 22 10 23 8 12 7 8 13 5 26 19 6 26 9 5 14 23 28 28 23
split_gain=2.23183 3.25132 4.17874 2.29099 2.76135 2.84661 5.01704 3.71775 2.87019 3.17574 4.02377 4.93975 3.68737 2.63377 2.51928 2.95247 2.62712 2.7916 1.91129 1.88085 1.79762 2.52358 2.41059 1.71325 0.948503 0.303907 0.0374817 0.00702717 0.000681241
threshold=1226232000.0000002 1252411200.0000002 2.3343750000000005 21.750000000000004 19.500000000000004 23.850000000000005 71.600000000000009 33280.500000000007 611.43020833335015 16.550000000000004 606.38750000000016 21.735000000000003 1.2843750000000003 33.285000000000004 12.350000000000003 8.8166666666500024 365.52083333335003 50.70000000000001 101.25000000000001 12.411458333350003 -3.0499999999999994 236.25000000000003 3.9266666666500005 55.500000000000007 7.9500000000000011 4.995000000000001 1327924800.0000002 1449100800.0000002 3.9750000000000005
decision_type=2 2 2 2 2 2 2 2 2 2 2 2 2 2 2 2 2 2 2 2 2 2 2 2 2 2 2 2 2
left_child=-1 -2 3 4 5 8 7 20 9 -3 11 -11 -12 -9 24 16 17 -16 -4 -10 21 -7 -22 -6 -5 -15 -20 -19 -28
right_child=1 2 18 14 23 6 -8 13 19 10 12 -13 -14 25 15 -17 -18 27 26 -21 22 -23 -24 -25 -26 -27 28 -29 -30
leaf_value=-0.14203375626323628 0.094914145318284307 -0.18784121750748614 -0.038768540113976985 0.21154992690418006 -0.032565521115187394 -0.15696747018965332 0.13200377288303569 0.0058427639613028715 -0.043408220484215804 -0.2308481710112959 0.0095284791042145028 0.06114163377012246 0.22715228826054579 -0.13672748876887528 -0.0081421944943500316 0.15065242980016116 0.07112906244269164 -0.25005675929229104 -0.26991635885691856 -0.19785649701095059 0.18389862130610071 0.04452932546800796 -0.0074382453956357937 -0.26446093259288034 0.079110085016264306 -0.23521146416926025 -0.22656242732674103 -0.23266820222486942 -0.23246938469999223
leaf_weight=6.0129269734024993 14.269900169223545 4.4090799391269675 3.8256022194400412 4.3543787803500873 2.7503117350861421 4.7826917059719483 14.786730187013744 4.7749080583453161 6.9012112710624924 5.8045235108584183 11.719419414177539 5.4394177198410034 5.5653391527011982 2.1840708097442985 5.5814980072900706 4.9355989396572104 6.0303704477846614 2.0689627956598997 1.6085630673915146 8.5628390153869969 6.2636734209954827 8.138360324315725 6.5058094933629036 3.5206019608303905 6.5828143712133169 4.9839220363646746 1.672295965254307 2.4723832774907351 2.1794671239331365
leaf_count=36 75 44 71 28 55 66 85 63 51 69 129 34 66 42 66 63 78 45 17 89 50 71 80 52 91 101 72 59 61
internal_value=-0.010323 -0.00545461 -0.0151056 -0.00556153 -0.0210107 -0.0121944 0.023351 -0.0193403 -0.0506909 -0.0139581 0.0129154 -0.0895939 0.0795989 -0.120825 0.0460995 0.00163337 -0.0438993 -0.112424 -0.158092 -0.12893 0.0278374 -0.0300542 0.0864161 -0.162756 0.131838 -0.205204 -0.241692 -0.24059 -0.229905
internal_weight=168.688 162.675 148.405 139.119 107.093 100.822 52.4202 37.6334 48.4018 32.9378 28.5287 11.2439 17.2848 11.9429 32.026 21.0888 16.1532 10.1228 9.28593 15.4641 25.6905 12.9211 12.7695 6.27091 10.9372 7.16799 5.46033 4.54135 3.85176
internal_count=1909 1873 1798 1577 1147 1040 558 473 482 342 298 103 195 206 430 311 248 170 221 140 267 137 130 107 119 143 150 104 133
is_linear=0
shrinkage=0.220148


Tree=12
num_leaves=24
num_cat=0
split_feature=9 4 3 23 11 24 7 9 7 21 10 24 23 28 4 28 13 22 27 5 28 15 12
split_gain=3.37197 3.11228 5.11364 4.41354 2.66983 3.70689 2.56907 4.49448 5.77898 3.00241 3.63104 2.56382 2.40296 4.19497 4.18121 1.31619 1.17732 1.07416 0.846777 0.495387 0.00686915 0.00517177 0.00514591
threshold=8.7958333333500018 103.79000000000001 3.6989583333000007 3.5750000000000006 0.3000000000000001 33573.500000000007 9.3500000000000032 -0.22812499999999999 10.450000000000001 -10.084375 611.43020833335015 33505.500000000007 8.4500000000000011 1253966400.0000002 409.14500000000004 1413763200.0000002 281.32291666665009 20.750000000000004 236.25000000000003 31.400000000000006 1332331200.0000002 0.30434226190000008 30.490000000000006
decision_type=2 2 2 2 2 2 2 2 2 2 2 2 2 2 2 2 2 2 2 2 2 2 2
left_child=1 2 16 17 5 6 9 11 -9 10 -5 18 13 -10 -14 22 -1 -3 -8 -19 -21 -22 -7
right_child=-2 3 -4 4 -6 15 7 8 12 -11 -12 -13 14 -15 -16 -17 -18 19 -20 20 21 -23 -24
leaf_value=-0.12043392087374655 -0.19999362735638296 -0.075604311445762296 0.26685045261166412 0.18143698876933073 0.12745764851078334 -0.24501353951206536 -0.10073456713532977 0.21406372523095041 -0.24925288518954 -0.058849027667312537 0.0098192819886456419 0.025588428350568428 0.12578656752790818 -0.018376684601037901 -0.092276176091603365 -0.066566839029231495 0.075386680412468585 -0.10960367268978274 -0.19975226575194474 -0.2524999590975705 -0.24526051448192659 -0.22666299032369058 -0.2296011491625243
leaf_weight=3.3182177394628507 4.5303095821291199 6.9716562982648593 5.1113294828683138 11.470988722518088 7.1088916528969994 1.8429753640666584 8.6049490161240154 6.0027105528861275 4.2379970327019683 8.7179024294018728 12.470714332535861 5.3953018411993972 12.692582095973195 38.140406906604767 6.4156302362680426 4.5916599994525313 2.6978325452655554 2.0347832813858986 8.1504221651703102 1.520323349162936 1.2326491083949807 1.758659661747515 2.439858234487474
leaf_count=86 74 73 50 72 86 25 81 40 32 84 78 38 105 497 58 85 48 17 76 26 20 91 85
internal_value=-0.0126505 -0.00744131 0.104941 -0.0156792 -0.00394253 -0.0110637 -0.00109458 -0.0203541 0.0078869 0.0517665 0.092045 -0.1064 -0.0122414 -0.0414652 0.0525715 -0.148448 -0.0326203 -0.135739 -0.1489 -0.19978 -0.240451 -0.234327 -0.236233
internal_weight=167.459 162.928 11.1274 151.801 138.283 131.174 122.3 89.64 67.4893 32.6596 23.9417 22.1507 61.4866 42.3784 19.1082 8.87449 6.01605 13.5181 16.7554 6.54642 4.51163 2.99131 4.28283
internal_count=1927 1853 184 1669 1442 1356 1161 927 732 234 150 195 692 529 163 195 134 227 157 154 137 111 110
is_linear=0
shrinkage=0.220148


Tree=13
num_leaves=34
num_cat=0
split_feature=21 6 3 24 4 25 5 23 4 4 23 1 3 8 23 3 28 20 19 28 19 22 8 28 22 23 5 19 23 28 28 28 3
split_gain=2.37232 3.67332 3.5686 4.65625 3.83045 3.06423 2.73827 2.08452 5.83437 3.00541 3.26912 2.8713 3.35809 3.32118 2.91481 1.90427 1.89725 2.18287 2.58708 1.49918 1.43648 1.43357 1.34304 1.25563 2.36461 1.08265 1.00964 0.93124 0.693713 0.0799221 0.0300138 0.000535226 0.000112776
threshold=2.4531250000000004 0.25000000000000006 7.0072916666500005 32722.500000000004 211.60500000000005 99.998958333350018 52.300000000000004 5.6350000000000007 374.13000000000005 248.62500000000003 4.7250000000000005 22.750000000000004 17.231250000000003 6.6291666667000007 7.285000000000001 8.0947916667000026 1252411200.0000002 11.750000000000002 19.043750000000006 1401537600.0000002 15.569791666650003 24.250000000000004 -1.2124999999999997 1471435200.0000002 22.550000000000004 4.0950000000000006 55.500000000000007 16.841666666650003 7.535000000000001 1302955200.0000002 1393761600.0000002 1359806400.0000002 6.5281250000000011
decision_type=2 2 2 2 2 2 2 2 2 2 2 2 2 2 2 2 2 2 2 2 2 2 2 2 2 2 2 2 2 2 2 2 2
left_child=2 -2 3 -1 15 20 27 8 9 -8 -11 14 13 -13 21 19 -16 -18 -19 -4 -5 -9 -10 24 -7 -25 29 -6 -14 -3 -17 -31 -33
right_child=1 26 4 5 6 23 7 11 22 10 -12 12 28 -15 16 30 17 18 -20 -21 -22 -23 -24 25 -26 -27 -28 -29 -30 31 -32 32 -34
leaf_value=0.25230492325328074 0.15440464915030616 -0.28753971359418101 0.021784857968670121 0.012624704022877702 -0.064716645028586234 0.13008147573481002 0.14235236621487632 -0.16262622069389993 0.094456134294460412 0.019901202275668276 -0.1765824057822114 0.13890442663936586 -0.12288868045146942 -0.13120952691064616 0.13824293723373915 -0.26716550539417927 0.10215507977694038 0.021574572538370786 -0.1635452176894652 -0.17371747714798622 -0.15704262556223528 -0.015796559904071739 0.24236370650886838 0.059659626203600852 -0.16049627695115981 0.18488736446437753 -0.060578372531588862 -0.2006359982131723 -0.24378528832728327 -0.23225758926640852 -0.23177074508627746 -0.22450540811918498 -0.22753821230587123
leaf_weight=5.0936171282082787 1.8445894308388213 1.6027789525687692 3.9936708603054267 4.5854624230414647 6.3139180038124305 2.7159335324540761 4.2680899240076569 5.8028471264988166 5.8011345081031322 9.5435281405225414 7.2004381641745558 4.3464537058025616 4.2716671563684923 4.4800354335457087 7.5903767049312583 2.4006477212533355 9.0377392284572142 13.065051211044194 5.0819239169359198 3.6278701471164823 5.1174188088625669 7.2481080032885075 6.1082143820822221 8.381370857357977 2.7131377123296261 5.5692335404455653 1.9556802008301017 3.9849123796448112 4.9843629151582718 1.0126914922147991 2.2487530941143632 1.0444242395460608 1.3786170827224848
leaf_count=38 18 13 59 42 60 44 59 75 49 85 78 44 41 50 36 34 62 126 62 86 80 69 45 69 69 58 34 70 56 34 62 63 57
internal_value=-0.0110057 -0.12195 -0.00470255 0.0581381 -0.0223933 0.024131 -0.00928033 0.00197695 0.0472152 -0.0225571 -0.064593 -0.0206196 -0.0953482 0.00180347 0.00763444 -0.13901 0.0409292 0.0137577 -0.0302668 -0.0712747 -0.0768599 -0.0810814 0.170317 0.0746945 -0.0151326 0.109652 -0.194834 -0.117308 -0.187991 -0.246945 -0.250046 -0.228007 -0.226231
internal_weight=164.415 8.83878 155.576 34.1762 121.4 29.0826 109.129 98.83 32.9214 21.0121 16.744 65.9086 18.0825 8.82649 47.826 12.2709 34.7751 27.1847 18.147 7.62154 9.70288 13.051 11.9093 19.3797 5.42907 13.9506 6.99419 10.2988 9.25603 5.03851 4.6494 3.43573 2.42304
internal_count=1927 219 1708 400 1308 362 1067 937 316 222 163 621 191 94 430 241 286 250 188 145 122 144 94 240 113 127 201 130 97 167 96 154 120
is_linear=0
shrinkage=0.220148


Tree=14
num_leaves=34
num_cat=0
split_feature=20 10 23 23 10 21 6 10 12 17 4 26 13 25 17 9 19 19 27 10 3 4 28 16 1 5 6 20 5 3 9 28 22
split_gain=2.07168 4.12489 4.57321 4.03802 1.93878 2.59582 3.39014 2.1817 2.22217 2.75903 2.10942 2.08574 2.41144 3.29871 2.45967 2.15052 2.3711 4.65556 3.23571 2.00537 3.03588 1.8676 1.77862 1.70102 1.61469 1.35891 1.89961 1.07075 0.982573 0.726561 0.503572 0.0604622 0.000513096
threshold=12.750000000000002 611.31979166665008 5.6750000000000007 10.235000000000001 603.23645833330011 2.4531250000000004 1.6500000000000001 601.55625000000009 47.030000000000008 8.969000000000003 203.13000000000002 258.75000000000006 250.83333333335003 99.951041666650013 9.7005000000000017 -1.8854166666499999 17.746875000000003 18.837500000000002 78.750000000000014 607.48541666665017 10.703125000000002 209.16500000000002 1603713600.0000002 10.15 16.750000000000004 49.100000000000001 -5.4499999999999993 24.750000000000004 73.200000000000017 15.063541666650002 3.2062500000000003 1300363200.0000002 25.650000000000002
decision_type=2 2 2 2 2 2 2 2 2 2 2 2 2 2 2 2 2 2 2 2 2 2 2 2 2 2 2 2 2 2 2 2 2
left_child=1 2 -1 -4 7 6 11 8 9 -2 31 15 13 -13 -14 -6 22 -18 -19 -15 -21 -9 25 -8 -3 -17 -27 -10 -22 -26 -16 -7 -33
right_child=4 24 3 -5 5 10 23 21 27 -11 -12 12 14 19 30 16 17 18 -20 20 28 -23 -24 -25 29 26 -28 -29 -30 -31 -32 32 -34
leaf_value=0.23614349536242618 0.17371016275893217 -0.13843074569205358 -0.12553580021173619 0.11845744072291538 0.11899893379235461 -0.28594404010618713 0.20634287101105714 -0.042574230382355541 -0.059141534612672943 -0.073201130021870439 0.040419713053313176 0.15313481097472467 0.019946804638409695 0.029613569783625848 -0.27473961160882093 -0.0032484868968011265 0.25689187552477849 0.12313152513965205 -0.17842245513288099 -0.01464944321805205 -0.29004519588497224 -0.27005665939858381 0.05074667596687181 0.028543664485048716 0.048629984021142166 -0.038732753876337116 -0.23771931192657966 -0.24019466834060893 -0.12732502849533722 -0.047915996288282803 -0.15636535328455028 -0.22570716775407632 -0.23225846269332726
leaf_weight=7.6388221736997393 3.9323089243844169 5.6634129304438856 5.3645502217113963 8.4897247385233623 8.1472490010783059 1.3782950025051826 5.120343239977954 2.8663961673155418 3.8836544882506123 4.9597680950537324 1.7927304394543169 4.4449436524882939 2.9987948257476074 9.2582421628758329 3.6613253857940435 5.15878294408322 4.1906600296497327 3.2458304325118661 3.6794390995055437 9.1863841656595486 3.4630571100860825 4.4873691657558084 5.7541554281488052 5.3146084696054459 7.4071332477033121 4.3933038860559464 4.9391442500054819 2.6724958540871739 3.74175975471735 7.7099726386368275 3.3220346001908183 1.4897796339355411 0.94813893269747485
leaf_count=66 50 64 51 63 79 11 62 64 44 72 24 47 35 83 75 73 33 43 61 84 66 77 47 67 63 25 87 71 35 44 43 87 31
internal_value=-0.0100708 0.0317662 0.0993848 0.0239802 -0.0250044 -0.0112501 -0.00219632 -0.0826885 -0.0357053 0.0359895 -0.156557 -0.0176661 -0.053052 -0.0219507 -0.146817 0.0182285 -0.00795033 0.0737425 -0.037086 -0.0522923 -0.0985552 -0.181387 -0.0528046 0.115788 -0.038171 -0.0939225 -0.144045 -0.132945 -0.205538 -0.000610054 -0.218428 -0.24909 -0.228255
internal_weight=160.705 42.2736 21.4931 13.8543 118.431 95.629 90.0201 22.802 15.4482 8.89208 5.60894 79.5851 40.0765 30.0944 9.98215 39.5086 31.3613 11.1159 6.92527 25.6494 16.3912 7.35377 20.2454 10.435 20.7805 14.4912 9.33245 6.55615 7.20482 15.1171 6.98336 3.81621 2.43792
internal_count=1927 351 180 114 1576 1198 1045 378 237 122 153 916 468 315 153 448 369 137 104 268 185 141 232 129 171 185 112 115 101 107 118 129 118
is_linear=0
shrinkage=0.220148


Tree=15
num_leaves=20
num_cat=0
split_feature=6 9 3 23 10 5 23 28 1 21 17 0 13 15 27 26 22 28 24
split_gain=1.85352 3.68896 2.39159 2.47348 2.29011 1.96132 1.82126 3.36883 2.13304 2.9977 1.96278 5.42256 2.40304 1.77217 1.41884 2.41264 3.51686 0.0244662 0.000225764
threshold=-10.549999999999999 -4.7010416666499992 19.508333333350006 19.225000000000005 606.38750000000016 24.900000000000002 3.5150000000000006 1261353600.0000002 15.750000000000002 -15.364583333349998 7.926000000000001 9.9656250000000011 334.88541666665009 0.37625000000000003 191.25000000000003 236.25000000000003 23.650000000000002 1300363200.0000002 33410.000000000007
decision_type=2 2 2 2 2 2 2 2 2 2 2 2 2 2 2 2 2 2 2
left_child=-1 -2 3 5 -4 -3 7 -7 14 -10 12 -12 -11 -9 -8 -16 -17 -15 -19
right_child=1 2 4 -5 -6 6 8 13 9 10 11 -13 -14 17 15 16 -18 18 -20
leaf_value=-0.15064109365997441 0.11275878433665668 0.1508162353212624 -0.16929824347006586 0.10388219233298711 -0.013271131784232951 0.17409626561491767 -0.18619285741530633 -0.061774128525467674 0.14645110938666112 0.027167003684536686 -0.0084367169303115677 0.2592251762211551 -0.20769202082894986 -0.26219197779963027 0.060472261717766616 -0.25673946046015733 0.036698909607506013 -0.22820608548569388 -0.2244911871692846
leaf_weight=4.3726680511608711 11.840733420103787 3.4290726929903022 8.9195581423118728 9.4819514527916891 9.326260117813943 1.9377470836043347 4.2728233290836242 6.3227698504924756 6.9238414987921706 3.7768677882850152 59.01518406579271 3.9114029929041854 4.7882799403741956 1.2873559864237902 6.2814053921028954 4.3099726773798466 3.6608350090682507 2.7234778199344878 1.1184479193761943
leaf_count=51 71 36 89 81 87 11 67 64 55 54 752 54 106 14 41 47 57 116 74
internal_value=-0.00931089 -0.00528038 -0.0151588 -0.00414585 -0.0895458 -0.0131501 -0.0182462 -0.0943524 -0.00773409 0.00813821 -0.00525713 0.00820066 -0.104129 -0.139775 -0.0749208 -0.0415613 -0.121969 -0.235926 -0.227125
internal_weight=157.701 153.328 141.487 123.241 18.2458 113.759 110.33 13.3898 96.9406 78.4156 71.4917 62.9266 8.56515 11.4521 18.525 14.2522 7.97081 5.12928 3.84193
internal_count=1927 1876 1805 1629 176 1548 1512 279 1233 1021 966 806 160 268 212 145 104 204 190
is_linear=0
shrinkage=0.220148


Tree=16
num_leaves=27
num_cat=0
split_feature=24 11 1 12 20 24 2 2 21 7 22 25 28 28 5 28 28 1 2 6 5 28 24 3 26 3
split_gain=1.51203 2.43831 1.74375 2.70016 2.00781 1.43133 1.59883 3.06192 2.98992 6.76981 3.31701 2.42922 3.24635 2.83153 1.91646 2.3923 2.70486 2.34855 3.46764 1.95202 1.51983 1.58549 1.0317 0.966829 0.110724 0.000412544
threshold=33585.500000000007 1.7000000000000004 67.750000000000014 53.050000000000004 34.750000000000007 33566.500000000007 -17.541666666649999 -21.729166666649999 -11.356249999999998 12.15 22.250000000000004 99.984375000000014 1253966400.0000002 1436702400.0000002 41.000000000000007 1252411200.0000002 1261353600.0000002 32.332860953650005 -10.266600177299997 -5.4499999999999993 60.350000000000009 1596110400.0000002 33218.500000000007 15.982291666700002 203.34503034900004 8.2260416666500031
decision_type=2 2 2 2 2 2 2 2 2 2 2 2 2 2 2 2 2 2 2 2 2 2 2 2 2 2
left_child=2 23 4 24 5 6 7 11 20 10 -10 12 -1 -13 22 -16 -17 19 -19 -18 -9 -22 -8 25 -4 -2
right_child=1 -3 3 -5 -6 -7 14 8 9 -11 -12 13 -14 -15 15 16 17 18 -20 -21 21 -23 -24 -25 -26 -27
leaf_value=-0.0067309773327757514 -0.22591110746154414 0.14566417684515445 -0.25610827354544513 0.035424484007573448 0.15321515365222579 0.12229217709397532 0.14006747231661301 0.073832344062611827 0.15660754815360908 0.34512753363424131 -0.11207988032651188 0.12931692570123116 -0.24674224763485803 -0.075534997733497145 -0.2172825334617641 0.16117559617134086 -0.23637795008743664 0.19519920730053264 -0.035258945468364479 -0.065159689485378133 -0.089568028612740477 0.044324937542788129 -0.010995605476182608 -0.063606576841094414 -0.18318941401696937 -0.23065372740504675
leaf_weight=5.6994804069399834 1.403105061501263 1.6124758329242466 2.4126995471306136 3.576907810755074 4.1681032348424187 4.3510766322724512 4.380943979136644 11.793789718300106 4.4772283323109132 4.9007063126191488 4.4302507168613374 6.0509945442900062 5.2444731211289763 7.1158254649490118 3.7005919031798831 3.2248211428523055 3.713456816039975 3.9726904295384911 15.550822020042686 24.641145451460041 9.423918731510641 7.8621760308742514 4.3835488157346845 3.1054292465560138 1.734982664696872 2.4257050165906549
leaf_count=34 81 30 60 37 76 78 40 83 29 36 73 44 65 63 31 16 59 35 245 334 82 42 60 50 56 88
internal_value=-0.00816681 -0.0981805 -0.00292658 -0.104735 0.00272766 -0.00192144 -0.0060608 0.0176685 0.0529557 0.137309 0.0229724 -0.0450999 -0.121747 0.0186075 -0.0310708 -0.0463572 -0.0339798 -0.0471244 0.0116352 -0.0875833 0.0129014 -0.0286699 0.0645135 -0.154884 -0.225606 -0.228916
internal_weight=155.357 8.54672 146.811 7.72459 139.086 134.918 130.567 66.9988 42.8881 13.8082 8.90748 24.1108 10.944 13.1668 63.568 54.8035 51.1029 47.8781 19.5235 28.3546 29.0799 17.2861 8.76449 6.93424 4.14768 3.82881
internal_count=1927 249 1678 153 1525 1449 1371 551 345 138 102 206 99 107 820 720 689 673 280 393 207 124 100 219 116 169
is_linear=0
shrinkage=0.220148


Tree=17
num_leaves=34
num_cat=0
split_feature=2 1 10 6 10 10 13 21 5 10 23 2 13 9 13 5 27 19 27 7 5 28 13 3 5 14 24 17 22 17 22 1 6
split_gain=1.26684 1.82288 1.65311 1.60713 1.86225 4.08238 2.33871 2.0279 2.80425 2.56375 1.9608 2.25135 1.83742 1.59716 1.85145 1.58607 1.57928 1.91756 1.84833 1.71487 1.53699 1.41217 1.40011 1.39626 2.14016 1.32509 0.818235 0.732315 0.768757 0.593786 0.52611 0.226045 0.00110877
threshold=-9.6447916666499989 29.250000000000004 607.77812500000016 -10.35 605.36354166665012 607.15833333335013 182.43750000000003 -11.019791666649999 44.300000000000004 612.11425000000008 16.320000000000004 -17.509374999999995 250.83333333335003 8.7958333333500018 292.62500000000006 62.000000000000007 146.25000000000003 17.304166666650001 236.25000000000003 14.450000000000001 68.40000000000002 1546948800.0000002 266.92708333335003 6.8687500000000012 63.600000000000009 5.6500000000000012 33344.000000000007 11.446500000000002 19.850000000000005 13.389000000000001 26.850000000000005 13.250000000000002 0.35000000000000009
decision_type=2 2 2 2 2 2 2 2 2 2 2 2 2 2 2 2 2 2 2 2 2 2 2 2 2 2 2 2 2 2 2 2 2
left_child=1 3 -3 -1 10 22 -7 9 -9 20 21 -12 -10 14 25 16 19 -18 -19 26 -8 30 -6 -11 -25 -2 -16 28 -27 -29 31 -5 -30
right_child=13 2 -4 4 5 6 7 8 12 23 11 -13 -14 -15 15 -17 17 18 -20 -21 -22 -23 -24 24 -26 27 -28 29 32 -31 -32 -33 -34
leaf_value=-0.14073692599879944 0.046906344565876487 0.19266083401971873 0.01035004817709852 -0.28201124480626866 0.063191251098675766 0.13293093694646443 0.018320809987188699 0.0363941339340067 -0.074284038589718576 0.044862660551349402 0.090624294965454738 -0.093494773997576275 -0.25933463090125858 -0.20270096712934241 -0.24122424556755367 -0.088111162853484637 0.16652305404923523 0.089805095963862741 -0.14894858847773654 0.071518942290198104 0.19109186877052933 0.0047638329165676004 0.20802222639481857 -0.16640666651582511 -0.0057563144568422656 -0.064399997050760355 -0.043479173573605055 0.0021732692796932094 -0.23304195452807852 -0.14191016191817338 -0.097123152077115943 -0.18266797685590949 -0.24064402433305757
leaf_weight=3.9754120949655762 2.6334080025553694 4.5719746705144626 5.0987458098679781 1.8965500574558989 6.8872662158682925 5.4067062726244322 4.958343105390659 6.1620957767590978 6.369487537071107 9.074435190297665 6.8077460415661335 6.1051385905593616 4.3947799187153578 2.711404754780232 2.0211787438020172 6.6645143544301382 6.4799182335846108 4.0968235796317458 2.5494059212505817 3.3106451788917184 5.0241726730018854 2.8141149282455444 6.1003013867884874 6.1413328796625164 11.629372198134659 1.8292798083275537 2.035426726564765 2.7818595580756664 1.5534202354028823 2.7630936084315181 2.4311255076900125 2.6768349446356297 2.3163346988148987
leaf_count=50 20 42 57 19 61 64 66 75 75 73 41 69 82 70 61 87 54 58 74 56 36 18 56 77 66 20 52 50 41 46 50 86 75
internal_value=-0.0074304 0.00531844 0.0965401 -0.00360552 0.00214022 0.0194523 -0.00508387 -0.0189657 -0.082038 0.0100229 -0.0528071 0.00357384 -0.149836 -0.0390575 -0.0282447 0.00518231 0.0355216 0.0813065 -0.00177767 -0.0460527 0.105276 -0.126956 0.131219 -0.0253974 -0.0612751 -0.0936611 -0.142004 -0.126583 -0.182001 -0.0696246 -0.179875 -0.223865 -0.237592
internal_weight=152.273 108.526 9.67072 98.8552 94.8798 72.1483 59.1607 53.754 16.9264 36.8277 22.7315 12.9129 10.7643 43.7467 41.0353 27.1579 20.4934 13.1261 6.64623 7.36725 9.98252 9.81863 12.9876 26.8451 17.7707 13.8774 4.05661 11.244 5.69903 5.54495 7.00451 4.57339 3.86975
internal_count=1927 1163 99 1064 1014 731 614 550 232 318 283 110 157 764 694 442 355 186 132 169 102 173 117 216 143 252 113 232 136 96 155 105 116
is_linear=0
shrinkage=0.220148


Tree=18
num_leaves=28
num_cat=0
split_feature=13 13 22 1 20 17 17 28 28 27 6 20 9 12 25 5 10 5 10 8 16 13 14 28 13 2 6
split_gain=2.03265 3.16182 2.56166 2.33981 2.67195 3.02852 3.54231 2.64559 3.18709 2.68998 5.41988 2.42551 2.7566 2.84689 2.63239 2.36633 2.05089 3.30307 2.05562 1.51584 1.16654 0.909513 0.651062 0.587797 0.558129 0.404435 0.00248218
threshold=195.31250000000003 179.92708333335003 17.750000000000004 12.750000000000002 12.250000000000002 13.102500000000001 14.917000000000002 1383652800.0000002 1365681600.0000002 78.750000000000014 0.25000000000000006 13.750000000000002 7.9947916666500012 31.695000000000004 99.998958333350018 63.600000000000009 609.67500000000007 81.300000000000011 703.40104166665014 1.5906250000000004 5.3500000000000005 337.68750000000006 6.2500000000000009 1481112000.0000002 221.56250000000003 -3.4395833333499994 2.7500000000000004
decision_type=2 2 2 2 2 2 2 2 2 2 2 2 2 2 2 2 2 2 2 2 2 2 2 2 2 2 2
left_child=1 2 -1 15 5 -5 24 8 9 -6 19 -9 13 20 23 -2 17 -16 -18 -11 -13 -12 -3 -15 -7 -14 -27
right_child=3 22 -4 4 7 6 -8 11 -10 10 21 12 25 14 16 -17 18 -19 -20 -21 -22 -23 -24 -25 -26 26 -28
leaf_value=0.18729356550531434 0.045674232456755177 -0.079393043887658471 -0.065203975799678238 0.18299096323946484 0.13931599266730674 0.0030088047438403603 0.13769096209826967 -0.14759192487283845 0.25414872804774497 -0.024240545929811667 -0.080198422232010444 -0.006179892427492382 -0.077188858127641424 -0.015028310990790715 -0.011583724918920728 -0.14199160783948706 0.23386407466512851 0.2587268917002184 0.051693627221043092 0.11998882828326166 -0.1891112654133344 -0.26667177806633935 -0.18732947041129322 -0.15055392046533814 -0.10275662068816541 -0.24002958625933371 -0.22609353315893399
leaf_weight=3.612837981432679 5.5358296949416381 5.5193064082413894 4.22414455935359 10.728235354647042 8.8566024694591778 4.3987753540277499 8.7558290623128396 6.0466163866221896 3.7403070889413348 5.8600253080949214 2.0489252461120477 2.851402521133422 1.2071796236559751 2.7253355300053945 18.230642219539735 7.9083706829696894 5.530498771928249 2.4901588633656493 6.5664059841074049 8.8884335109032673 4.1460425057448447 3.3245958220213652 5.3181259990669787 3.5995405302383006 5.3703189287334681 1.0924446713179343 1.4305355120450256
leaf_count=26 70 38 87 83 89 26 61 72 77 46 44 24 29 42 371 59 50 15 68 93 92 73 59 68 74 25 84
internal_value=0.0126327 -0.0553274 0.051197 0.022296 0.0322192 0.0899106 0.0360054 0.0131788 0.0629003 0.0382155 -0.00628337 -0.015915 5.04734e-05 0.014767 0.0378881 -0.0647177 0.0629513 0.0209013 0.134979 0.062682 -0.114568 -0.195569 -0.132359 -0.0921571 -0.0551331 -0.181985 -0.232128
internal_weight=150.007 18.6744 7.83698 131.333 117.889 29.2532 18.5249 88.6357 32.7189 28.9786 20.122 55.9168 49.8702 46.14 39.1426 13.4442 32.8177 20.7208 12.0969 14.7485 6.99745 5.37352 10.8374 6.32488 9.76909 3.73016 2.52298
internal_count=1945 210 113 1735 1606 244 161 1362 422 345 256 940 868 730 614 129 504 386 118 139 116 117 97 110 100 138 109
is_linear=0
shrinkage=0.220148


Tree=19
num_leaves=29
num_cat=0
split_feature=17 8 7 10 10 10 24 10 1 17 8 17 25 12 21 2 13 21 10 12 3 28 28 0 21 13 0 3
split_gain=1.66967 1.73129 3.21011 1.41961 2.32225 3.2486 3.15108 1.95371 2.91288 4.58151 3.39876 1.86159 1.85765 1.70867 3.39666 2.15657 1.83665 1.53178 1.64846 1.48576 1.30249 2.41993 2.00882 0.879338 0.767631 0.373231 0.311305 0.166346
threshold=17.188500000000001 -1.9406249999999998 8.5500000000000025 605.25104166665017 607.0697916667001 608.92812500000002 33267.500000000007 609.88541666665003 14.250000000000002 11.032000000000002 6.3468750000000007 13.893000000000002 98.887500000000003 47.030000000000008 -11.356249999999998 -9.504166666699998 385.84375000000006 -9.4489583332999967 605.69062500000007 37.780000000000008 15.433333333350001 1263470400.0000002 1458648000.0000002 6.6729166666500008 -0.66145833334999993 279.00000000000006 2.3645833333500001 6.3125000000000009
decision_type=2 2 2 2 2 2 2 2 2 2 2 2 2 2 2 2 2 2 2 2 2 2 2 2 2 2 2 2
left_child=1 26 -3 13 12 6 25 -7 -9 10 -10 -11 -5 14 -4 -15 27 -14 -19 -16 21 -21 -23 -8 -18 -6 -1 -17
right_child=-2 2 3 4 5 7 23 8 9 11 -12 -13 17 15 19 16 24 18 -20 20 -22 22 -24 -25 -26 -27 -28 -29
leaf_value=0.13008373684120586 -0.08635000843057504 -0.15400782884259762 -0.13891219631816479 0.22541889479280863 -0.25781003579197381 0.14598336573366033 -0.046173377410496763 0.16839907286054592 0.26512745439053109 -0.10740150703058406 0.014118896048503379 0.00077845589840924169 0.13995807918335096 -0.27144083682922698 -0.06891504213644134 -0.12542498467887372 0.11267730443869355 0.093985029793874325 -0.12556102743801367 0.20320292758354411 0.1646648264416708 -0.15288487274075607 0.070777436371016841 0.12412919508872106 -0.046953320366908198 -0.14713622068555193 0.059209212357246382 -0.23515424728261441
leaf_weight=6.0075192740187031 8.392726047895847 5.7160987476818255 5.8250742666423312 4.444926781579853 3.1384598612785322 6.7324384460225692 3.8767308886162937 5.6302802367135873 4.7120189908891899 12.534434032859279 5.8729492709971964 20.027544271200895 6.073057748377324 2.5386909758672109 4.0112673332914772 1.1556320392992332 2.7914790082722902 3.3995126243680707 3.2346379314549267 3.0149179138243216 5.7916330220177761 3.5054077890235931 4.3754060328938067 2.3663384802639484 3.0608990206383169 2.7892651623114944 6.0067136883735657 1.5919568887911735
leaf_count=55 93 71 76 27 52 74 77 77 34 169 81 192 40 45 78 44 35 43 74 18 55 93 69 48 65 49 40 71
internal_value=0.00902996 0.0147386 0.00725049 0.0147754 0.0305666 0.0122301 -0.0907746 0.0348144 0.0194704 3.6587e-05 0.125858 -0.0408644 0.10292 -0.0207933 0.00959384 -0.093152 -0.0405215 0.0600708 -0.0130599 0.0513869 0.0803047 0.0354631 -0.0287082 0.0183772 0.0291876 -0.205733 0.0946489 -0.189002
internal_weight=148.618 140.225 128.211 122.495 84.8326 67.6805 12.1708 55.5097 48.7772 43.1469 10.585 32.562 17.1521 37.6624 26.5237 11.1387 8.59997 12.7072 6.63415 20.6986 16.6874 10.8957 7.88081 6.24307 5.85238 5.92773 12.0142 2.74759
internal_count=1945 1852 1757 1686 1037 853 226 627 553 476 115 361 184 649 389 260 215 157 117 313 235 180 162 125 100 101 95 115
is_linear=0
shrinkage=0.220148


Tree=20
num_leaves=32
num_cat=0
split_feature=24 25 25 26 12 2 23 19 9 21 21 19 0 1 12 23 3 21 24 5 1 6 12 15 21 26 12 0 6 9 27
split_gain=1.16924 2.22154 2.01101 2.3589 2.31446 2.59957 1.65056 2.58945 1.8378 1.54927 2.72191 3.0252 2.26146 1.844 1.95657 1.86251 1.79301 1.76905 1.81119 1.30933 1.2044 2.00005 1.02456 1.1868 0.999928 1.64017 0.891111 0.889128 0.57409 0.194557 0.00133179
threshold=32475.000000000004 98.035416666650022 99.982291666650013 33.750000000000007 46.640000000000008 -21.816666666649997 4.8450000000000006 16.638541666700004 1.8114583333500003 0.68333333335000013 -5.8552083332999993 20.582291666650004 9.4156250000000004 15.250000000000002 30.555000000000003 5.7650000000000006 7.9395833333500008 -15.819791666649998 33553.500000000007 70.000000000000014 39.750000000000007 0.55000000000000016 28.365000000000006 0.24072916665000002 -8.5010416666999991 146.25000000000003 47.155000000000008 7.7979166666500008 -0.94999999999999984 0.42083333335000006 303.75000000000006
decision_type=2 2 2 2 2 2 2 2 2 2 2 2 2 2 2 2 2 2 2 2 2 2 2 2 2 2 2 2 2 2 2
left_child=1 24 4 19 5 -2 7 -7 -8 10 11 13 16 15 22 -5 27 -16 -19 29 21 -12 -15 -24 -1 -26 -14 -11 -22 -4 -30
right_child=2 -3 3 9 -6 6 8 -9 -10 12 20 -13 26 14 17 -17 -18 18 -20 -21 28 -23 23 -25 25 -27 -28 -29 30 -31 -32
leaf_value=0.072823360062650749 -0.1721719448270905 0.17010649333029723 -0.1389422198889084 0.044926111053872765 -0.20846023393111907 0.042623398641324806 -0.037222493831447635 -0.22266981100369229 0.11677679157725859 0.18134771202038838 -0.1687177032641245 0.17490095198448694 0.03950857322662861 0.041089058102125507 0.18093564817925678 -0.13283401982080553 0.31678026006151916 0.017036916543942883 0.17101297031708643 0.002080229203364405 -0.081049369876646904 0.10880649164216423 0.0014817462960326378 -0.1562919841800029 0.061935167366308136 -0.12357529316583649 -0.22819841106115676 -0.0042710382940869948 -0.22815668725026017 -0.23757228867505262 -0.2375531558555595
leaf_weight=7.260461807250981 4.935673604719347 5.7889831084758034 1.75515236146748 4.7083543767221254 3.9250147133134297 3.7749285455793169 6.978024147450923 3.3794925885740668 8.1331319957971555 2.5177252353169006 2.3152955430559796 6.2855042684823266 1.3702564379200342 5.6820007832720867 5.2373380549251918 7.2638202635571361 2.5224264776334167 23.360888030845686 4.3997606681659809 2.8805776322260499 2.0529571492224932 2.7574236104264855 4.6039824094623309 4.6388502260670066 4.3632366945967078 4.9081767778843641 1.0756941831205038 2.4852631008252501 1.440911802928895 2.164887148886919 1.4838583087548611
leaf_count=55 70 42 40 55 93 46 69 76 92 42 70 77 34 49 37 76 29 219 84 24 17 36 40 59 38 63 76 74 62 64 37
internal_value=0.00635131 0.0527392 -0.00199013 0.0142205 -0.0504263 -0.0276228 0.00441987 -0.0826916 0.0456631 0.0240683 0.0133942 0.0296053 0.105672 0.0143577 0.0336647 -0.0629254 0.165443 0.0635807 0.0414404 -0.110606 -0.0933536 -0.0178614 -0.0324778 -0.0777027 0.0116405 -0.0362719 -0.0782251 0.0891405 -0.170287 -0.193412 -0.232924
internal_weight=146.45 22.3209 124.129 93.0029 31.1263 27.2013 22.2656 7.15442 15.1112 86.2023 76.2309 66.1805 9.97137 59.895 47.9228 11.9722 7.52541 32.998 27.7606 6.80062 10.0504 5.07272 14.9248 9.24283 16.5319 9.27141 2.44595 5.00299 4.97773 3.92004 2.92477
internal_count=1945 198 1747 1301 446 353 283 122 161 1173 918 696 255 619 488 131 145 340 303 128 222 106 148 99 156 101 110 116 116 104 99
is_linear=0
shrinkage=0.220148


Tree=21
num_leaves=26
num_cat=0
split_feature=1 9 24 8 8 26 26 26 12 4 27 19 10 6 6 9 19 20 21 5 25 9 12 6 9
split_gain=0.870436 2.1439 1.38865 1.58899 2.03906 1.38559 1.74792 2.40327 1.44538 2.26104 1.57644 1.84594 1.86444 1.36115 2.49956 2.54157 1.31106 1.26974 1.25047 1.04889 0.859065 0.839558 0.980452 0.305149 0.00179883
threshold=12.750000000000002 -0.56145833334999995 32475.000000000004 8.0802083333500025 8.8873226950500026 33.750000000000007 78.750000000000014 56.250000000000007 27.845000000000002 374.13000000000005 168.75000000000003 14.523958333350002 604.9156250000002 1.3500000000000003 -2.6499999999999999 -0.063541666699999985 19.202038043500004 21.750000000000004 -10.19375 58.70000000000001 97.537500000000009 8.3604166666500017 46.170000000000009 -5.7499999999999991 8.0260416666500021
decision_type=2 2 2 2 2 2 2 2 2 2 2 2 2 2 2 2 2 2 2 2 2 2 2 2 2
left_child=1 -1 16 5 24 19 7 -7 9 23 11 -10 -13 14 15 -12 20 -16 -14 -4 -2 -6 -23 -8 -5
right_child=2 -3 3 4 21 6 8 -9 10 -11 13 12 18 -15 17 -17 -18 -19 -20 -21 -22 22 -24 -25 -26
leaf_value=0.051668245637702184 -0.019661930144583058 -0.11784391811095069 -0.17953127842431357 -0.22890538705330438 0.12537736945978989 0.0045098631014568744 -0.13018975473086186 0.24648835910841602 -0.19000712731719882 0.073061672118749796 0.006532234996486995 -0.166973402602168 0.17298515533955452 0.12029754935269643 -0.1195977259703736 0.1165564020918983 0.15528426252956098 0.0057325319968453544 -0.024970961622516781 -0.014182866142184889 0.094318475119716139 0.05794437544706154 -0.22703274743280424 -0.24748852757070708 -0.23953053647548297
leaf_weight=6.2475102450698623 7.7284107683226484 8.5850378498434985 3.176061885431408 1.6973419955465936 1.6321031972765925 4.445973929949103 2.1473526572808623 3.5998222450725734 3.6497364696115246 2.5402094013988972 31.387701896019269 2.4441633224487287 2.6961269788444033 6.7970623744186005 8.1591650638729458 15.056731285993004 5.5300087369978419 7.5364759038202456 3.627171067520977 4.4849687702953815 5.4751780703663826 1.2062007403001191 1.1363219378981737 2.1521274000406256 1.4168629678897557
leaf_count=56 67 93 86 81 13 57 36 50 51 23 286 77 17 89 148 166 56 101 85 57 49 17 84 60 40
internal_value=0.00407551 -0.0464449 0.00985201 0.000494249 -0.100351 0.00737463 0.0145474 0.112775 0.00558629 -0.0916121 0.013758 -0.0584488 -0.00368342 0.0267642 0.0165332 0.0422008 0.0652933 -0.0594187 0.0594335 -0.082732 0.0276027 0.00416116 -0.0802937 -0.188904 -0.233739
internal_weight=144.556 14.8325 129.723 110.99 7.08883 103.901 96.2398 8.0458 88.194 6.83969 81.3543 12.4172 8.76746 68.9371 62.1401 46.4444 18.7336 15.6956 6.3233 7.66103 13.2036 3.97463 2.34252 4.29948 3.1142
internal_count=1945 149 1796 1624 235 1389 1246 107 1139 119 1020 230 179 790 701 452 172 249 102 143 116 114 101 96 121
is_linear=0
shrinkage=0.220148


Tree=22
num_leaves=16
num_cat=0
split_feature=23 23 17 2 2 21 23 8 3 10 3 12 23 7 26
split_gain=0.710038 1.10382 1.64953 1.73968 1.33546 2.18854 1.85136 1.22526 1.14758 1.10375 1.39126 1.86034 1.50487 1.09784 0.962696
threshold=37.000000000000007 11.440000000000003 17.156000000000002 -23.363541666699998 -18.526041666699999 -10.988541666649999 20.710000000000004 -2.9812499999999997 21.102943840550004 705.5052083333502 15.511458333350001 28.040000000000003 5.5550000000000006 10.250000000000002 203.34503034900004
decision_type=2 2 2 2 2 2 2 2 2 2 2 2 2 2 2
left_child=1 2 3 -1 5 -3 -6 -5 9 10 11 -9 -12 -13 -11
right_child=-2 4 -4 7 6 -7 -8 8 -10 14 12 13 -14 -15 -16
leaf_value=0.12065932474574034 0.10028561449915674 -0.083051616818594493 -0.11147998632485773 0.14149769681806221 -0.21827678485698634 0.080026025002201337 -0.019279831594221107 -0.14830393222760754 -0.097792990476649563 0.01010942484317728 0.17256327234717669 0.081574275535252705 0.023914832837344698 0.0015854601489349413 -0.11131653832230078
leaf_weight=7.0643752496689549 3.5100698843598357 8.156372042372821 5.2366768396459511 3.212286874651908 4.1178659186698479 7.8048967979848412 5.0379679352045059 3.6184378911275408 5.1539878528565159 6.2327444793190789 5.4056005124002686 9.8414358475711179 8.4767213165760023 53.648538118344732 6.4280250798910856
leaf_count=61 22 77 76 21 86 47 64 87 68 55 39 118 88 964 72
internal_value=0.00249446 3.27259e-05 0.009214 0.0150081 -0.0417552 -0.00330832 -0.108779 0.00769215 0.00334197 0.0089078 0.0183572 0.00523388 0.0817967 0.0139843 -0.05154
internal_weight=142.946 139.436 114.319 109.082 25.1171 15.9613 9.15583 102.018 98.8055 93.6515 80.9907 67.1084 13.8823 63.49 12.6608
internal_count=1945 1923 1649 1573 274 124 150 1512 1491 1423 1296 1169 127 1082 127
is_linear=0
shrinkage=0.220148


Tree=23
num_leaves=26
num_cat=0
split_feature=1 5 28 28 28 19 10 19 17 28 28 22 12 9 23 19 9 21 25 19 5 19 15 3 22
split_gain=0.808485 1.91407 1.06853 2.74415 3.00257 1.39704 1.37125 1.66671 1.68196 1.44953 0.836204 0.79369 0.692354 1.29214 1.16484 1.10361 0.99412 0.961654 1.24284 0.842838 0.837679 0.615216 0.537212 0.00128343 9.55471e-05
threshold=12.750000000000002 63.600000000000009 1383652800.0000002 1372507200.0000002 1345939200.0000002 22.465625000000006 611.24479166665003 18.185416666650003 12.517500000000002 1267617600.0000002 1305028800.0000002 28.350000000000005 30.730000000000004 -3.9999999999999996 3.6250000000000004 12.548958333350003 -1.3291666666499997 -14.964583333299998 99.992708333350024 16.188541666650003 73.200000000000017 21.358333333350004 0.27239583330000006 17.440625000000004 22.750000000000004
decision_type=2 2 2 2 2 2 2 2 2 2 2 2 2 2 2 2 2 2 2 2 2 2 2 2 2
left_child=1 -1 3 4 6 12 7 8 -2 -9 -11 -7 14 -14 -4 -15 -17 -18 19 -19 -20 23 -16 24 -6
right_child=2 -3 5 -5 21 11 -8 9 -10 10 -12 -13 13 15 22 16 17 18 20 -21 -22 -23 -24 -25 -26
leaf_value=0.041615228770395994 -0.073264625952811094 -0.11923670929341562 0.044156332594007662 0.18191093408653206 -0.22831786312812438 -0.23242651487558075 -0.057251656787518673 0.047292709832485375 0.08779296154238711 0.27333805715939952 0.11071674044391741 -0.030029029237606256 0.143005571851269 0.10165161130612076 -0.041104609701541457 -0.09152235807826653 0.080680482441671003 -0.028289603685093562 -0.0091420930878771851 -0.18212701784972646 0.07331756551767768 -0.02661746012355156 -0.13791051596745096 -0.23658861329818887 -0.22499680707791528
leaf_weight=6.466546077746897 7.0147771276533621 8.0471321213990432 5.3859248231165138 5.4345219139941028 0.79404731467366196 2.0107141857733946 6.3048667344264677 8.0673551224172098 5.6929911551997066 2.9641373939812174 3.1727781412191689 1.761765243951231 3.3343437090516082 4.9744185144081703 6.9571376256644708 5.9625095957890073 6.7777724117040554 4.1160472785122826 28.748352830996737 2.9725688700564206 7.5357934329658738 0.98516399506479491 4.6253342218697071 0.97770827403292049 0.89092980604618788
leaf_count=84 84 65 57 64 35 75 78 56 35 34 65 25 24 64 61 65 55 57 536 76 57 37 63 30 63
internal_value=0.00166245 -0.0475694 0.00726832 0.035869 0.0143398 -0.0069373 0.0351605 0.0568106 -0.00111196 0.108631 0.189263 -0.137906 -0.000866838 0.00955387 -0.0404299 0.00226967 -0.00654054 0.00356314 -0.00848783 -0.0928004 0.00798381 -0.175251 -0.079763 -0.230244 -0.226562
internal_weight=141.976 14.5137 127.462 42.2993 36.8648 85.1627 33.2169 26.912 12.7078 14.2043 6.13692 3.77248 81.3902 64.4218 16.9684 61.0875 56.113 50.1505 43.3728 7.08862 36.2841 3.64785 11.5825 2.66269 1.68498
internal_count=1945 149 1796 581 517 1215 352 274 119 155 99 100 1115 934 181 910 846 781 726 133 593 165 124 128 98
is_linear=0
shrinkage=0.220148


Tree=24
num_leaves=31
num_cat=0
split_feature=4 28 28 10 1 8 22 5 20 2 12 10 15 15 28 23 28 2 22 17 20 12 7 22 10 10 10 28 4 24
split_gain=1.90689 3.04512 2.02184 1.38138 1.42491 1.25178 1.4539 1.14566 1.46634 1.76229 1.13821 2.64215 1.35565 1.78482 1.56447 1.14735 1.20102 1.00361 0.973946 1.2199 0.944544 0.922711 0.874383 0.720273 0.709317 0.602342 0.401472 0.0015612 0.00073159 2.36134e-05
threshold=408.71500000000009 1322265600.0000002 1372507200.0000002 602.57500000000016 12.750000000000002 1.5572916667000003 17.150000000000002 44.300000000000004 14.250000000000002 -5.127083333349999 34.040000000000013 607.0697916667001 0.43031250000000004 0.4590625000000001 1388664000.0000002 3.9950000000000006 1445860800.0000002 -2.0864583332999995 22.550000000000004 14.441500000000001 12.750000000000002 37.995000000000012 14.950000000000001 27.350000000000005 615.2729166667001 604.76354166670012 612.11425000000008 1543795200.0000002 318.65000000000003 33086.000000000007
decision_type=2 2 2 2 2 2 2 2 2 2 2 2 2 2 2 2 2 2 2 2 2 2 2 2 2 2 2 2 2 2
left_child=1 7 23 -2 -5 6 -6 -1 -9 -10 11 -4 14 -14 -12 26 25 21 24 -20 -8 -18 -15 28 -13 -17 27 -16 29 -3
right_child=3 2 10 4 5 -7 20 8 9 -11 12 18 13 22 15 16 17 -19 19 -21 -22 -23 -24 -25 -26 -27 -28 -29 -30 -31
leaf_value=0.14857278350262984 -0.15661194832179373 -0.224691970904907 0.17960017818501386 -0.13563453460669986 0.044473691425862702 0.063219934038751702 -0.03044069795649839 0.13821658019597477 -0.044379698697206357 0.10083240839901329 0.11904360349213909 -0.12627703616343453 0.18824269653498241 -0.096500975952433024 -0.22757439239505375 -0.057156909206791194 0.0026362138584947168 0.07344624544482059 0.13554792621960535 -0.017617979262564011 -0.1385565453861157 -0.098427846499951552 0.053667506421029791 0.001073700769511392 0.0010979059534625636 -0.25627441105510934 -0.096453603441339478 -0.23872258063955426 -0.23098962611627202 -0.22301980750766939
leaf_weight=6.2929151756688979 5.2046214723959556 0.96801364747807361 4.516604789998385 5.7442747382447115 6.7019224278628888 7.3168651810847214 8.9470179388299567 5.812941616401079 10.744205663912004 6.5013940967619375 2.3087247412186143 4.2913961270824093 2.7621976863592845 3.6253027860075235 1.32444774382748 1.2035604780539899 7.8326220447197654 3.6117364098317877 3.8661044579930586 7.2390374788083136 6.9650012692436567 9.9275921736843866 3.9016780219972134 0.86894235434010614 4.1853832365013659 1.8965470674447713 1.8313199409749357 1.1267404607497153 1.2697524372488258 0.70911757508292794
leaf_count=61 60 68 44 50 54 62 66 56 91 54 52 65 32 77 85 70 87 58 46 84 88 145 62 29 34 57 36 38 46 77
internal_value=-0.0106829 0.00588886 -0.0192932 -0.0506608 -0.0352036 -0.015929 -0.0415381 0.0653163 0.0425947 0.0103636 -0.0102116 0.0278182 -0.0323738 0.0368845 -0.0553145 -0.0693138 -0.0509178 -0.0323431 -0.00719053 0.0357047 -0.0777651 -0.0538565 -0.0186598 -0.175065 -0.0633861 -0.178971 -0.174437 -0.232699 -0.227003 -0.223985
internal_weight=139.498 98.6183 69.2668 40.8797 35.6751 29.9308 22.6139 29.3515 23.0585 17.2456 65.451 24.0985 41.3525 10.2892 31.0633 28.7546 24.4721 21.372 19.5819 11.1051 15.912 17.7602 7.52698 3.81583 8.47678 3.10011 4.28251 2.45119 2.94688 1.67713
internal_count=1934 1554 1292 380 320 270 208 262 201 145 1072 273 799 171 628 576 417 290 229 130 154 232 139 220 99 127 159 123 191 145
is_linear=0
shrinkage=0.220148


Tree=25
num_leaves=30
num_cat=0
split_feature=28 28 3 12 7 28 7 23 6 17 17 24 10 2 8 6 13 13 12 24 5 13 27 14 10 13 9 3 24
split_gain=1.3143 1.89975 2.21644 1.36728 1.31727 1.47649 1.39628 1.30678 1.19859 1.07279 2.23733 1.85641 2.3342 1.43372 1.17724 2.54523 0.989602 1.47525 1.60762 0.87163 0.840953 1.08957 0.788153 0.59899 0.58198 0.464334 0.00646999 0.000411989 1.03391e-05
threshold=1226232000.0000002 1322265600.0000002 17.231250000000003 49.260000000000012 8.2500000000000018 1372507200.0000002 7.3500000000000005 4.7000000000000011 -5.6499999999999995 9.5440000000000023 12.154500000000001 33539.500000000007 607.66250000000014 -13.726041666699997 8.1489583333500022 1.3500000000000003 373.02083333335003 250.02083333335003 28.660000000000004 33280.500000000007 33.000000000000007 257.61458333330006 236.25000000000003 8.5500000000000025 599.52395833335015 397.32291666665009 3.3854166667000007 13.53958333335 33086.000000000007
decision_type=2 2 2 2 2 2 2 2 2 2 2 2 2 2 2 2 2 2 2 2 2 2 2 2 2 2 2 2 2
left_child=-1 2 16 4 6 8 -3 25 -6 14 13 20 -13 22 15 23 17 18 -2 -15 -12 -22 -11 -7 -16 -5 -21 28 -10
right_child=1 3 -4 7 5 9 -8 -9 27 10 11 12 -14 19 24 -17 -18 -19 -20 26 21 -23 -24 -25 -26 -27 -28 -29 -30
leaf_value=-0.13184700534053151 0.016833668989236994 -0.025942658687456537 -0.051031345813579168 -0.1161270578033075 0.021689591262113554 -0.03686018292421403 -0.17311442839146787 -0.25354957390785154 -0.22405759983467091 0.049157417443400936 0.070306279737968602 0.23230149623219234 -0.013617655996022302 -0.089056452916644754 0.057100129732434106 0.24604904473225095 0.14682436123428716 -0.012676656079077395 0.18486534442071295 -0.24846582354764613 -0.04751465412690338 0.061027897840766072 -0.081391089899075633 0.090419134344790528 -0.13449235607959265 0.016913125752621307 -0.22712785027388627 -0.2292121736911375 -0.22276217203248894
leaf_weight=4.1023249980062237 5.401263935491448 9.0636298479512316 10.257652360945938 2.6237562033347777 1.5185772529803214 4.0766831329092366 4.767800575355067 2.2364259983878583 0.76940143457613819 4.9256233810447174 6.1132589094340828 4.0742639238014808 3.4585087783634663 6.3594468119554204 1.2782851959345856 3.569993561366573 6.1303979847580186 10.463622526265679 5.6420287555083632 1.2874538085889073 18.375611545518044 5.9281416595913461 4.112647489644587 3.1975140292197466 1.9263182019349185 2.4668322019279003 1.4808420815970746 1.2382574263028798 0.48797545814886689
leaf_count=33 57 82 70 75 42 87 65 92 58 59 51 39 86 73 35 48 53 92 39 28 206 86 50 25 86 22 86 48 61
internal_value=-0.00911384 -0.00533479 0.0363617 -0.0219084 -0.0143015 -0.00267151 -0.0766739 -0.113281 -0.132524 0.00475753 -0.00886289 0.0215504 0.119393 -0.0723979 0.0591622 0.0938053 0.0687978 0.0465569 0.102681 -0.133941 -0.00268035 -0.0210391 -0.0102455 0.0190879 -0.058068 -0.0516575 -0.237052 -0.226362 -0.223555
internal_weight=137.335 133.232 37.895 95.3372 88.0102 74.1788 13.8314 7.32701 4.01421 70.1646 56.1158 37.9498 7.53277 18.166 14.0488 10.8442 27.6373 21.5069 11.0433 9.12774 30.417 24.3038 9.03827 7.2742 3.2046 5.09059 2.7683 2.49563 1.25738
internal_count=1934 1901 311 1590 1401 1254 147 189 209 1045 764 468 125 296 281 160 241 188 96 187 343 292 109 112 121 97 114 167 119
is_linear=0
shrinkage=0.220148


Tree=26
num_leaves=34
num_cat=0
split_feature=12 11 23 12 12 19 3 19 19 28 24 24 20 22 19 19 24 10 24 2 23 25 8 1 23 28 25 24 1 13 3 17 28
split_gain=1.05472 1.48496 3.15307 1.19095 0.952947 1.50262 2.03732 1.48898 1.40396 1.39428 1.4912 1.33473 2.24721 1.28632 1.15697 1.07857 1.73049 1.5144 1.00348 0.874403 0.785301 0.753063 0.750117 0.64599 1.45999 2.62228 1.10577 0.642884 0.576377 0.511402 0.422051 0.255907 0.0317353
threshold=50.510000000000012 0.50000000000000011 3.6900000000000008 45.005000000000003 34.340000000000011 17.746875000000003 20.162500000000005 18.426041666650004 19.536458333300001 1537444800.0000002 33277.500000000007 33227.500000000007 17.750000000000004 18.450000000000003 19.156250000000004 20.625000000000004 33351.500000000007 706.64062500000011 33218.500000000007 -10.134374999999999 4.4350000000000014 98.079166666650011 -1.5785017730499999 33.250000000000007 6.5550000000000006 1462622400.0000002 99.996875000000003 33344.000000000007 16.750000000000004 313.23958333335003 7.466666666650001 10.875000000000002 1320580800.0000002
decision_type=2 2 2 2 2 2 2 2 2 2 2 2 2 2 2 2 2 2 2 2 2 2 2 2 2 2 2 2 2 2 2 2 2
left_child=1 4 3 -3 11 6 9 -7 18 13 31 14 15 -6 20 16 22 -18 -9 -14 -1 -15 -13 24 25 -10 -26 -2 -23 -25 -20 -11 -30
right_child=27 2 -4 -5 5 7 -8 8 23 10 -12 12 19 21 -16 -17 17 -19 30 -21 -22 28 -24 29 26 -27 -28 -29 32 -31 -32 -33 -34
leaf_value=0.030288203043003312 -0.1612447763972609 -0.2442208969317996 0.23817674397111099 0.056167316752521353 0.037098915658479767 0.098222156105904929 -0.22592384626077544 -0.19373737516578063 0.26529500476827872 -0.010963719989593121 0.10240957019206394 0.053763745332439501 0.12734339759561536 -0.043748393912862865 -0.018030687333913664 0.041007157625566996 -0.21709879131672402 -0.040719553185228408 0.035766564821605 -0.0024903399587008408 0.13261925049520829 -0.10722130727264904 -0.064819513583119021 0.0062525361732723396 -0.095544064394453065 -0.016899731123094425 0.049130514807953496 -0.018617552117879556 -0.2728516635465208 -0.15266445935914835 -0.095757223512125414 -0.077943503482825888 -0.22754377649560426
leaf_weight=6.2968554524704841 3.3834929070435456 1.1886607196647667 3.5128714182646945 1.3850062292767686 2.5480398451909485 6.6200517260003826 3.3001890080049625 3.1225945120677379 2.9726245580241146 5.4733921275474113 4.7753968075849107 4.7327008247375488 5.8982112666126341 2.7370886981952918 7.2198457081103689 5.0210165209136894 5.4344732561148685 4.1692813094705343 2.2615177652332932 4.3815869772806746 8.5964570324867946 2.7721989136189222 5.6978516317904049 2.1112740091048177 4.9082340160384756 3.4459637608379126 5.3527410884853452 2.7984569440595806 1.0885863043367865 1.8338868157006798 2.4782389272004366 5.5859592352062464 2.4035715328063816
leaf_count=62 80 62 51 49 24 64 38 47 54 41 63 37 79 29 90 63 90 32 34 51 63 56 69 28 62 52 61 57 14 69 61 54 148
internal_value=-0.00784542 -0.00359902 0.102551 -0.0825685 -0.00884153 -0.0269311 -0.0625182 0.00417289 -0.017683 -0.0428255 -0.00040112 0.0118752 -0.0146706 -0.100991 0.0542933 -0.0502319 -0.0730983 -0.140527 -0.0968395 0.072004 0.0893539 -0.14008 -0.0110142 0.0124922 0.0314407 0.113792 -0.0200731 -0.09668 -0.18217 -0.0676192 -0.0330022 -0.0447945 -0.241667
internal_weight=135.508 129.326 6.08654 2.57367 123.24 65.7915 30.6844 35.1071 28.4871 27.3842 15.8347 57.4483 35.3351 11.5495 22.1132 25.0553 20.0343 9.60375 7.86235 10.2798 14.8933 9.00145 10.4306 20.6247 16.6796 6.41859 10.261 6.18195 6.26436 3.94516 4.73976 11.0594 3.49216
internal_count=1934 1797 162 111 1635 999 467 532 468 429 158 636 421 271 215 291 228 122 142 130 125 247 106 326 229 106 123 137 218 97 95 95 162
is_linear=0
shrinkage=0.220148


Tree=27
num_leaves=33
num_cat=0
split_feature=23 3 28 21 2 9 23 22 12 10 5 10 13 21 21 5 23 22 21 23 12 23 13 28 3 15 24 23 1 24 28 28
split_gain=1.09851 1.31096 1.30335 1.53605 1.69235 2.24699 1.21847 1.10047 1.10824 1.07283 0.965095 1.58854 0.87555 1.14088 1.23774 0.851464 1.73145 1.12297 0.699914 0.867239 0.639377 1.04578 0.824488 0.585563 0.549871 0.504757 0.423792 0.341424 0.0666057 0.0152609 0.000186073 4.83641e-05
threshold=37.000000000000007 17.231250000000003 1322265600.0000002 -7.6854166666499992 -8.6968749999999986 -0.53437499999999993 21.735000000000003 23.550000000000004 49.260000000000012 612.19687500000009 36.20000000000001 706.73125000000016 227.48958333335003 -10.561458333349998 -14.295833333349998 60.350000000000009 4.5050000000000008 21.450000000000003 -4.2885416666999987 4.3250000000000011 30.730000000000004 7.8600000000000003 269.21875000000006 1374321600.0000002 6.7614583333500011 0.56677083335000011 33621.000000000007 4.455000000000001 75.750000000000014 33238.500000000007 1458648000.0000002 1549800000.0000002
decision_type=2 2 2 2 2 2 2 2 2 2 2 2 2 2 2 2 2 2 2 2 2 2 2 2 2 2 2 2 2 2 2 2
left_child=1 2 15 9 5 -5 20 24 18 12 -11 -12 -4 14 -14 16 -1 -17 -9 -20 -3 22 -22 -7 28 -21 31 -26 -6 -25 -31 -10
right_child=-2 6 3 4 7 23 -8 8 26 10 11 -13 13 -15 -16 17 -18 -19 19 25 21 -23 -24 29 27 -27 -28 -29 -30 30 -32 -33
leaf_value=0.076827087694124399 0.11383984066299789 0.024339156307874976 0.12858762382131531 0.061125259516294377 -0.07207327946770796 -0.070094252394985554 -0.14767415558915514 0.1344344446047667 -0.22299666569347687 0.039491142796651856 -0.1360888286113501 0.016653555114677161 0.065451602897427533 0.097413570877932218 -0.11323177464921781 0.019335263159894825 -0.061160381335193782 0.15565368958661149 0.092472489993992324 -0.12722435941666752 -0.057337095448859322 -0.12029716323979532 0.049683024095749449 -0.25376007576919796 -0.083952780081426884 0.042023427018406785 -0.012259415773098139 -0.25566461501033089 -0.014884745003652156 -0.22668035660243929 -0.23077074459962593 -0.22594402957619217
leaf_weight=9.2571738744154626 3.5548345148563376 7.7355374479666379 5.2046885550953474 2.0118477786891162 2.0016740156570481 1.1946162164676959 4.9873429127037516 3.2034170459955948 0.57516738399863132 8.0783612160012144 6.3809916197787953 6.8344488218426704 3.3909831820055851 5.5960989843588296 4.2133369231596589 5.8425056524574739 8.4120021564885956 5.8728022249415517 3.2574020531028474 2.2802394407335673 9.1149248983711022 6.8790166939143083 5.6523976549506179 2.6134729271288961 1.0059782257303598 1.3654033048078416 0.78883251314982761 1.2693355167284606 1.9471439697081221 1.0708424656186255 1.0852312818169592 0.50827274681068957
leaf_count=89 22 70 80 45 57 76 65 28 65 71 89 63 30 75 77 42 75 57 82 118 77 90 47 50 63 9 10 39 37 61 39 36
internal_value=-0.00689506 -0.0102059 0.00309186 -0.014106 -0.0555023 -0.140062 -0.0470638 -0.0184506 0.0205676 0.0131922 -0.0204538 -0.0570971 0.052119 0.0219688 -0.0335518 0.0416482 0.0111335 0.0876707 0.0493889 0.00992272 -0.029986 -0.0493996 -0.0163737 -0.207927 -0.0935438 -0.063836 -0.135008 -0.179746 -0.0438739 -0.242449 -0.228739 -0.224379
internal_weight=133.186 129.631 95.2623 65.8778 26.1789 7.97601 34.3692 18.2029 11.9787 39.6989 21.2938 13.2154 18.4051 13.2004 7.60432 29.3845 17.6692 11.7153 10.1065 6.90304 29.3819 21.6463 14.7673 5.96416 6.22413 3.64564 1.87227 2.27531 3.94882 4.76955 2.15607 1.08344
internal_count=1934 1912 1563 1300 815 271 349 544 348 485 223 152 262 182 107 263 164 99 237 209 284 214 124 226 196 127 111 102 94 150 100 101
is_linear=0
shrinkage=0.220148


Tree=28
num_leaves=29
num_cat=0
split_feature=28 28 23 21 9 21 20 10 20 1 6 10 17 9 8 2 2 1 5 23 10 24 2 24 6 23 5 24
split_gain=0.881071 1.27381 0.821735 1.32092 2.05611 1.1515 1.03743 1.32838 0.977056 0.902314 0.81057 0.760223 0.789293 0.718306 1.71169 0.838491 1.22168 1.05562 0.750786 0.71621 0.623253 0.612036 0.804317 0.562964 0.484046 0.317171 0.270147 0.151541
threshold=1226232000.0000002 1286928000.0000002 6.4450000000000012 -8.0218749999999979 2.9291666666500005 -2.3968749999999996 13.250000000000002 611.93854166665017 10.750000000000002 15.250000000000002 -6.7499999999999991 606.95416666665017 14.0555 2.1885416667000004 4.6635416666500005 -13.902083333299997 -10.134374999999999 20.750000000000004 58.70000000000001 10.085000000000003 709.09950181160013 33267.500000000007 -4.4958333333499985 33225.500000000007 2.0500000000000003 4.5550000000000006 66.800000000000011 33277.500000000007
decision_type=2 2 2 2 2 2 2 2 2 2 2 2 2 2 2 2 2 2 2 2 2 2 2 2 2 2 2 2
left_child=-1 11 6 4 9 27 7 8 -3 -4 23 -2 -13 15 -15 17 -17 -12 21 -11 25 22 -16 -8 -23 -9 -20 -5
right_child=1 2 3 5 -6 -7 10 20 -10 19 13 12 -14 14 18 16 -18 -19 26 -21 -22 24 -24 -25 -26 -27 -28 -29
leaf_value=-0.10987381049037412 0.077358678314621121 0.021212304662336635 -0.12380170422720278 -0.2416892067660508 0.1183585940606416 -0.0028002827029165022 -0.028296892245662376 0.0058609284847348456 0.16352420466971604 -0.093303383369098949 0.029000997465148184 -0.045009205382537554 0.057010414693559198 -0.24434708267692537 -0.00086987014923044876 0.13038599849771484 -0.012672937568100829 -0.13605684807767895 -0.062801794925887472 0.032894636723256571 0.055993234097186602 -0.018411147504709454 -0.16606873007408143 -0.14761282309238233 0.066255762614249328 -0.074917704578400995 -0.22820871368023188 -0.15477587601417622
leaf_weight=3.8440761361271134 13.09059312567115 4.2691450379788893 6.0428849337622585 2.3956956958863884 4.074522507376968 2.0206572357565156 3.9149187529692417 4.1730916872620565 5.1691775862127542 3.4912017709575576 5.023014848353343 7.5840382911264879 7.1313845533877611 1.754915614612403 3.8243259959854186 5.8720449507236481 5.7026672707870585 2.9991134235169739 0.91395008680410583 5.8012350834906101 5.023811597377061 6.8894896069541556 2.2799324871739435 3.7545298733748496 6.2336043617688119 5.409484975039959 1.0045064382720736 1.6363898748531935
leaf_count=33 91 42 76 61 48 37 42 47 67 34 77 51 48 69 66 56 79 53 45 88 42 128 136 77 168 63 50 60
internal_value=-0.00603167 -0.00290038 -0.0145235 -0.0486487 -0.0206481 -0.138441 -0.00281495 0.0347825 0.0991536 -0.0575815 -0.0208352 0.0387644 0.00443152 -0.00894737 -0.0354236 0.0219926 0.0599033 -0.0327067 -0.0180848 -0.0145184 -0.00681267 -0.00498162 -0.0625714 -0.0867072 0.0218065 -0.0397396 -0.149409 -0.206416
internal_weight=131.324 127.48 99.6743 25.4626 19.4098 6.05274 74.2117 24.0447 9.43832 15.3353 50.167 27.806 14.7154 42.4976 22.9007 19.5968 11.5747 8.02213 21.1458 9.29244 14.6064 19.2274 6.10426 7.66945 13.1231 9.58258 1.91846 4.03209
internal_count=1934 1901 1711 404 246 158 1307 261 109 198 1046 190 99 927 662 265 135 130 593 122 152 498 202 119 296 110 95 121
is_linear=0
shrinkage=0.220148


Tree=29
num_leaves=17
num_cat=0
split_feature=18 18 25 24 23 7 17 10 1 24 23 12 21 23 1 28
split_gain=0.760219 1.48189 0.752073 1.91436 0.799946 1.04075 1.23037 1.70984 0.782987 0.795598 0.588434 1.04116 0.749437 1.92158 0.601776 0.00169813
threshold=0.097500000000000017 0.021500000000000002 97.121875000000003 32064.500000000004 37.000000000000007 8.2500000000000018 15.8985 614.95312500000011 17.250000000000004 33331.500000000007 3.1450000000000005 26.000000000000004 2.1687500000000006 4.535000000000001 12.750000000000002 1379937600.0000002
decision_type=2 2 2 2 2 2 2 2 2 2 2 2 2 2 2 2
left_child=1 2 -1 -4 5 8 10 -8 -5 -10 11 -7 14 -14 -12 -13
right_child=-2 -3 3 4 -6 6 7 -9 9 -11 12 15 13 -15 -16 -17
leaf_value=-0.086541223753673846 -0.085757515438642892 0.13020384822087827 0.13484987780312394 -0.13425717924167652 0.10245239613621974 0.033513787430648256 0.18248949580326587 -0.016580724861170234 0.032809113168621451 -0.084968210629941351 -0.077732883973942152 -0.23989077943818762 0.20282355502127247 -0.11486018436077759 -0.0059296037720482503 -0.22514217496064404
leaf_weight=5.3865371956489971 5.4512976568657896 3.9915096032200372 4.7242113784886888 5.0943765570409623 3.0735046826302996 1.3447950335685157 3.9871407479513419 4.397307338193059 5.2029907744145003 5.9683189303614199 6.1623788438737384 0.66520974854938664 2.515624182298779 1.4573798788478596 68.961679084924981 0.87739450577646494
leaf_count=77 71 64 34 63 19 16 50 50 53 62 80 28 71 81 1028 87
internal_value=-0.00529783 -0.00175524 -0.00615118 -0.00236707 -0.00827586 -0.0114674 -0.00224024 0.0780851 -0.0627314 -0.0301139 -0.010455 -0.108072 -0.00689156 0.0862906 -0.0118196 -0.231502
internal_weight=129.262 123.81 119.819 114.432 109.708 106.635 90.3689 8.38445 16.2657 11.1713 81.9845 2.8874 79.0971 3.973 75.1241 1.5426
internal_count=1934 1863 1799 1722 1688 1669 1491 100 178 115 1391 131 1260 152 1108 115
is_linear=0
shrinkage=0.220148


Tree=30
num_leaves=30
num_cat=0
split_feature=9 12 19 23 25 2 2 23 22 19 19 9 6 19 27 19 19 24 12 19 1 15 22 10 2 20 27 19 23
split_gain=1.25163 2.56117 1.41736 2.91253 1.86748 1.59848 1.55059 1.47812 1.40325 1.70099 1.37644 1.33475 1.33503 1.11349 1.22142 1.00541 0.987998 1.34658 0.936299 0.897335 0.818716 1.19883 0.772773 0.867605 0.676928 0.621875 0.414609 0.282172 0.00131281
threshold=8.1562500000000018 48.620000000000012 18.728125000000002 7.535000000000001 99.982291666650013 -20.281249999999996 -21.144791666649997 11.440000000000003 24.250000000000004 19.884375000000002 15.408333333350003 0.21770833335000003 2.2500000000000004 15.183333333350001 258.75000000000006 14.711458333300003 20.828125000000004 33335.500000000007 42.080000000000005 16.957291666650004 24.750000000000004 0.24204710145000005 28.150000000000002 605.36354166665012 -11.322916666699998 23.750000000000004 303.75000000000006 17.197916666650006 6.3250000000000011
decision_type=2 2 2 2 2 2 2 2 2 2 2 2 2 2 2 2 2 2 2 2 2 2 2 2 2 2 2 2 2
left_child=2 -2 3 4 6 -6 -1 -5 9 -4 -9 -10 22 20 25 -8 -11 -18 -17 -12 21 -7 23 -13 -22 -15 -16 -27 -25
right_child=1 -3 8 7 5 13 15 10 11 16 19 12 -14 14 26 18 17 -19 -20 -21 24 -23 -24 28 -26 27 -28 -29 -30
leaf_value=-0.2289306259778755 -0.005664573163247485 0.26255093982301619 -0.0058435507307449007 0.20429327567826452 0.094198920445725309 -0.02049698975995172 0.080467220940733733 -0.034044572354946727 0.062399390744635297 -0.25072007213733188 0.17465576500960045 -0.06429061510599475 0.10397869218151481 -0.10198764803213813 0.11792151135198113 -0.15003415002482476 -0.23498767063866927 0.031899157212339477 -0.0060161532768936285 0.041457209445297884 0.074076349662551874 -0.16994901280839375 -0.013693806057799225 -0.22768856814511532 -0.036296399763019321 -0.037048665867862374 0.035518482610457612 0.067713263115620717 -0.23796393844355135
leaf_weight=2.6340638985857359 4.6094149329001075 2.7577589432476088 5.9292353992350382 4.3888644711114493 9.7652343567460758 6.3068495020270365 2.5437938680406651 5.0836829384788862 9.1841550441458839 3.4224823187105358 4.8337888396345061 3.8516672204714251 2.3781206775456658 3.4977762433700281 6.1948233810253424 4.3003661802504194 1.6492974185384812 2.061435003997758 4.4536025105044246 4.9731648412998766 4.104058250784874 4.4273236240260303 5.090032234787941 1.2675935304723682 7.8332587629556638 2.3296800488606095 5.6657991677056998 2.6788944520521909 1.148707330226898
leaf_count=42 86 79 80 49 91 49 36 86 82 74 49 66 55 88 55 73 65 44 69 46 35 86 76 74 90 52 78 63 25
internal_value=0.00661763 0.0947367 0.00129631 0.0166439 -0.00512986 0.0137865 -0.0768256 0.0920131 -0.0353913 -0.0929794 0.0589196 -0.00257134 -0.0460116 -0.00445874 0.0329012 -0.0413625 -0.165408 -0.0867232 -0.0767646 0.10711 -0.0380212 -0.0821387 -0.0774164 -0.129164 0.00164983 -0.0307588 0.0785577 0.0189845 -0.232573
internal_weight=129.365 7.36717 121.998 86.015 66.7355 52.8037 13.9318 19.2795 35.9827 13.0625 14.8906 22.9203 13.7361 43.0385 20.367 11.2978 7.13321 3.71073 8.75397 9.80695 22.6715 10.7342 11.358 6.26797 11.9373 8.50635 11.8606 5.00857 2.4163
internal_count=1943 165 1778 1137 907 687 220 230 641 263 181 378 296 596 336 178 183 109 142 95 260 135 241 165 125 203 133 115 99
is_linear=0
shrinkage=0.220148


Tree=31
num_leaves=29
num_cat=0
split_feature=28 28 23 13 0 17 17 1 13 17 2 27 13 6 28 23 13 10 24 21 0 22 13 1 20 13 18 28
split_gain=0.963169 1.3495 1.25107 0.893365 1.61239 1.15796 2.45846 1.26289 1.15252 1.01628 0.90221 0.864378 1.69682 1.69781 0.782926 0.768932 0.761555 0.737443 0.664692 0.660074 0.655378 0.595384 0.516474 0.324414 0.43763 0.0108568 0.00166632 4.43492e-05
threshold=1226232000.0000002 1286928000.0000002 16.320000000000004 376.06250000000006 7.7000000000000011 11.165500000000002 12.154500000000001 34.250000000000007 397.32291666665009 12.464500000000003 -14.955208333349999 281.25000000000006 201.73958333330003 -5.6499999999999995 1458648000.0000002 4.5050000000000008 407.72916666670005 605.08854166665003 33109.500000000007 -2.5958333333499994 2.5500000000000003 22.750000000000004 275.72916666670005 22.250000000000004 26.750000000000004 273.96875000000006 0.004000000000000001 1358164800.0000002
decision_type=2 2 2 2 2 2 2 2 2 2 2 2 2 2 2 2 2 2 2 2 2 2 2 2 2 2 2 2
left_child=-1 2 19 4 5 10 7 25 -5 -8 -3 12 18 -14 17 21 -10 26 -11 -2 -17 -13 -16 -24 -25 -7 27 -6
right_child=1 3 -4 8 14 6 9 -9 16 11 -12 15 13 -15 22 20 -18 -19 -20 -21 -22 -23 23 24 -26 -27 -28 -29
leaf_value=-0.10725008456001214 -0.017113743243244953 0.17221018328730658 0.12974776908314137 0.13311740275287021 -0.2261932999280819 -0.23102534419497253 0.11883138489430305 -0.029682290976970033 -0.10101049487401004 -0.049321342690642388 0.01457277616144261 0.019571797369923882 0.027347084471085185 -0.11240221514025167 -0.12464529853501458 -0.08278939971486432 0.054240571450630937 -0.019481688610310237 -0.23387328790435469 0.069660130398090742 0.025099027323285488 0.11570474177831754 -0.075120915353481019 0.039600256607810358 -0.067604593217209394 -0.25775339620391746 -0.23615828012451642 -0.22358489759078629
leaf_weight=3.6310915620997539 9.5627605887129938 3.3323546890169382 7.3877361863851538 5.0351311491103825 0.49984556389972901 1.4773530103266233 3.7654407715890548 2.4184584736358374 2.5490735443308949 1.5762503633741318 3.7283502031350499 6.093038862571122 18.641085273586214 5.443664297694343 3.2118220775155342 3.9277979470789424 3.8352925919461995 1.213045382639393 2.3648885239381343 7.6452753655612478 8.9393330360762757 6.4041587361134589 4.1723460878711176 5.0778128081001341 2.8991449500899762 1.4688529308186842 1.0707715989556161 0.85850788548123091
leaf_count=34 77 29 49 63 35 51 44 48 53 24 81 50 195 121 81 51 91 45 87 56 128 74 56 56 87 46 39 92
internal_value=0.00451606 0.00777316 0.053971 -0.00358913 -0.0110599 0.00446187 -0.00508213 -0.147576 0.0543639 0.00829238 0.088971 0.000496423 -0.0261518 -0.00423922 -0.0678933 0.0299409 -0.00774622 -0.159662 -0.160062 0.0214386 -0.00783481 0.0688349 -0.0461348 -0.0253795 0.000637734 -0.244351 -0.229664 -0.224545
internal_weight=128.231 124.6 24.5958 100.004 88.5843 69.581 62.5203 5.36466 11.4195 57.1557 7.0607 53.3902 28.0259 24.0847 19.0033 25.3643 6.38437 3.64217 3.94114 17.208 12.8671 12.4972 15.3611 12.1493 7.97696 2.94621 2.42913 1.35835
