tree
version=v4
num_class=1
num_tree_per_iteration=1
label_index=0
max_feature_idx=28
objective=binary sigmoid:1
feature_names=TempOut OutHum DewPt. WSpeed WRun WHSpeed WChill HeatIx ThwIx ThswI Bar Rain HiSlE Rad. uvIndex uDose hiUV hetD-D colD-D inTemp inHum inDew iHeat ET WSamp iRecept WDir_deg HWDir_deg Date_num
feature_infos=[-2.2312500000000002:13.3375] [5:91.5] [-30.9354166667:5.2770833333000002] [0:40.897916666699999] [0:981.70000000000005] [0:289.69999999999999] [-22.800000000000001:7.2000000000000002] [2.7000000000000002:19.5] [-9.0124999999999993:11.860416666700001] [-10.297916666700001:11.6111111111] [591.58749999999998:1012.3354166667] [0:16] [0:63.689999999999998] [0:563.04166666670005] [0:16] [0:3.4300000000000002] [0:16] [0:20.568999999999999] [0:0.80600000000000005] [4.4000000000000004:29.25] [4:52] [-27.585416666699999:8.15625] [12:40.700000000000003] [0:86.030000000000001] [0:33640] [0:100] [0:337.5] [0:337.5] [1204243200:1670457600]
tree_sizes=2052 2867 3608 2986 2552 2839 2969 3298 3291 3595 2758 3074 3191 2641 2874 3196 2444 3628 3277 3919 3316 2427 3829 3069 2769 3398 3605 3410 2999 3613 3713 3404 3612 3511 3420 3594 3315 2867 2752 4241 2986 2883 3735 2901 2751 2470 3092 3088 3405 3213 3087 3499 4052 3624 2565 4160 3404 2998 2990 4344 3215 3818 3310 2563 2149 3220 3192 3399 2675 2474 3312 3759 2682 2668 1836 3103 3514 2766 2054 2044 2570 2158 4013 3940 2991 2255 3089 1939 3710 3421 4349 3525 3745 3298 3919 2657 2360 3398 3000 1623

Tree=0
num_leaves=19
num_cat=0
split_feature=22 19 0 5 24 25 23 16 22 19 14 0 0 14 19 22 1 8
split_gain=57.4836 43.955 58.1222 21.7376 17.3469 13.3332 9.71911 9.2911 8.32039 8.20347 7.52606 7.35754 5.05128 4.42419 8.74037 4.8275 3.8903 3.3182
threshold=18.350000000000005 13.990625000000001 4.2739583333000004 79.700000000000017 32405.500000000004 96.223958333350012 24.990000000000006 7.8500000000000005 24.650000000000002 17.304166666650001 6.1500000000000012 2.7718750000000005 11.307291666700001 8.8500000000000032 16.604166666650006 28.750000000000004 25.750000000000004 1.5572916667000003
decision_type=2 2 2 2 2 2 2 2 2 2 2 2 2 2 2 2 2 2
left_child=1 11 -3 4 5 -2 7 8 17 -5 -10 -1 13 15 -15 -9 -13 -6
right_child=3 2 -4 9 6 -7 -8 12 10 -11 -12 16 -14 14 -16 -17 -18 -19
leaf_value=-1.891652050499407 -1.9352354130379927 -1.7729652150148654 -1.9164881578283803 -1.9236986406013081 -1.9236986406013081 -1.876490385465347 -1.8943760106580685 -1.9508802631597795 -1.9334842957931389 -1.8710774578116438 -1.8780322497060988 -1.9597510544659471 -1.9123014258957127 -1.898461950896061 -1.9436458885643713 -1.9239990773835136 -1.9174827071763705 -1.9597510544659471
leaf_weight=3.9887006878852862 5.5398620665073377 4.6534841358661634 3.7671062052249908 3.7671062052249891 3.7671062052249891 5.8722537904977798 3.3239172399044028 67.364722728729248 3.1023227572441101 5.2074703425168991 4.3210924118757248 3.2131199985742569 3.4347144812345496 3.9887006878852871 15.179222062230108 5.318267583847045 3.2131199985742569 3.7671062052249908
leaf_count=36 50 42 34 34 34 53 30 608 28 47 39 29 31 36 137 48 29 34
internal_value=-1.92775 -1.88332 -1.83717 -1.934 -1.93693 -1.90501 -1.94014 -1.94152 -1.92162 -1.89317 -1.90121 -1.92063 -1.94464 -1.94585 -1.93424 -1.94891 -1.93862 -1.94172
internal_weight=152.789 18.8355 8.42059 133.954 124.979 11.4121 113.567 110.243 14.9576 8.97458 7.42342 10.4149 95.2856 91.8509 19.1679 72.683 6.42624 7.53421
internal_count=1379 170 76 1209 1128 103 1025 995 135 81 67 94 860 829 173 656 58 68
is_linear=0
shrinkage=1


Tree=1
num_leaves=26
num_cat=0
split_feature=28 5 22 25 16 28 28 24 10 2 28 5 16 23 1 26 23 11 22 28 2 16 22 16 23
split_gain=112.568 46.7603 31.614 26.0684 20.192 11.4557 15.2104 10.6649 7.64152 7.63997 7.42816 6.50425 5.89398 4.89114 3.82967 3.20645 2.35079 7.18368 2.49457 6.49605 1.90564 1.69668 1.60374e-05 1.79206e-06 9.10236e-07
threshold=1284076800.0000002 73.200000000000017 24.250000000000004 99.984375000000014 8.3500000000000032 1242216000.0000002 1261353600.0000002 33218.500000000007 606.75729166665008 -10.558333333349998 1322265600.0000002 79.700000000000017 6.2500000000000009 3.7550000000000003 24.250000000000004 236.25000000000003 3.6750000000000003 1.5000000000000002 22.450000000000003 1441238400.0000002 -18.291666666649999 5.1500000000000012 21.350000000000005 11.850000000000003 3.4300000000000002
decision_type=2 2 2 2 2 2 2 2 2 2 2 2 2 2 2 2 2 2 2 2 2 2 2 2 2
left_child=3 4 9 5 7 -1 -7 -2 -4 11 13 -3 21 -6 -14 -13 22 18 19 -18 -20 -9 -12 24 -24
right_child=1 2 8 -5 10 6 -8 12 -10 -11 16 15 14 -15 -16 -17 17 -19 20 -21 -22 -23 23 -25 -26
leaf_value=0.012407747376919255 0.047270235286628395 -0.0030494670133958107 0.049278940331559301 0.12238087417917481 -0.022822351968762155 0.096247362361564767 0.026100480575372686 -0.0035590314183965282 0.11001427318847758 -0.024509248341212219 -0.031091281142267939 0.056523459323894187 0.039296398025766427 0.019168482506073219 -0.0038606270730492795 0.019200012221603426 -0.027005764847429833 0.018626958426183782 -0.014366322769587752 0.016862263658429601 -0.027726212654863611 -0.031075386391368403 -0.031026735351170526 -0.031053185757878059 -0.031043893171494617
leaf_weight=4.9787031561136272 4.5002233535051372 5.7988843545317685 3.0377213060855857 4.2371290028095236 3.2941564247012121 4.8990486711263639 4.2673197090625763 2.9629412293434125 3.0761828869581223 4.1069239228963861 5.18603637069464 3.09291672706604 3.0793484970927238 5.4044344648718834 2.9901946485042572 3.7662455886602402 6.6952056959271413 3.2811640724539748 9.7629877328872592 3.9658109620213509 40.784680135548122 3.7406593710184097 8.9403974935412389 3.506836585700511 3.0627583861351004
leaf_count=44 40 52 27 36 30 43 38 27 27 37 47 27 27 49 27 33 61 30 89 36 372 34 82 32 28
internal_value=0.000245741 -0.00839891 0.0269643 0.0632796 -0.0156775 0.0455759 0.0635911 0.0113123 0.0798376 0.00768228 -0.0206432 0.0181269 -0.00135631 0.00326655 0.0180348 0.0360298 -0.0230847 -0.0205285 -0.0226275 -0.0106872 -0.0251458 -0.0189134 -0.0310499 -0.0310361 -0.0310311
internal_weight=152.419 134.037 22.8789 18.3822 111.158 14.1451 9.16637 17.2734 6.1139 16.765 93.8845 12.658 12.7731 8.69859 6.06954 6.85916 85.1859 64.4898 61.2087 10.661 50.5477 6.7036 20.696 15.51 12.0032
internal_count=1375 1214 203 161 1011 125 81 155 54 149 856 112 115 79 54 60 777 588 558 97 461 61 189 142 110
is_linear=0
shrinkage=0.0271627


Tree=2
num_leaves=33
num_cat=0
split_feature=2 5 22 19 24 27 0 14 0 6 21 5 22 23 24 26 19 2 6 23 12 12 3 13 0 2 3 7 12 23 23 20
split_gain=47.3837 29.3999 20.4739 35.2733 14.7455 15.9949 11.2921 15.6993 9.27508 8.66888 7.67205 6.27003 7.53933 7.83345 5.95954 4.12828 3.91731 3.77732 3.15466 3.18637 2.81523 3.14674 2.26759 1.85649 4.21969 1.12178 0.743187 2.10771 0.211542 5.37287e-05 2.20362e-05 5.43723e-06
threshold=-17.669791666699997 78.050000000000026 19.250000000000004 13.990625000000001 32762.500000000004 56.250000000000007 7.2541666667000007 6.2500000000000009 3.8625000000000003 -0.84999999999999998 -7.6135416666499989 71.600000000000009 20.750000000000004 3.6900000000000008 33304.500000000007 303.75000000000006 16.964583333350003 -7.1604166666499989 -6.7499999999999991 5.9850000000000003 37.005000000000003 32.580000000000005 8.1562500000000018 381.45833333330006 9.3010416666500024 -20.987499999999994 5.3197916666500005 14.450000000000001 35.590000000000011 4.5550000000000006 6.8900000000000015 29.500000000000004
decision_type=2 2 2 2 2 2 2 2 2 2 2 2 2 2 2 2 2 2 2 2 2 2 2 2 2 2 2 2 2 2 2 2
left_child=1 2 3 -1 5 -2 7 -4 -3 -7 14 12 13 -12 16 28 20 -13 25 -20 21 -6 -11 26 -25 29 27 -14 -16 -9 -28 -26
right_child=4 8 6 -5 10 9 -8 18 -10 22 11 17 23 -15 15 -17 -18 -19 19 -21 -22 -23 -24 24 31 -27 30 -29 -30 -31 -32 -33
leaf_value=-0.0060742957443909833 0.060320812275381774 0.095323011608205194 0.038035984111392321 0.10144399806622312 -0.0052847521516409977 0.033193902684330527 0.046916880116831067 -0.030965749852233534 0.035584094280734987 0.0021691719038792585 -0.019702489021641532 0.026963743140104659 -0.030955101172051962 0.034712651563780068 -0.021729680488814362 0.0034461901849776725 0.035067467384348648 -0.014478523209394257 0.013175934319253865 -0.016723208410406344 -0.016476289275589976 0.03382970578593384 -0.026334008691246382 0.0030928103922289187 -0.031036291947910813 -0.01344195802006959 -0.0309531008921974 -0.0029523824724563582 -0.031035947165640548 -0.031123966419773774 -0.031031648692428339 -0.030984896299975095
leaf_weight=4.3351434618234617 4.1486901044845608 4.707314044237136 5.4935608580708566 4.6833347305655479 3.1450614780187625 3.7983264848589906 3.8247288465499869 3.2314448207616833 3.2355887144804001 3.2563323900103534 4.7923690527677518 3.2684662640094757 6.2321966588497144 3.2932016551494598 2.928993381559847 5.4895941466093063 3.690282240509986 3.2226934581995001 4.91457603871822 5.6567418500781059 3.695267528295517 2.9324060678482056 5.6020588502287865 4.7790159657597524 3.1661399006843567 4.6186974421143541 25.137612625956539 2.9087410271167755 4.6842895746231079 3.1054739952087402 2.9437945932149878 2.9186873733997345
leaf_count=39 36 39 49 37 28 34 34 30 27 29 44 29 58 29 27 49 33 28 45 51 33 27 50 44 29 42 234 27 43 28 27 27
internal_value=0.000817297 0.023268 0.0137597 0.0497604 -0.00930483 0.0140355 0.00323387 -0.00294942 0.070988 -0.00113614 -0.0137008 -0.0188868 -0.0218076 0.00246045 -0.00146817 -0.014509 0.0112238 0.00638873 -0.0134087 -0.00282318 0.00222018 0.0135882 -0.0158563 -0.0258882 -0.0160091 -0.0236229 -0.0287715 -0.0220443 -0.0274556 -0.0310433 -0.0309613 -0.0310116
internal_weight=153.841 47.8066 39.8637 9.01848 106.034 16.8054 30.8452 27.0205 7.9429 12.6567 89.2288 62.6629 56.1718 8.08557 26.5659 13.1029 13.463 6.49116 21.5269 10.5713 9.77274 6.07747 8.85839 48.0862 10.8638 10.9556 37.2223 9.14094 7.61328 6.33692 28.0814 6.08483
internal_count=1386 421 355 76 965 149 279 245 66 113 816 576 519 73 240 119 121 57 196 96 88 55 79 446 100 100 346 85 70 58 261 56
is_linear=0
shrinkage=0.0271627


Tree=3
num_leaves=27
num_cat=0
split_feature=28 16 28 5 17 28 17 20 24 10 23 23 12 19 27 5 19 3 21 27 10 10 28 21 12 28
split_gain=133.475 33.3812 25.5076 22.4637 16.8296 15.7709 15.6226 10.0541 7.45876 4.71306 3.38221 4.1253 6.68808 3.28351 3.2805 2.85361 2.82774 6.29516 2.30273 2.18856 1.91013 1.76523 2.33633e-05 6.94369e-06 1.26474e-05 8.86678e-07
threshold=1279022400.0000002 8.5500000000000025 1237852800.0000002 84.500000000000014 11.232500000000002 1259150400.0000002 14.815500000000002 12.750000000000002 33218.500000000007 610.25000000000011 3.6750000000000003 4.285000000000001 40.100000000000001 20.321875000000002 258.75000000000006 70.000000000000014 13.168750000000001 16.037500000000005 -6.5312499999999991 202.86442454270002 616.46875000000011 612.86979166670005 1336478400.0000002 1.3697916666500001 31.245000000000001 1453032000.0000002
decision_type=2 2 2 2 2 2 2 2 2 2 2 2 2 2 2 2 2 2 2 2 2 2 2 2 2 2
left_child=2 4 -1 10 -2 9 8 -8 -6 -4 20 12 14 16 -12 18 17 -13 -15 -18 22 -10 -3 24 -24 -25
right_child=1 3 5 -5 6 -7 7 -9 21 -11 11 13 -14 15 -16 -17 19 -19 -20 -21 -22 -23 23 25 -26 -27
leaf_value=0.019214364154413337 0.066156832532016013 -0.030916204222327402 0.13555780370662704 0.043302819325048182 0.024913215706568237 0.054827437140535507 0.075261624457138895 0.013737585714592821 -0.006423150660792006 0.093283392618589159 -0.030963585351971069 0.024476390850236354 0.021122963931533671 0.0022237633356938409 0.0049460487797300268 0.0084991148549998785 -0.016183697543258865 -0.031093205900826315 -0.022216394009089525 -0.028890780925219378 -0.0096750334143895673 -0.03124133970055688 -0.030821172475348046 -0.030803370691747267 -0.030889142418587832 -0.030824536464927089
leaf_weight=5.3494263291358974 4.7351080402731922 3.4116942435503068 3.8932239189743978 4.7109460011124602 3.3760985285043743 5.655623160302639 3.300943084061144 4.8233024626970291 3.3039940372109395 3.8898647278547287 4.9486255496740323 2.9367337450385085 5.7331020906567574 4.0916229486465463 3.0239790230989456 5.4771280884742728 16.482955098152161 3.0832345709204674 9.3304743468761444 25.426760882139206 3.8365251719951621 5.8732572719454765 4.2885820269584638 2.8139606788754454 3.8180188089609146 3.0356389731168747
leaf_count=45 41 32 31 39 29 47 27 42 30 29 46 27 53 38 28 49 152 28 87 234 36 52 41 27 36 29
internal_value=0.00164436 -0.00800652 0.0693781 -0.014684 0.0199646 0.0893464 0.00938667 0.0387353 -0.00960708 0.11443 -0.0173691 -0.0148278 -0.00125279 -0.0176119 -0.0173432 -0.00802361 -0.0213926 -0.00398457 -0.014766 -0.0238931 -0.0270208 -0.0223063 -0.0308525 -0.0308369 -0.0308532 -0.0308144
internal_weight=150.651 131.863 18.7881 106.45 25.4127 13.4387 20.6776 8.12425 12.5533 7.78309 101.739 80.5346 13.7057 66.8289 7.9726 18.8992 47.9297 6.01997 13.4221 41.9097 21.2044 9.17725 17.3679 13.9562 8.1066 5.8496
internal_count=1355 1203 152 982 221 107 180 69 111 60 943 742 127 615 74 174 441 55 125 386 201 82 165 133 77 56
is_linear=0
shrinkage=0.0271627


Tree=4
num_leaves=23
num_cat=0
split_feature=28 16 28 0 28 5 19 6 24 6 23 8 24 28 21 2 28 10 23 1 10 11
split_gain=85.6841 28.1293 16.9263 14.1332 13.0817 11.7338 7.4549 5.94477 8.63937 5.89697 3.82803 3.13552 8.74172 6.63092 7.0191 2.32459 2.23469 2.14069 2.24762 1.6773 1.67346 1.58749
threshold=1279022400.0000002 8.5500000000000025 1237852800.0000002 3.5732336956500004 1252411200.0000002 84.500000000000014 18.348958333300001 -5.7499999999999991 33218.500000000007 -7.4499999999999993 29.195000000000004 2.2635416666500006 32967.500000000007 1441238400.0000002 -11.356249999999998 -9.4499999999999975 1317211200.0000002 610.82500000000016 3.7550000000000003 13.250000000000002 701.05416666665008 2.3000000000000003
decision_type=2 2 2 2 2 2 2 2 2 2 2 2 2 2 2 2 2 2 2 2 2 2
left_child=2 3 -1 9 -4 10 -6 -5 -9 -2 11 12 -3 16 -15 20 -14 19 -19 -13 -10 -21
right_child=1 5 4 7 6 -7 -8 8 15 -11 -12 17 13 14 -16 -17 -18 18 -20 21 -22 -23
leaf_value=0.011328465839706521 0.022432292105228156 0.031951344803510244 0.10331357809983871 -0.031201570423309573 0.020763778619330452 0.025381687152425825 0.070000044559501873 0.045035795448895542 0.018916142005197808 0.066145342544658065 0.010680036153602567 -0.0050150306014680136 -0.0057902536144878829 -0.023523230103311688 0.028168268884864761 -0.022902734131019623 -0.030868368624536437 -0.024601472253391411 0.0022390215384743574 -0.027053195774132104 -0.0081480187468567743 -0.011996804997963966
leaf_weight=5.6848351806402233 5.0147716701030731 3.0209466964006451 4.7894312441349021 3.4762871265411404 4.1121625751256925 4.7453170120716086 5.0617420300841331 3.5489855855703345 3.2516636848449725 4.1705666854977625 3.2443362846970549 3.1180896311998358 3.2138932049274507 3.6524920985102654 4.1293292641639701 3.3097484856843913 14.226227976381777 4.3309744819998723 4.9132999032735825 49.733831621706486 3.5001171678304672 5.7656718343496314
leaf_count=47 41 28 34 31 32 38 40 30 29 35 29 28 29 34 38 30 135 41 46 471 30 55
internal_value=-0.00203792 -0.0100075 0.0508404 0.0151076 0.0669267 -0.0163462 0.0479301 0.000500585 0.00859769 0.04228 -0.0183393 -0.0193189 -0.0117137 -0.0169437 0.00390624 -0.00425506 -0.0262469 -0.0224841 -0.0103358 -0.0243999 0.00488611 -0.025489
internal_weight=150.015 130.367 19.6482 26.2721 13.9633 104.094 9.1739 17.0868 13.6105 9.18534 99.3491 96.1048 28.2429 25.2219 7.78182 10.0615 17.4401 67.8619 9.24427 58.6176 6.75178 55.4995
internal_count=1351 1198 153 226 106 972 72 150 119 76 934 905 264 236 72 89 164 641 87 554 59 526
is_linear=0
shrinkage=0.0271627


Tree=5
num_leaves=26
num_cat=0
split_feature=28 28 28 22 0 3 3 3 20 19 24 28 23 28 7 24 19 7 7 19 11 23 7 9 1
split_gain=85.2404 33.974 25.0296 17.713 14.8253 13.2117 12.0153 9.79786 7.98565 7.48157 7.11501 5.95312 5.53571 5.56874 5.04031 4.46444 3.89122 3.35407 2.98551 6.23074 2.27031 4.13703 1.83965 0.92716 0.000250193
threshold=1284076800.0000002 1552910400.0000002 1237852800.0000002 20.150000000000002 3.5732336956500004 6.6041666666500012 26.766666666650003 13.173958333350003 11.750000000000002 15.061458333350002 33243.500000000007 1406116800.0000002 24.930000000000003 1317211200.0000002 11.750000000000002 33479.500000000007 18.797916666650003 14.550000000000002 13.15 18.208333333350001 2.3000000000000003 3.1150000000000007 10.850000000000003 0.04166666665000001 32.750000000000007
decision_type=2 2 2 2 2 2 2 2 2 2 2 2 2 2 2 2 2 2 2 2 2 2 2 2 2
left_child=2 6 -1 -4 10 -6 8 18 11 -9 -3 -2 13 14 -10 -12 -11 -5 23 -20 22 -22 -15 -7 -25
right_child=1 4 3 17 5 7 -8 9 12 16 15 -13 -14 20 -16 -17 -18 -19 19 -21 21 -23 -24 24 -26
leaf_value=0.0039415809082433946 -0.011234098719150197 0.072139734418098733 0.10226639095542173 0.061321063540560508 0.046371638053480761 -0.012305212247975494 0.032185668030878765 -0.010755197839086657 0.026424104915779779 0.054332406407161693 0.0072261039171905624 0.038769365738012915 0.013009496569667912 -0.017540999596494036 -0.022043096316282328 0.049293127749113666 0.013171717364141716 0.025152411097957149 0.018109082243759397 -0.025230655735485059 -0.030698489124544124 0.015789033555265355 -0.027755923266653409 -0.031111055304666322 -0.030762476282121202
leaf_weight=5.3353176489472416 4.0407230481505385 3.6549341902136785 7.4214376807212812 3.7770729884505272 4.9030103757977477 2.9086055010557228 3.8297709226608267 3.9978112950921041 3.3147674724459639 3.8034168034791946 4.1804695427417755 3.1077101603150368 3.6887705996632567 18.322537124156952 3.0303442254662514 3.3552869185805321 3.0563090667128563 3.7897480949759483 4.9660173356533033 4.8257357329130173 2.750491499900817 2.9032657817006111 44.845923006534576 3.2013821229338646 2.89124596118927
leaf_count=44 35 29 51 29 44 27 32 36 31 33 34 28 33 174 28 28 27 29 45 46 27 27 433 29 28
internal_value=0.00258951 -0.0051868 0.0544652 0.07245 0.0138679 0.00506783 -0.0148896 -0.00176217 -0.0169859 0.0187804 0.0410401 0.0105044 -0.0194779 -0.0210722 0.00327679 0.0259564 0.0359935 0.0432064 -0.0136305 -0.00325033 -0.0233171 -0.00682664 -0.024793 -0.0249223 -0.0309456
internal_weight=155.902 135.579 20.3236 14.9883 45.7442 34.5535 89.8343 29.6505 86.0045 10.8575 11.1907 7.14843 78.8561 75.1673 6.34511 7.53576 6.85973 7.56682 18.793 9.79175 68.8222 5.65376 63.1685 9.00123 6.09263
internal_count=1407 1254 153 109 406 315 848 271 816 96 91 63 753 720 59 62 60 58 175 91 661 54 607 84 57
is_linear=0
shrinkage=0.0271627


Tree=6
num_leaves=27
num_cat=0
split_feature=28 21 1 13 23 17 5 3 28 19 7 5 0 3 23 19 23 1 12 3 19 24 22 10 7 16
split_gain=98.7921 25.6211 13.264 14.4854 9.87751 8.91241 18.1156 8.00495 9.74362 14.4242 12.3251 15.2331 5.43736 4.02397 5.32498 5.262 3.35723 2.21515 1.95092 1.31191 1.22123 0.896172 0.959185 1.10664 0.867537 0.000603335
threshold=1279022400.0000002 -15.576795212749998 21.750000000000004 337.68750000000006 8.4500000000000011 13.363500000000002 74.800000000000011 26.365625000000005 1553947200.0000002 17.418750000000006 11.850000000000003 55.500000000000007 3.5732336956500004 9.8333333333500015 5.285000000000001 21.328125000000004 24.930000000000003 28.750000000000004 31.545000000000005 11.779166666650001 13.763541666700002 33621.000000000007 28.850000000000005 599.20000000000016 15.350000000000003 9.1500000000000004
decision_type=2 2 2 2 2 2 2 2 2 2 2 2 2 2 2 2 2 2 2 2 2 2 2 2 2 2
left_child=2 5 4 -4 -1 -2 20 8 13 10 12 -12 -10 21 15 17 18 -15 -16 24 -7 22 23 -3 25 -11
right_child=1 7 3 -5 -6 6 -8 -9 9 19 11 -13 -14 14 16 -17 -18 -19 -20 -21 -22 -23 -24 -25 -26 -27
leaf_value=0.048141588584785414 0.061092796709490818 -0.011727012202065243 0.057322613043261257 -0.015430616453214887 0.098626512569357422 -0.0073587560317739205 0.050999796921879968 0.028080232080240776 0.016236084407672057 -0.031204915702598108 0.075191928076264625 0.0013407261931990047 -0.025859267730846184 -0.024240552513980041 -0.0048005308396308708 0.028706136403638165 0.0020949941892777204 0.0067145051453659267 -0.028007875484334588 -0.0072750165133082913 -0.03114202970645576 -0.010962179855874134 -0.011665842088803868 -0.029250141550828817 -0.014681660497054841 -0.030739039515183995
leaf_weight=5.6739322170615214 3.520123064517974 2.8605654165148726 5.1377659589052183 3.3264678791165352 5.7642057090997696 3.4067417010664922 4.8807370737195015 3.1662380993366233 3.9602706134319323 3.2570613697171193 4.0756204277276975 4.1682872921228409 5.2853914797306061 4.1472543925046903 3.1106061190366807 3.6413297429680824 4.0741114094853392 2.8971104398369789 18.97959441691637 3.37043622881174 2.9918873012065887 2.7506119161844245 2.832005336880683 37.747501946985722 3.3575383350253096 5.5387633219361305
leaf_count=39 30 28 38 27 39 30 36 25 32 29 35 37 49 40 29 34 36 28 181 29 27 27 27 372 32 54
internal_value=-0.00196171 -0.0103476 0.0545079 0.0287304 0.0735833 0.0233608 0.0115852 -0.014532 -0.0156946 -0.00321208 0.0137033 0.0378513 -0.00782822 -0.0206571 -0.0139627 0.00219447 -0.0205614 -0.0115098 -0.02474 -0.0222695 -0.0184794 -0.0259978 -0.0269498 -0.0280158 -0.0264278 -0.0309116
internal_weight=153.922 134.02 19.9024 8.46423 11.4381 14.7995 11.2794 119.22 116.054 33.0134 17.4896 8.24391 9.24566 83.0407 36.85 10.6857 26.1643 7.04436 22.0902 15.5238 6.39863 46.1907 43.4401 40.6081 12.1534 8.79582
internal_count=1390 1247 143 65 78 123 93 1124 1099 297 153 72 81 802 348 102 246 68 210 144 57 454 427 400 115 83
is_linear=0
shrinkage=0.0271627


Tree=7
num_leaves=30
num_cat=0
split_feature=28 28 28 24 19 3 25 25 8 6 23 12 8 3 2 28 26 1 23 9 5 24 6 5 25 1 28 28 19
split_gain=57.3063 20.5781 13.8227 13.1196 8.32696 8.28156 8.1796 6.59967 6.23727 6.13022 4.18605 6.1158 8.52425 8.44844 4.01503 9.03972 5.98271 5.56159 3.84043 4.75457 3.24916 2.51713 2.35283 2.30749 0.304638 0.000384185 0.000372484 7.80464e-05 1.37085e-05
threshold=1284076800.0000002 1555588800.0000002 1237852800.0000002 33217.000000000007 18.426041666650004 7.5041666666500015 99.998958333350018 98.547916666650011 -2.2791666666999997 -4.2499999999999991 3.6900000000000008 34.040000000000013 0.82083333335000008 9.9322916666500003 -11.909374999999999 1603713600.0000002 236.25000000000003 20.250000000000004 4.285000000000001 6.2604166666500012 66.800000000000011 32361.000000000004 -6.4499999999999993 74.800000000000011 99.756125000000011 35.750000000000007 1493683200.0000002 1353412800.0000002 16.434375000000003
decision_type=2 2 2 2 2 2 2 2 2 2 2 2 2 2 2 2 2 2 2 2 2 2 2 2 2 2 2 2 2
left_child=2 8 -1 9 6 -4 -5 -7 -2 -3 24 12 22 -14 17 -16 -17 -8 19 -13 25 -20 -12 -23 -10 -6 27 -26 -29
right_child=1 3 5 4 20 7 14 -9 10 -11 11 18 13 -15 15 16 -18 -19 21 -21 -22 23 -24 -25 26 -27 -28 28 -30
leaf_value=0.0041067179741345267 0.014982466764113271 0.016454960661125222 0.085669109120971004 -0.024996011862566225 -0.030964194980101258 0.014895411878968475 0.012577699228154443 0.056465102108075656 -0.020716391113438683 0.060006921437894128 -0.030901852304564562 -0.02174752273719481 -0.0055401082792157644 0.057329772812681069 -0.031076155313925387 0.051830221899995109 -0.00052349141900194323 0.0567822224305621 0.0009539181644981524 0.027468779852299847 0.0020525513074808452 -0.026005155477782729 -0.0032127770534868851 -0.0072252091378964605 -0.030634261650038078 -0.030564703249187215 -0.030845287607804285 -0.030525330351977784 -0.030451222484896012
leaf_weight=6.0269429013133076 4.6562866866588584 5.6029080897569656 4.0977737531065968 4.414123676717284 3.002273462712763 4.4925366491079313 5.5499527975916862 7.5589803829789162 2.7295553386211404 4.1512860059738141 4.2114792242646208 3.0027359202504149 3.2405794933438292 3.0719835832715034 3.4831946492195129 2.9399762824177742 3.5611845701932907 3.3781648799777031 3.3908070102334014 2.797451913356781 3.202987901866436 34.915933914482594 4.896989367902278 5.6016311496496192 3.0046028792858115 4.3488167822360992 3.2064901515841493 2.6442226991057378 6.0675389096140862
leaf_count=48 39 44 27 40 28 30 48 51 27 35 40 29 32 28 32 26 33 28 31 27 26 346 46 48 30 44 31 27 63
internal_value=-0.00117145 -0.00800365 0.0392105 0.00723168 -0.000759963 0.0523112 0.00829786 0.0409688 -0.0156066 0.0349902 -0.0173272 -0.0141473 0.000796802 0.0250553 0.0160686 0.00423373 0.0231521 0.0293035 -0.0187833 0.00198968 -0.0207795 -0.0215274 -0.0160154 -0.0234088 -0.0290598 -0.0307279 -0.0305859 -0.0305149 -0.0304737
internal_weight=153.249 131.073 22.1762 43.6349 33.8807 16.1493 23.3266 12.0515 87.4383 9.75419 82.782 65.1296 15.421 6.31256 18.9125 9.98436 6.50116 8.92812 49.7086 5.80019 10.5541 43.9084 9.10847 40.5176 17.6524 7.35109 14.9229 11.7164 8.71176
internal_count=1384 1228 156 384 305 108 207 81 844 79 805 627 146 60 167 91 59 76 481 56 98 425 86 394 178 72 151 120 90
is_linear=0
shrinkage=0.0271627


Tree=8
num_leaves=30
num_cat=0
split_feature=28 5 16 20 23 24 0 27 22 15 15 26 28 7 6 7 23 19 6 6 1 5 23 23 1 23 8 28 23
split_gain=70.7646 25.8034 20.5489 14.3805 13.0516 13.0184 10.1681 8.24885 8.10776 6.5759 6.97247 5.14957 5.1267 4.99782 4.08143 3.8266 2.7368 2.66689 2.42708 4.45727 1.83665 1.52519 1.59377 2.63056 1.48791 0.92975 0.855159 9.41229e-05 6.86704e-05
threshold=1284076800.0000002 79.700000000000017 8.5500000000000025 13.750000000000002 8.4500000000000011 33217.000000000007 3.7885416667000005 281.25000000000006 22.050000000000004 0.44031250000000005 0.47583333335000005 303.75000000000006 1322265600.0000002 11.250000000000002 -0.74999999999999989 9.9500000000000011 19.225000000000005 18.594791666650003 2.6500000000000008 0.75000000000000011 23.750000000000004 42.650000000000006 5.6550000000000011 5.1050000000000013 17.750000000000004 19.500000000000004 1.4979166666500003 1488931200.0000002 3.7550000000000003
decision_type=2 2 2 2 2 2 2 2 2 2 2 2 2 2 2 2 2 2 2 2 2 2 2 2 2 2 2 2 2
left_child=4 2 5 6 8 13 -3 26 20 12 -11 -9 14 -2 17 -5 -6 -4 19 24 -1 27 23 -23 -12 -24 -7 28 -14
right_child=1 3 9 15 16 7 -8 11 -10 10 18 -13 21 -15 -16 -17 -18 -19 -20 -21 -22 22 25 -25 -26 -27 -28 -29 -30
leaf_value=0.030750938343428128 0.058219000204542549 0.076210973073412819 0.0051600522295546982 -0.02370955791977419 0.055134608647694962 -0.031195439431676013 0.016946733686874476 0.043714086417009898 -0.0047987032938519225 0.034631897195395563 -0.0029753586866428155 -0.0051776587511851244 -0.0303898179343399 0.016313285712152351 0.026452857837886472 0.01714200647744463 0.083947197372387733 -0.030879027378606049 -0.030534105205340268 0.024534317726555108 0.05712396453687537 -0.020227023722230852 -0.029036500216132292 -0.00098439417335367861 -0.030664682904248002 -0.016283300199301392 -0.013692304529318258 -0.03062512398493351 -0.03052957502983801
leaf_weight=4.2163296043872851 4.501017592847349 4.7302051037549955 3.0067616403102875 3.4106895923614493 4.8934628963470441 3.6743935868144018 3.8947129622101784 3.2311463579535475 3.9470885023474693 3.2948745861649504 2.9091421589255315 3.1282844915986061 5.7868202775716764 3.9360296353697777 2.8422126621007902 3.3568021953105927 4.8362216129899025 3.0534554421901703 3.1360826268792144 2.9407754167914391 3.6218503788113594 28.733304113149643 17.304504081606868 6.4111294671893111 2.8196270167827606 5.5769460946321479 4.6859611198306084 2.9946096092462531 4.7014229893684387
leaf_count=28 34 33 28 28 32 33 31 26 30 29 27 28 61 31 27 29 31 29 32 28 26 288 174 64 28 53 43 30 48
internal_value=0.000443534 -0.00689532 -0.0111872 0.0261929 0.0461724 0.0117684 0.0494493 -0.00365063 0.0269497 -0.0167528 -0.000305851 0.0196636 -0.0198413 0.0386693 -0.00040304 -0.00344642 0.0694561 -0.0129983 -0.0100568 -0.00264937 0.0429373 -0.0222613 -0.0203491 -0.0167167 -0.0166037 -0.0259281 -0.021385 -0.0304908 -0.0304525
internal_weight=155.576 134.061 118.669 15.3924 21.515 23.1568 8.62492 14.7198 11.7853 95.5117 15.1005 6.35943 80.4112 8.43705 8.90243 6.76749 9.72968 6.06022 11.8056 8.66954 7.83818 71.5087 58.0259 35.1444 5.72877 22.8815 8.36035 13.4829 10.4882
internal_count=1409 1262 1141 121 147 195 64 130 84 946 144 54 802 65 84 57 63 57 115 83 54 718 579 352 55 227 76 139 109
is_linear=0
shrinkage=0.0271627


Tree=9
num_leaves=33
num_cat=0
split_feature=28 28 3 19 5 23 23 20 2 7 10 28 5 1 5 19 7 13 5 12 28 21 28 3 23 27 28 10 13 14 28 21
split_gain=62.2039 29.9617 13.4126 17.5539 14.9277 10.1919 11.7906 8.81592 7.63062 6.39924 5.46664 4.11686 3.58862 3.27804 3.19242 2.54072 2.51976 10.2071 1.98768 2.19283 8.2836 2.27903 2.45864 0.852369 0.548255 0.361571 0.669377 0.320426 0.27531 0.234299 0.000501478 0.000492651
threshold=1279022400.0000002 1552910400.0000002 6.5677083333500006 17.433333333350003 74.800000000000011 4.1350000000000007 7.535000000000001 12.750000000000002 -21.331249999999994 10.450000000000001 706.4312500000002 1252411200.0000002 60.350000000000009 16.750000000000004 84.500000000000014 17.351041666650005 13.15 313.23958333335003 52.300000000000004 34.190000000000005 1432641600.0000002 -2.1197916666999999 1406116800.0000002 17.440625000000004 19.500000000000004 78.750000000000014 1373544000.0000002 600.88541666665003 304.03125000000006 10.350000000000003 1327924800.0000002 -13.124999999999998
decision_type=2 2 2 2 2 2 2 2 2 2 2 2 2 2 2 2 2 2 2 2 2 2 2 2 2 2 2 2 2 2 2 2
left_child=5 7 3 -3 9 -1 11 8 -2 12 -6 -7 -4 -10 18 -8 28 -18 25 20 23 24 -23 -20 -21 26 -9 -27 31 -19 -29 -11
right_child=1 2 4 -5 10 6 15 14 13 16 -12 -13 -14 -15 -16 -17 17 29 19 21 -22 22 -24 -25 -26 27 -28 30 -30 -31 -32 -33
leaf_value=0.079804974528562167 -0.020501813866243109 0.064235202972524497 0.033817909867380758 -0.0062195565392899801 0.013055439903259211 -0.0082405132514592108 0.040765127373683534 -0.012871828243191984 0.042853408853185018 -0.031114804715084717 0.0537764304142066 0.030175319251137471 -0.0063377298749874352 0.0039677485285796368 0.0069996493452526808 0.070455246334047414 0.029265466211519219 -0.020915613533233804 -0.030634922602602782 -0.03047608917401759 0.028678711728491246 0.0057042166027633208 -0.024304454713269752 -0.011737978173563238 -0.019960367951117879 -0.020621749016631784 -0.030447284565332931 -0.030784168441472561 -0.020471797863670128 -0.031011593479600683 -0.030398622851536272 -0.030633644993492675
leaf_weight=4.2874719649553326 5.1173297017812729 6.4779009819030744 3.2988201975822475 4.3687738329172134 6.0310010686516744 4.3899383395910281 4.3375726938247663 3.0659503415226963 3.2969076484441739 3.0759301409125328 4.0764255225658417 3.8749832361936569 3.2694003880023956 3.1066733375191689 2.8050275966525069 4.1718959361314774 3.5673541203141195 2.7948979660868645 4.7075057178735715 13.915019579231741 3.1884077042341232 3.7317655384540576 4.3772031366825104 2.8137796372175217 4.9626516699790946 2.7691200003027943 3.3411860242486 2.8852586597204235 2.6806324273347855 4.3133559823036194 18.129143118858337 3.2068814262747782
leaf_count=27 47 50 26 40 48 32 27 31 29 28 29 27 29 29 23 27 30 28 47 144 30 37 45 26 47 29 35 28 27 40 191 32
internal_value=-0.000858629 -0.00790603 0.00935269 0.0358578 0.001436 0.0424307 0.0328779 -0.0178065 0.00422672 -0.00937926 0.0294786 0.00977063 0.01383 0.0239882 -0.0213973 0.0553212 -0.0171415 -0.0082263 -0.0225706 -0.0184112 -0.00801169 -0.0225382 -0.0104944 -0.0235654 -0.0277117 -0.0277642 -0.0220371 -0.0293071 -0.0277597 -0.027042 -0.0304516 -0.0308692
internal_weight=150.436 129.374 47.1614 10.8467 36.3147 21.0619 16.7744 82.2129 11.5209 26.2073 10.1074 8.26492 6.56822 6.40358 70.692 8.50947 19.6391 10.6756 67.887 37.6963 10.7097 26.9866 8.10897 7.52129 18.8777 30.1907 6.40714 23.7835 8.96344 7.10825 21.0144 6.28281
internal_count=1365 1225 407 90 317 140 113 818 105 240 77 59 55 58 713 54 185 98 690 376 103 273 82 73 191 314 66 248 87 68 219 60
is_linear=0
shrinkage=0.0271627


Tree=10
num_leaves=25
num_cat=0
split_feature=28 20 2 3 24 19 28 28 28 22 26 12 1 28 3 19 23 10 19 16 13 23 28 12
split_gain=65.1899 17.297 11.4646 10.6715 11.4764 8.8802 8.31814 10.5586 8.00318 7.21389 5.72002 4.68339 4.68302 4.29705 4.1403 3.73285 2.8796 2.55766 1.52143 1.47411 1.59514 5.38921 1.03313 0.000461242
threshold=1284076800.0000002 14.750000000000002 -8.6968749999999986 26.365625000000005 33281.500000000007 19.902083333350003 1603713600.0000002 1637755200.0000002 1248912000.0000002 24.150000000000002 326.25000000000006 36.595000000000006 17.250000000000004 1654516800.0000002 12.364583333350003 22.690625000000001 20.710000000000004 711.07500000000016 20.582291666650004 8.4500000000000011 376.06250000000006 4.7750000000000012 1458648000.0000002 33.740000000000002
decision_type=2 2 2 2 2 2 2 2 2 2 2 2 2 2 2 2 2 2 2 2 2 2 2 2
left_child=2 3 8 4 5 9 10 -8 -1 11 16 12 -2 -9 -11 -7 19 18 23 -3 22 -22 -21 -6
right_child=1 6 -4 -5 17 15 7 13 -10 14 -12 -13 -14 -15 -16 -17 -18 -19 -20 20 21 -23 -24 -25
leaf_value=0.03428127454269795 -0.0063698860866176705 -0.0083227951437732858 0.013729846313997771 0.047914975439380912 -0.030930242413071168 -0.030744538440314457 0.044780534612483408 -0.0259297698690578 0.073242003495974067 0.022989975121842861 0.0098763482645171756 -0.022443576047621674 0.037851662283852484 0.011964153599125678 0.05889378425603823 0.0055045689480295824 -5.5348400152373746e-05 0.0044969239806163415 -0.0098166598699711352 -0.029463170451042985 0.017179319148817977 -0.026805437706958913 -0.020304385956472017 -0.030497048885352297
leaf_weight=7.1270297691226032 3.2308764755725914 4.7017108425498 6.993043713271617 4.0348407104611388 2.9307118877768499 3.9630831331014615 3.5437823310494414 5.4059595912694913 8.5648326724767667 5.4642622843384725 4.6883973106741896 3.0417738556861877 3.8992198929190636 3.7321460470557213 4.1843558102846146 4.4489575624465942 4.3892699405550948 2.9968106895685187 3.8906276449561119 28.587896384298801 2.8448177725076658 7.40511604398489 13.321438126266001 4.756998635828495
leaf_count=45 28 41 50 29 28 39 29 51 52 46 47 27 32 31 34 41 41 25 38 301 29 77 138 49
internal_value=0.000281333 -0.00738037 0.0426558 0.00568578 0.00170547 0.0118107 -0.0151652 0.00498105 0.0555466 0.021735 -0.01904 0.00577508 0.0178135 -0.0104533 0.0385605 -0.0115731 -0.0212534 -0.0178687 -0.0236575 -0.0228897 -0.0242028 -0.0145977 -0.0265519 -0.0306622
internal_weight=148.148 125.463 22.6849 46.8425 42.8077 28.2325 78.6205 12.6819 15.6919 19.8205 65.9386 10.1719 7.1301 9.13811 9.64862 8.41204 61.2502 14.5751 11.5783 56.861 52.1593 10.2499 41.9093 7.68771
internal_count=1348 1201 147 416 387 247 785 111 97 167 674 87 60 82 80 80 627 140 115 586 545 106 439 77
is_linear=0
shrinkage=0.0271627


Tree=11
num_leaves=28
num_cat=0
split_feature=28 28 4 13 10 3 13 3 0 3 23 4 21 6 0 28 11 10 28 14 5 3 28 8 0 5 21
split_gain=57.2481 24.5138 15.3327 10.7291 9.18532 8.9994 8.79918 8.67832 10.6059 7.58572 5.23541 4.42043 4.21268 7.28218 5.66568 5.08906 3.62616 3.33073 3.15521 2.28133 1.67238 1.27896 0.822541 0.679154 0.286492 0.00157928 0.00105094
threshold=1286928000.0000002 1552910400.0000002 114.60000000000001 317.35416666665009 607.42604166665012 26.766666666650003 223.76041666670002 13.173958333350003 7.3145833333000008 6.5677083333500006 5.6350000000000007 219.64000000000001 -8.2093749999999979 -2.3499999999999992 8.3770833333500025 1347883200.0000002 2.3000000000000003 704.94776152485008 1646481600.0000002 7.2500000000000009 71.600000000000009 12.838541666700001 1320580800.0000002 1.1760416666500002 9.3354166666500031 74.800000000000011 -12.990624999999998
decision_type=2 2 2 2 2 2 2 2 2 2 2 2 2 2 2 2 2 2 2 2 2 2 2 2 2 2 2
left_child=3 5 -3 4 -1 12 -6 9 10 -4 -9 24 13 15 -15 -2 20 -12 19 -13 22 -17 -14 -24 26 -23 -11
right_child=1 2 7 -5 6 -7 -8 8 -10 11 17 18 16 14 -16 21 -18 -19 -20 -21 -22 25 23 -25 -26 -27 -28
leaf_value=0.076918395532021414 0.0062983982368953386 0.06427863954821908 0.020131235988660099 0.010093901303338933 0.056434297548093766 0.024001001174459562 0.0069669294227428609 0.030147621182592323 0.058597580341795776 -0.031239040283909794 -0.020243210134984535 -0.024745621676553614 -0.013857761079456089 0.044631906797665516 -0.01030531325983694 -0.013684384852107906 0.00090033514872056315 0.014723835727022452 0.021070368591921497 0.006786341077327623 -0.010974517420791093 -0.030501335538858757 -0.018164763793517086 -0.029472843820818617 -0.020313058072474202 -0.031282476467216554 -0.030546591074389725
leaf_weight=6.1035374626517358 5.1171093359589639 3.3755461424589148 6.2711162567138699 6.9039082005619994 6.1969601362943632 3.882027529180049 4.6392527893185616 4.7672043144702938 3.8892970830202094 2.8633405864238757 4.8001259267330152 4.1517929509282094 3.2289295122027388 2.8724368512630454 2.6747782006859779 4.8447802960872641 4.3129251822829238 3.457582026720047 3.08663260191679 2.858428381383419 5.4308781623840323 7.3666780814528448 4.4414218813180915 33.29161174595356 2.6805663108825684 2.5778388753533363 3.7156421095132828
leaf_count=38 49 26 52 48 35 31 30 36 30 26 41 37 32 27 27 50 44 27 26 26 51 76 47 361 28 23 38
internal_value=4.10688e-05 -0.0072647 0.00855626 0.0386352 0.0502674 -0.0163407 0.0352561 0.00413488 0.019236 -0.00583191 0.00748249 -0.0142435 -0.018397 -0.0093804 0.0181421 -0.0170499 -0.0229232 -0.00560217 -0.00181284 -0.0118884 -0.025138 -0.0251285 -0.0270158 -0.0281418 -0.0277982 -0.0307038 -0.030848
internal_weight=149.802 125.959 45.9173 23.8437 16.9398 80.0414 10.8362 42.5417 16.9142 25.6275 13.0249 19.3564 76.1594 25.4536 5.54722 19.9064 50.7058 8.25771 10.0969 7.01022 46.3928 14.7893 40.962 37.733 9.25955 9.94452 6.57898
internal_count=1362 1211 393 151 103 818 65 367 134 233 104 181 787 252 54 198 535 68 89 63 491 149 440 408 92 99 64
is_linear=0
shrinkage=0.0271627


Tree=12
num_leaves=29
num_cat=0
split_feature=28 28 28 28 21 5 24 0 28 27 27 5 24 10 13 26 13 0 8 28 10 24 10 11 0 5 1 21
split_gain=45.9706 25.2662 18.7873 12.6911 10.8096 10.5153 10.9601 7.87355 5.23328 5.24375 7.94195 4.97219 5.59474 8.51129 4.61422 4.89397 3.00224 2.64158 2.27151 5.60872 2.10434 1.15959 1.09399 0.287164 0.235786 0.00153643 0.0013157 0.000311992
threshold=1279022400.0000002 1552910400.0000002 1237852800.0000002 1561420800.0000002 -9.6499999999999986 79.700000000000017 33057.000000000007 4.2739583333000004 1603713600.0000002 303.75000000000006 146.25000000000003 78.050000000000026 33247.500000000007 605.79895833330011 376.06250000000006 101.25000000000001 317.35416666665009 4.3000000000000007 1.0947916666500002 1427371200.0000002 606.75729166665008 33346.500000000007 599.08437500000014 2.9000000000000004 1.9231604610000004 73.200000000000017 44.250000000000007 -12.017708333299998
decision_type=2 2 2 2 2 2 2 2 2 2 2 2 2 2 2 2 2 2 2 2 2 2 2 2 2 2 2 2
left_child=2 4 -1 -3 11 6 -5 -4 17 10 -10 12 13 -2 18 -16 -9 -8 19 24 -14 -11 -20 25 -6 -24 -19 -22
right_child=1 3 7 5 14 -7 8 16 9 21 -12 -13 20 -15 15 -17 -18 26 22 -21 27 -23 23 -25 -26 -27 -28 -29
leaf_value=-0.0028237339383753702 -0.021916641454401281 0.049752747814747963 0.078154347121991485 0.044256104768829088 -0.020230995674675688 0.037963222331815573 -0.0028023310524577885 0.04797481899805553 -0.016193077800558408 -0.03052178003916034 0.02419400682576137 0.02466913706717503 -0.0053738077325576625 0.038519183958526236 0.014219981812545366 -0.02459278327958719 0.019947508024222311 -0.031047835884968417 -0.012778109387541323 0.019965432315617704 -0.030708585192087148 -0.0078871003595930769 -0.030268797145483278 -0.021777828247210643 -0.030569934139114071 -0.0309254922636375 -0.030323796765514794 -0.030304087972783739
leaf_weight=7.2712439745664623 3.0684633105993333 4.9632247239351264 4.9583125114440945 3.5089318528771392 2.6617063432931882 5.7782008573412886 3.7670205086469633 7.533448398113249 5.5497250780463245 3.2131909132003775 10.185862824320791 4.7667250037193289 4.2972441464662534 3.9102623462677002 4.8526361212134344 4.736512579023838 4.5067946761846542 4.005701944231987 3.0870904177427283 2.6529697179794312 3.214310877025131 3.4769517183303833 31.429449900984764 3.1691339910030356 4.1884022951126099 2.8685345947742453 3.443598710000515 2.5019724220037425
leaf_count=53 30 38 26 25 28 43 32 44 53 33 84 37 43 37 50 51 28 37 33 24 32 31 344 34 43 27 37 27
internal_value=-0.000585783 -0.00702451 0.0337167 0.00863 -0.0162344 0.00387562 -0.00142612 0.0493471 -0.00619087 0.00138566 0.00995004 0.000153555 -0.00672364 0.0119463 -0.0222127 -0.00495139 0.0374839 -0.0213392 -0.0255193 -0.0135662 -0.0197353 -0.0187583 -0.0283203 -0.0296009 -0.0265526 -0.0303237 -0.0307131 -0.0305315
internal_weight=153.568 129.298 24.2698 47.8924 81.4054 42.9292 37.151 16.9986 33.6421 22.4257 15.7356 21.759 16.9923 6.97873 59.6464 9.58915 12.0402 11.2163 50.0573 9.50308 10.0135 6.69014 40.5542 37.4671 6.85011 34.298 7.4493 5.71628
internal_count=1404 1253 151 413 840 375 332 98 307 201 137 206 169 67 634 101 72 106 533 95 102 64 438 405 71 371 74 59
is_linear=0
shrinkage=0.0271627


Tree=13
num_leaves=24
num_cat=0
split_feature=28 3 28 28 1 0 20 28 1 1 3 9 3 21 28 23 24 26 0 7 24 23 11
split_gain=47.7994 19.5107 16.9376 15.606 9.174 7.71206 5.82405 7.53495 6.04723 5.05385 4.35265 7.00234 6.59276 3.72534 3.61488 3.08663 2.94263 4.41892 3.73888 2.58741 2.22754 1.14743 1.27832
threshold=1279022400.0000002 32.419791666650006 1553947200.0000002 1558699200.0000002 21.250000000000004 2.0312500000000004 11.750000000000002 1322265600.0000002 11.750000000000002 12.750000000000002 13.173958333350003 1.3656250000000003 6.3125000000000009 -2.3968749999999996 1623412800.0000002 4.0150000000000006 33539.500000000007 303.75000000000006 6.4463267544000011 13.15 33580.500000000007 19.500000000000004 2.3000000000000003
decision_type=2 2 2 2 2 2 2 2 2 2 2 2 2 2 2 2 2 2 2 2 2 2 2
left_child=4 2 6 -4 9 -5 8 15 -2 -1 12 14 -7 -6 -12 -8 21 20 -19 -14 -18 22 -9
right_child=1 -3 3 5 13 10 7 16 -10 -11 11 -13 19 -15 -16 -17 17 18 -20 -21 -22 -23 -24
leaf_value=0.031927320467845501 -0.021716272427794611 0.052648956183176818 0.064453279645845671 0.032883784598927317 -0.002723730689702292 0.013137054292075965 -0.01340854514782349 -0.029292856595076577 0.030021491311148625 0.065075288001446199 -0.024485356649841306 0.035482511316229627 -0.028115788591714892 0.0317936672997991 0.0089896184030273472 0.021353387265006442 -0.0061896798653005864 0.020767749650717055 -0.020256544538848252 -0.0072934792574595704 -0.026394013673740998 -0.013170363504249662 -0.0091987923970628278
leaf_weight=6.0038741156458872 2.8614259213209143 4.0793653130531302 3.0603869631886473 4.9718291312456122 4.3144001364707947 6.5829429775476482 3.1582515090703955 29.582302950322628 3.9924445599317551 7.8052648305892944 3.9743308126926404 4.8184314146637908 9.7215307131409663 4.9579819217324239 5.9335676655173302 4.6732783913612366 5.6527442038059297 4.1885093301534644 2.6929119974374771 8.0481877624988538 13.990639790892599 4.5778041183948508 2.5361361876130095
leaf_count=34 26 26 21 37 28 51 32 328 36 44 35 38 94 32 47 44 63 39 29 78 154 43 26
internal_value=0.000628461 -0.0058085 -0.00771599 0.00514092 0.036631 0.00102025 -0.0154908 -0.0177974 0.00842147 0.0506634 -0.00303359 0.00862385 -0.010083 0.0157329 -0.00443812 0.00733481 -0.0209106 -0.0140179 0.00471368 -0.018685 -0.0205798 -0.0258929 -0.0277062
internal_weight=152.179 129.097 125.018 47.1112 23.0815 44.0508 77.9064 71.0526 6.85387 13.8091 39.079 14.7263 24.3527 9.27238 9.9079 7.83153 63.221 26.5248 6.88142 17.7697 19.6434 36.6962 32.1184
internal_count=1385 1247 1221 401 138 380 820 758 62 78 343 120 223 60 82 76 682 285 68 172 217 397 354
is_linear=0
shrinkage=0.0271627


Tree=14
num_leaves=26
num_cat=0
split_feature=28 28 5 25 10 16 9 8 7 9 23 23 20 20 1 28 12 19 3 28 28 23 3 3 19
split_gain=34.9047 25.1331 12.3484 8.76608 7.9675 6.99812 5.14208 4.77268 8.67648 8.12261 5.78548 6.06226 4.88902 4.75536 6.20449 4.77398 4.33553 3.79882 1.73693 1.55308 2.04376 2.64494 0.000307121 0.000261197 4.48949e-05
threshold=1284076800.0000002 1552910400.0000002 89.300000000000011 99.984375000000014 607.98020833335011 12.850000000000003 4.747916666650001 7.6885416667000008 13.450000000000001 5.3979166666500005 5.705000000000001 5.0750000000000011 15.750000000000002 12.250000000000002 14.750000000000002 1322265600.0000002 45.350000000000001 20.029166666650003 16.771875000000005 1372507200.0000002 1479384000.0000002 5.7650000000000006 14.785416666650002 10.890625000000002 21.602083333350002
decision_type=2 2 2 2 2 2 2 2 2 2 2 2 2 2 2 2 2 2 2 2 2 2 2 2 2
left_child=3 2 13 4 6 7 -1 8 10 -10 11 12 -3 14 18 16 -15 -16 -2 22 21 -21 24 -22 -17
right_child=1 5 -4 -5 -6 -7 -8 -9 9 -11 -12 -13 -14 15 17 19 -18 -19 -20 20 23 -23 -24 -25 -26
leaf_value=0.054396076993841462 -0.0034787783243974174 -0.00098544121187884291 0.039865610462003771 0.054903074439876014 -0.0047889376209531214 -0.019656338189228524 0.017859031669889655 -0.015387571641121473 0.070349430367872307 0.01547516640410709 -0.013483690925026798 0.040351295592315019 0.029293929626392157 -0.016376168620252311 0.040245026848457204 -0.029981403775534338 0.028361898987757986 -0.0030887456312137145 -0.031206556895523783 -0.010189223801004085 -0.030093915185574992 -0.026122941115422158 -0.030334063778182416 -0.030412909958863428 -0.030103470545143136
leaf_weight=4.8627824336290413 2.9586765095591527 12.237142346799383 2.9873892888426772 7.3826589807867995 6.3286947011947623 4.9355851560831061 6.8386546224355698 3.5861405357718459 3.9349396526813498 4.0270362198352814 5.8718367069959632 5.9584118202328673 5.7986709624528876 3.8026109263300887 3.0267579033970833 7.4768798351287824 2.7569077461957932 2.9447186812758446 3.8175713047385216 20.315682627260685 7.6272799447178823 12.364639870822428 2.8758701235055915 2.519422173500061 3.163660004734993
leaf_count=29 28 99 22 39 39 50 45 37 27 34 49 46 51 38 26 88 27 29 35 225 87 130 31 27 36
internal_value=0.000951982 -0.00494842 -0.0142997 0.029972 0.0197636 0.0109171 0.0330428 0.0145607 0.0173999 0.0425949 0.0106831 0.0165972 0.00874964 -0.0164386 -0.00131077 -0.0195044 0.00242685 0.0188758 -0.0190999 -0.0220576 -0.0195241 -0.0162178 -0.030085 -0.0301731 -0.0300177
internal_weight=150.401 124.988 78.6381 25.4128 18.0301 46.3498 11.7014 41.4142 37.828 7.96198 29.8661 23.9942 18.0358 75.6507 12.7477 62.903 6.55952 5.97148 6.77625 56.3434 42.827 32.6803 13.5164 10.1467 10.6405
internal_count=1374 1222 829 152 113 393 74 343 306 61 245 196 150 807 118 689 65 55 63 624 469 355 155 114 124
is_linear=0
shrinkage=0.0271627


Tree=15
num_leaves=29
num_cat=0
split_feature=21 24 22 26 27 3 24 2 6 14 27 23 10 24 3 27 5 12 12 0 3 24 10 13 5 5 22 8
split_gain=19.6161 12.794 11.35 7.1246 10.2332 6.65375 6.06659 6.12013 6.37346 6.72521 5.42613 5.11838 4.31721 4.12178 4.07134 3.98459 2.00619 1.98483 4.36298 2.16247 1.60164 1.57857 3.84738 0.247333 0.227227 0.000818412 0.000134651 0.000210671
threshold=-7.6135416666499989 32405.500000000004 22.150000000000002 281.25000000000006 236.25000000000003 32.419791666650006 33575.500000000007 -24.691666666649997 -2.7499999999999996 7.9500000000000011 168.75000000000003 3.5750000000000006 608.61666666665008 32303.500000000004 8.1562500000000018 236.25000000000003 76.40000000000002 44.275000000000006 47.030000000000008 9.5020833333500025 18.016666666650003 33341.500000000007 604.73854166665012 216.64583333335003 36.20000000000001 60.350000000000009 27.650000000000002 2.1947916666500005
decision_type=2 2 2 2 2 2 2 2 2 2 2 2 2 2 2 2 2 2 2 2 2 2 2 2 2 2 2 2
left_child=1 -1 3 4 11 6 7 -3 10 -10 20 -2 -12 -4 -13 -11 17 24 19 -19 -9 25 -23 -8 -15 -20 27 -26
right_child=2 5 13 -5 -6 -7 23 8 9 15 12 14 -14 16 -16 -17 -18 18 21 -21 -22 22 -24 -25 26 -27 -28 -29
leaf_value=0.041747537951589503 -0.024568088554023294 0.03848117285941955 0.0045395433022156397 -0.025120651590151907 0.049968417173436003 0.037969273199937655 -0.030567532363090948 -0.02460023911401623 0.043840242907564324 0.019697533141986901 -0.01439966860916967 0.034575243002362088 0.0088806781660370517 -0.022398798935496997 -0.0027133841683382007 -0.01697519214353153 -0.0015586655007201497 -0.01199470891455735 -0.030166884705233717 0.022022789148931902 -0.00051815842118127509 -0.030009559104158597 0.01314480963784608 -0.018858747015044412 -0.030217911727579237 -0.030701516751756752 -0.030252291362698726 -0.029981625696071278
leaf_weight=7.4764011055231085 3.9880496785044732 3.7210650220513335 5.1556774303317061 4.6033320501446715 4.1671351119875899 4.0922831445932379 2.9849496707320204 8.5756209418177587 4.9626606479287139 5.2594245895743352 7.8184512481093433 3.6368433162569982 23.67026599496603 3.4115575551986721 5.3214478567242622 3.7406933382153511 3.5959130227565756 2.9675570428371456 7.7929372563958186 2.5752578750252724 2.6726353615522376 3.9300165623426428 2.4900238960981369 2.4023633599281311 3.7756281346082714 2.8982093036174774 2.7138717100024214 10.600414000451563
leaf_count=50 39 25 42 46 28 24 31 83 37 46 70 29 193 38 38 34 30 33 88 26 26 46 26 27 42 29 30 125
internal_value=-0.00157471 0.00797507 -0.0116113 0.00487702 0.0129461 0.00436284 0.00227302 0.00473565 0.00252101 0.0184536 -0.00268438 0.00102939 0.00310031 -0.0185096 0.0124249 0.00445535 -0.0210515 -0.0226757 -0.0171341 0.00381023 -0.0188782 -0.0239186 -0.0132721 -0.0253462 -0.0287991 -0.0303118 -0.0300768 -0.0300437
internal_weight=151.001 77.3768 73.6239 21.7168 17.1135 69.9004 65.8081 60.4208 56.6998 13.9628 42.737 12.9463 31.4887 51.9071 8.95829 9.00012 46.7514 43.1555 22.654 5.54281 11.2483 17.1112 6.42004 5.38731 20.5015 10.6911 17.0899 14.376
internal_count=1381 646 735 180 134 596 572 514 489 117 372 106 263 555 67 80 513 483 248 59 109 189 72 58 235 117 197 167
is_linear=0
shrinkage=0.0271627


Tree=16
num_leaves=22
num_cat=0
split_feature=28 5 16 24 25 10 28 1 20 5 3 12 12 22 19 12 19 0 12 1 7
split_gain=34.7302 17.2322 13.0605 13.5034 9.08684 10.2257 8.48372 5.81825 5.40132 5.38644 5.03325 4.9558 3.75406 4.29749 7.42488 2.13028 2.09272 5.69177 1.99358 1.73974 2.18668
threshold=1286928000.0000002 79.700000000000017 8.5500000000000025 33217.000000000007 99.984375000000014 607.30520833335015 1563278400.0000002 28.250000000000004 12.750000000000002 58.70000000000001 18.424107142850001 44.400000000000013 53.050000000000004 28.150000000000002 20.321875000000002 31.545000000000005 13.305208333350002 3.8947916667000002 42.920000000000009 18.750000000000004 10.250000000000002
decision_type=2 2 2 2 2 2 2 2 2 2 2 2 2 2 2 2 2 2 2 2 2
left_child=4 2 3 -2 5 11 -5 15 9 -4 -11 -1 13 16 -15 -3 17 -10 -18 -8 -21
right_child=1 7 8 6 -6 -7 19 -9 12 10 -12 -13 -14 14 -16 -17 18 -19 -20 20 -22
leaf_value=0.056179690133372727 0.039811073585293406 0.019499199407351234 0.023065832151623573 0.033775533315076343 0.056086417401995416 -0.0033321570407715542 -0.031041516608237497 -0.0028517575286690733 -0.030256925256630096 -0.030713083946069968 0.015130500327557576 0.017899382021137132 0.0089752616772620503 -0.029991315273105099 0.028746028967880751 0.044101166514970119 -0.026519242381733529 0.020373854442270571 -0.016129828704466175 0.0082447774706797348 -0.020286954069594146
leaf_weight=5.2930932492017799 7.425514571368697 4.5803163647651655 5.5137850567698461 3.2805074825882903 7.2192526683211318 7.8101443722844115 3.6941849365830413 4.7082156762480727 3.3586441650986663 4.4308159947395325 2.9391034170985222 4.7204932570457458 4.0790867805480948 2.808313660323619 3.6535969376564026 5.9965819120407104 29.980063244700432 3.1980222761631012 24.982002228498459 3.3591714799404127 4.8336419984698296
leaf_count=29 51 30 51 26 37 49 35 39 37 44 28 31 41 33 37 43 341 33 277 26 43
internal_value=0.00122387 -0.00472041 -0.00855627 0.00979866 0.0303772 0.019964 -0.00489444 0.0222662 -0.0134383 0.00276055 -0.0124308 0.038134 -0.0163345 -0.0178532 0.00321908 0.0334473 -0.0200666 -0.0055617 -0.0217969 -0.0155664 -0.00858853
internal_weight=147.865 122.822 107.536 22.593 25.043 17.8237 15.1675 15.2851 84.9434 12.8837 7.36992 10.0136 72.0597 67.9806 6.46191 10.5769 61.5187 6.55667 54.9621 11.887 8.19281
internal_count=1361 1215 1103 181 146 109 130 112 922 123 72 60 799 758 70 73 688 70 618 104 69
is_linear=0
shrinkage=0.0271627


Tree=17
num_leaves=33
num_cat=0
split_feature=28 5 23 23 17 28 28 1 9 2 28 28 4 7 27 23 23 28 3 3 21 28 8 23 6 22 1 21 1 28 11 3
split_gain=27.7368 21.0457 12.7776 11.0802 10.3237 10.0468 9.40409 9.15455 5.16234 9.22139 5.06328 16.3306 3.9134 3.86336 3.03167 2.78876 2.70451 3.87676 4.06549 3.87129 3.84334 2.66183 2.44697 2.16791 1.80933 1.23624 0.00381998 0.000665628 0.000511172 0.000216659 0.00011252 7.40735e-05
threshold=1284076800.0000002 74.800000000000011 10.235000000000001 5.7750000000000012 15.346500000000001 1555588800.0000002 1564617600.0000002 33.250000000000007 -0.86354166664999987 -10.558333333349998 1614729600.0000002 1634731200.0000002 219.64000000000001 12.350000000000003 236.25000000000003 3.6750000000000003 6.3550000000000013 1322265600.0000002 12.061458333350002 6.7697916666500006 -10.2739583333 1653048000.0000002 -0.22291666664999998 18.145000000000003 -2.6499999999999999 27.250000000000004 19.750000000000004 -10.754166666649999 49.250000000000007 1361232000.0000002 3.9000000000000004 7.1885416667000008
decision_type=2 2 2 2 2 2 2 2 2 2 2 2 2 2 2 2 2 2 2 2 2 2 2 2 2 2 2 2 2 2 2 2
left_child=2 5 3 7 8 15 -7 -1 22 -10 24 -12 21 -14 -4 25 17 -17 19 -19 -20 -13 -3 27 -8 26 -2 -18 -26 -29 31 -28
right_child=1 4 14 -5 -6 6 10 -9 9 -11 11 12 13 -15 -16 16 23 18 20 -21 -22 -23 -24 -25 28 -27 30 29 -30 -31 -32 -33
leaf_value=0.047778565008924093 -0.030971265124184882 0.0057958303873460026 0.032880163418997493 -0.027324871222525499 0.050776634405051382 0.042970357795077199 -0.0069575334731975386 -0.00066258161480068267 0.044009340334909615 -0.007716858380517673 0.060658979465855106 -0.03078918377280038 -0.0051050465773384264 0.032626230766405945 0.061686117912229305 0.015303516347333098 -0.030421425478950999 -0.0042620202591074543 -0.019852872787934191 -0.02649706066057398 0.022199961391421396 -0.0027320164102118769 -0.02441701235732523 -0.0081736677788238656 -0.030622886067983301 -0.0096557278473042435 -0.029751753545497955 -0.030148832486119378 -0.03009341459345357 -0.029838763264571171 -0.030013861519030741 -0.029936418630795197
leaf_weight=5.7967088669538516 2.9781386703252783 4.2387936934828758 5.0955429822206479 4.3116426318883887 5.4408068731427184 3.5662624686956397 4.4583233147859573 5.7174697816371918 5.6788158044219053 4.6047429516911471 3.178037732839587 5.2925965934991854 6.2519264891743642 2.9454980194568634 5.7234583795070648 4.1121762543916693 2.9272851198911658 9.403405457735067 2.6192331165075302 14.981928683817385 4.1347189322113982 4.7194612771272659 3.7080032527446791 4.8838047981262198 2.6664397791028005 2.6122906357049933 5.0769478455185872 2.4600427299737921 2.7152938321232796 5.1295508071780205 2.7353513464331627 2.3419232070446014
leaf_count=32 30 32 28 29 35 25 40 37 43 41 22 52 58 25 29 39 31 105 29 173 45 41 31 52 27 28 64 28 31 63 32 28
internal_value=0.000192526 -0.00513733 0.0253691 0.00981656 0.0179409 -0.0104831 0.00111668 0.0237247 0.00814113 0.0208475 -0.00351479 0.0036231 -0.00581298 0.00697849 0.0481191 -0.0167364 -0.0136328 -0.00948422 -0.0127576 -0.0179228 0.00589156 -0.0175637 -0.00830159 -0.0231287 -0.0197545 -0.0267212 -0.0301158 -0.0300735 -0.0303557 -0.0299393 -0.029865 -0.02981
internal_weight=152.507 125.862 26.6448 15.8258 23.6712 102.191 35.7938 11.5142 18.2304 10.2836 32.2276 22.3875 19.2095 9.19742 10.819 66.3968 50.6521 35.2515 31.1393 24.3853 6.75395 10.0121 7.9468 15.4007 9.84006 15.7447 13.1324 10.5169 5.38173 7.58959 10.1542 7.41887
internal_count=1405 1250 155 98 182 1068 321 69 147 84 296 198 176 83 57 747 565 391 352 278 74 93 63 174 98 182 154 122 58 91 124 92
is_linear=0
shrinkage=0.0271627


Tree=18
num_leaves=30
num_cat=0
split_feature=28 28 5 3 5 22 10 28 6 20 23 22 3 21 8 8 3 5 7 7 16 10 22 13 9 3 19 8 21
split_gain=27.3978 17.6449 14.3702 8.97829 13.7916 11.2291 11.1581 7.54838 7.06482 6.43536 5.94063 4.03262 3.67206 2.96616 4.94988 3.65968 2.61202 3.98068 2.61835 4.93121 2.33786 2.10189 1.54784 1.01213 1.07579 0.919609 0.872672 0.311489 0.000842016
threshold=1279022400.0000002 1552910400.0000002 89.300000000000011 6.6041666666500012 73.200000000000017 24.150000000000002 705.5052083333502 1237852800.0000002 -6.8499999999999988 12.750000000000002 5.2750000000000012 28.750000000000004 8.0947916667000026 -8.7187499999999982 1.6208333333000002 2.8802083333500006 8.8822916666500014 65.200000000000017 13.15 10.450000000000001 6.3500000000000005 607.51875000000007 23.550000000000004 400.91666666670005 -1.0052083333499999 7.4083333333500008 19.043750000000006 -0.033333333299999997 -4.4145833333499995
decision_type=2 2 2 2 2 2 2 2 2 2 2 2 2 2 2 2 2 2 2 2 2 2 2 2 2 2 2 2 2
left_child=7 2 9 6 16 20 22 -1 -9 10 -2 13 -10 14 27 -16 25 18 19 -18 -6 -12 -3 24 -15 -5 -14 -11 -27
right_child=1 3 -4 4 5 -7 -8 8 12 11 21 -13 26 23 15 -17 17 -19 -20 -21 -22 -23 -24 -25 -26 28 -28 -29 -30
leaf_value=0.00057702038970016355 0.029556512063720335 0.035873910128655442 0.043333034129003738 -0.011017423342238519 0.019370876330041996 0.057153287742217687 -0.0094704690161374564 0.059609481956490275 0.042666498832278674 -0.030593377058118012 0.0034709214679884302 0.0055972647612434817 0.021588290729926032 -0.014268635318074804 0.030287222146873731 -0.0089499771751795042 0.015384266717234927 -0.03089714015581338 0.018065719937254008 -0.030466365267445818 -0.010994153487532349 -0.024504367956205031 0.060876996548725797 -0.012444839740042599 -0.027613706139505506 -0.030734663823651021 0.0053512008098932015 -0.018573004951296688 -0.030043359128848104
leaf_weight=7.1078523173928287 4.0191591754555684 3.563835568726061 3.176423303782939 2.7509363442659405 3.6419164910912496 4.7529954165220261 3.6480298191308975 5.4307109415531203 4.8454206287860844 4.8866582810878754 3.8369788527488708 4.5439693033695212 5.0591251254081708 5.1169272288679997 2.6707972213625908 5.1084361374378204 3.4079073667526227 3.3004889190196982 4.8878987580537796 3.5163617134094238 3.8466928899288177 4.0978044793009758 3.7478634789586067 4.6093667298555365 34.551138222217567 2.8225337341427803 4.7212920188903809 2.3581071794033033 2.4098132774233818
leaf_count=47 36 27 22 28 27 30 30 25 27 51 32 51 26 58 27 57 26 32 41 37 31 39 27 53 414 28 28 27 28
internal_value=-9.9949e-05 -0.0054623 -0.0132675 0.00785214 0.00119062 0.0244989 0.0293309 0.0246294 0.0331533 -0.0156394 0.00265152 -0.019064 0.0233299 -0.0209537 -0.0105249 0.00452109 -0.0111635 -0.00452434 0.00284459 -0.00790013 0.00377319 -0.0109765 0.0486901 -0.0244924 -0.0258923 -0.0237317 0.0137502 -0.0266809 -0.0304163
internal_weight=152.437 125.273 78.9758 46.2973 35.3375 12.2416 10.9597 27.1644 20.0565 75.7993 11.9539 63.8454 14.6258 59.3014 15.024 7.77923 23.0959 15.1127 11.8122 6.92427 7.48861 7.93478 7.3117 44.2774 39.6681 7.98328 9.78042 7.24477 5.23235
internal_count=1412 1259 867 392 308 88 84 153 106 845 107 738 81 687 162 84 220 136 104 63 58 71 54 525 472 84 54 78 56
is_linear=0
shrinkage=0.0271627


Tree=19
num_leaves=36
num_cat=0
split_feature=28 21 3 9 10 24 27 13 13 3 28 10 3 28 7 23 24 7 7 20 13 3 24 27 14 21 28 9 22 10 6 16 3 6 28
split_gain=24.7033 17.4719 8.34739 8.00492 6.98396 6.88358 11.9172 11.0566 8.5185 7.35187 6.29116 12.1164 6.1251 5.64537 4.71607 4.04513 5.82581 3.81542 3.79638 3.51855 3.0519 4.58895 3.04458 3.41418 2.08106 1.92006 1.47025 1.41865 1.25956 0.599004 0.856128 0.404335 0.00381339 0.00106045 0.000941553
threshold=1284076800.0000002 -9.6499999999999986 7.466666666650001 -1.8854166666499999 607.30520833335015 33234.500000000007 101.25000000000001 244.93750000000003 204.93750000000003 30.511458333300002 1603713600.0000002 701.74687500000016 8.7135416666500021 1570276800.0000002 14.350000000000003 5.7650000000000006 33539.500000000007 16.050000000000004 12.055218406150003 11.250000000000002 205.98958333330003 18.506250000000005 33289.500000000007 281.25000000000006 9.3500000000000032 -12.990624999999998 1555588800.0000002 -0.063541666699999985 24.650000000000002 600.88541666665003 2.6500000000000008 10.750000000000002 19.582136524850004 -7.6499999999999995 1320580800.0000002
decision_type=2 2 2 2 2 2 2 2 2 2 2 2 2 2 2 2 2 2 2 2 2 2 2 2 2 2 2 2 2 2 2 2 2 2 2
left_child=2 5 -1 -4 14 6 -2 8 -8 13 12 -12 26 19 -5 16 22 28 -9 -7 -15 25 23 -14 -13 -22 29 33 32 30 -3 34 -17 -21 -31
right_child=1 10 3 4 -6 9 7 18 -10 -11 11 24 15 20 -16 17 -18 -19 -20 27 21 -23 -24 -25 -26 -27 -28 -29 -30 31 -32 -33 -34 -35 -36
leaf_value=0.053998036125978498 0.065933722537551184 -0.0061676307386226903 0.043227800834896697 0.033755264908506062 -0.018734659376215438 0.0082436833391902817 0.002753818335254577 -0.031534164287008989 0.057804191346604791 0.035937073473243528 0.040757474885185635 -0.030975620810399816 -0.01562555553491245 0.026028534131791372 -0.0026848219140626589 -0.02992980167235124 0.027919952899433356 0.013407967089742512 0.0074164471327396401 -0.030899091737694919 -0.024308841607553422 0.026570001924656302 -0.030131172343590709 0.0232570994058467 0.0009167582274570939 0.0041332700719754721 -0.0080373691726265441 -0.010477214164890471 -0.012202521193843716 -0.030383571113897223 -0.029886999619631115 -0.017656593108508773 -0.031230234377200686 -0.030213371492058171 -0.029846886947679195
leaf_weight=5.6209443956613567 3.5367723330855396 2.2814409807324472 6.2022604495287004 6.611673101782797 5.2733033373951903 3.4071588218212154 3.874043866991995 3.9574223682284346 4.4631654694676399 3.8321606516838065 4.442406237125395 3.6897254288196564 3.7574570998549479 4.6293972581624976 4.3407442420721054 5.2646563053131086 4.638858087360858 2.4600140005350104 3.4607489183545113 2.588718965649603 4.2163087427616111 3.2042918801307678 3.3270812854170799 2.9936444386839867 2.5548411384224892 2.9952518120408049 3.4443342089653006 4.1077974215149879 4.4622825980186462 2.8024117574095788 2.2106122747063637 2.200067736208438 2.4323954656720161 4.6579152718186378 17.306231193244457
leaf_count=30 24 27 29 37 34 29 31 35 31 23 35 36 44 35 28 64 49 25 31 26 42 24 38 29 25 24 33 45 49 30 27 26 22 52 214
internal_value=0.00139232 -0.00384558 0.0243988 0.0169806 0.00694768 0.00794031 0.020875 0.0107602 0.032224 0.000522209 -0.0127235 0.00646693 -0.0161657 -0.00403096 0.0193131 -0.00732274 0.0027301 -0.0174428 -0.0133628 -0.0159652 0.00767824 -0.000477671 -0.00886447 0.0016162 -0.0179275 -0.0124957 -0.024743 -0.0232296 -0.0236843 -0.0268899 -0.0178403 -0.0287121 -0.0303408 -0.0304583 -0.0299217
internal_weight=151.249 123.2 28.0489 22.428 16.2257 52.9312 19.2922 15.7554 8.33721 33.639 70.2685 10.687 59.5815 29.8068 10.9524 29.3364 14.717 14.6193 7.41817 14.7616 15.0452 10.4159 10.0782 6.7511 6.24457 7.21156 30.2451 11.3544 12.1593 26.8008 4.49205 22.3087 7.69705 7.24663 20.1086
internal_count=1383 1225 158 128 99 452 152 128 62 300 773 96 677 277 65 320 160 160 66 152 125 90 111 73 61 66 357 123 135 324 54 270 86 78 244
is_linear=0
shrinkage=0.0271627


Tree=20
num_leaves=30
num_cat=0
split_feature=9 21 24 17 25 24 13 5 0 3 3 24 13 25 10 26 2 19 23 23 24 26 7 19 10 25 9 10 24
split_gain=17.3928 9.53495 8.07429 8.03179 7.60407 6.78172 4.53592 4.85644 8.00993 4.36816 8.41736 5.79823 5.53494 4.40785 3.33954 3.02216 6.04079 2.97189 2.21605 3.44487 2.27568 1.6206 1.16009 0.898464 0.282308 0.00637572 0.00438367 0.00147562 9.39726e-05
threshold=-4.2447916666499994 -5.5656249999999989 32202.500000000004 17.188500000000001 98.869791666650016 31884.000000000004 252.02083333335003 71.600000000000009 6.0968750000000007 19.508333333350006 15.511458333350001 33264.500000000007 214.00000000000003 99.986458333350015 700.67500000000007 236.25000000000003 -18.291666666649999 15.521875000000001 3.9750000000000005 4.2750000000000012 33104.500000000007 168.75000000000003 14.750000000000002 16.188541666650003 610.14791666665008 99.847916666650022 2.4730650981500006 609.15520833335006 33485.000000000007
decision_type=2 2 2 2 2 2 2 2 2 2 2 2 2 2 2 2 2 2 2 2 2 2 2 2 2 2 2 2 2
left_child=3 2 -2 -1 5 -3 9 15 -9 10 12 -12 13 -4 18 16 -8 -14 25 -20 21 -21 -18 -22 26 -6 -17 28 -27
right_child=1 4 6 -5 14 -7 7 8 -10 -11 11 -13 17 -15 -16 24 22 -19 19 20 23 -23 -24 -25 -26 27 -28 -29 -30
leaf_value=0.048225468110630935 0.027541787022278424 -0.015430429986373817 -0.031996983943334736 0.0033030566969569253 -0.031458944482234116 0.029545667422184067 0.022122101011016179 -0.02414090743167956 0.028018278164174081 -0.018402653426399886 0.058504936207619103 0.008718902215929256 0.025882246698594479 -0.00099605371939659156 0.0028546432073254082 -0.029787793332188606 -0.030389485971454896 0.0007887323481821012 0.0087725329333358699 -0.019670894051700735 -0.011651112903652758 0.010854583508814001 -0.0064510714550619222 -0.028206833449986139 -0.019823036610099782 -0.029826895555570884 -0.031093129938885068 -0.03045474523665985 -0.029638721808771234
leaf_weight=7.0013141259551031 7.7508310899138442 4.7773281782865507 4.4933580756187448 5.0578983724117279 2.4713291302323315 5.1293772011995316 3.4764153957366943 3.6789770275354368 5.3040337711572647 5.6933258250355712 3.5452573150396338 3.3632802218198776 7.4022063091397268 13.705476365983486 4.7945671156048766 3.5784584358334524 4.3213141784071976 6.5755036622285843 3.4430239126086262 2.6053507849574116 2.9318750649690655 2.5285963341593742 2.2826058343052864 13.812482498586176 2.4151212647557259 4.0237132161855698 4.0425195544958115 2.8751924782991409 3.8141557276248932
leaf_count=41 48 41 41 37 25 35 30 33 39 49 26 31 58 123 47 45 48 56 36 31 34 23 26 162 23 50 42 33 50
internal_value=-0.0018693 -0.00466448 0.00116718 0.029384 -0.0136112 0.00785676 -0.00159989 -0.00994899 0.00665657 0.00382581 0.00706372 0.0342676 0.00122284 -0.0086503 -0.0185229 -0.0173642 -0.00685911 0.0140776 -0.0211848 -0.0164827 -0.0204572 -0.00463634 -0.0221153 -0.025308 -0.0279156 -0.0302153 -0.0304802 -0.0299284 -0.0297353
internal_weight=146.895 134.836 81.6287 12.0592 53.207 9.90671 73.8779 29.0994 8.98301 44.7784 39.0851 6.90854 32.1765 18.1988 43.3003 20.1164 10.0803 13.9777 38.5057 25.3213 21.8783 5.13395 6.60392 16.7444 10.0361 13.1844 7.62098 10.7131 7.83787
internal_count=1363 1285 718 78 567 76 670 286 72 384 335 57 278 164 491 214 104 114 444 286 250 54 74 196 110 158 87 133 100
is_linear=0
shrinkage=0.0271627


Tree=21
num_leaves=22
num_cat=0
split_feature=28 5 16 28 0 4 6 23 1 27 3 28 19 8 12 9 8 5 10 9 12
split_gain=21.5137 20.152 16.6756 10.7206 9.75522 9.04512 8.33079 5.35834 5.12464 6.20697 4.02569 4.96091 3.21925 9.35222 3.59039 5.91924 3.06077 1.95036 1.71951 1.02585 0.731641
threshold=1279022400.0000002 79.700000000000017 8.5500000000000025 1237852800.0000002 2.9822916666500006 114.60000000000001 -3.4499999999999997 29.195000000000004 21.250000000000004 281.25000000000006 16.219791666700004 1261353600.0000002 13.353125 1.6208333333000002 49.865000000000009 6.1104166667000008 1.5447916666500003 74.800000000000011 609.76041666665014 7.9947916666500012 37.865000000000009
decision_type=2 2 2 2 2 2 2 2 2 2 2 2 2 2 2 2 2 2 2 2 2
left_child=3 2 5 -1 -3 -2 -6 12 9 -7 11 -5 13 -4 17 -16 -10 18 -14 -17 -18
right_child=1 4 7 10 6 8 -8 -9 16 -11 -12 -13 14 -15 15 19 20 -19 -20 -21 -22
leaf_value=-0.011028662373717279 0.048345923516453206 0.051757845808654543 -0.030250075725651363 0.05378574436536103 -0.014399323640581763 -0.002618033708175746 0.034826209900681339 0.021614193665920968 0.0069846324343284406 0.04225862837715718 0.013308321926943303 0.019583364444302878 -0.026616354470866393 0.030733069369524489 0.029717706466618046 -0.03025148945543138 -0.031330322844916825 0.00087098337910368159 -0.016882827022813154 -0.0059315238557707027 -0.012911040355605276
leaf_weight=6.0363602787256267 3.631891734898093 5.314010262489318 3.9170650467276564 7.3917235881090182 5.9728235155344001 5.360965736210348 4.4090676978230467 2.5563005730509749 4.139390751719473 3.9490140452980995 6.6859575808048239 5.425539568066597 39.650613710284233 3.5251996517181396 2.7012244239449492 2.980436310172081 3.5060093328356743 2.5622597262263289 20.219373695552349 2.242526039481163 2.9131387621164322
leaf_count=41 24 32 44 38 45 41 32 23 31 29 32 31 474 35 29 35 32 25 226 26 26
internal_value=-0.00202542 -0.00685978 -0.0111952 0.0206043 0.0218266 0.00893125 0.00650618 -0.0170814 0.00172639 0.0164173 0.0303949 0.0393079 -0.0183528 -0.00136401 -0.0201499 -0.00292649 -0.0112273 -0.0223359 -0.0233291 -0.0198095 -0.0229713
internal_weight=145.091 119.551 103.855 25.5396 15.6959 23.5004 10.3819 80.355 19.8685 9.30998 19.5032 12.8173 77.7987 7.44226 70.3564 7.92419 10.5585 62.4322 59.87 5.22296 6.41915
internal_count=1351 1209 1100 142 109 183 77 917 159 70 101 69 894 79 815 90 89 725 700 61 58
is_linear=0
shrinkage=0.0271627


Tree=22
num_leaves=35
num_cat=0
split_feature=22 5 26 24 10 23 3 20 10 26 22 25 9 17 24 3 3 3 26 21 2 3 3 19 8 2 22 19 5 0 24 10 2 12
split_gain=20.8539 14.9566 8.70002 8.42482 7.12951 8.81908 6.62559 8.19349 14.3389 6.58534 6.16048 5.42055 5.25731 5.13086 4.27785 4.06159 3.05982 6.80406 3.44695 2.2891 1.83484 1.75374 4.47755 2.87081 1.11871 0.98622 0.922462 0.335603 0.254464 0.0183082 0.000666115 0.000592922 0.000129021 4.58883e-05
threshold=19.550000000000004 78.050000000000026 281.25000000000006 33234.500000000007 604.9156250000002 3.6050000000000004 7.466666666650001 14.750000000000002 612.02823464915014 191.25000000000003 23.150000000000002 99.988541666650022 8.3656250000000032 16.225000000000005 33335.500000000007 15.653125000000001 6.7614583333500011 6.2677083333500008 56.250000000000007 -9.4489583332999967 -16.526041666699996 8.8822916666500014 10.600000000000003 17.418750000000006 8.7031250000000018 -12.660416666649999 25.050000000000004 21.107291666700004 29.800000000000004 10.140625000000002 32815.000000000007 609.67500000000007 -7.7760416666499994 48.895000000000003
decision_type=2 2 2 2 2 2 2 2 2 2 2 2 2 2 2 2 2 2 2 2 2 2 2 2 2 2 2 2 2 2 2 2 2 2
left_child=2 3 9 4 12 26 -7 8 -8 19 -3 -11 20 -4 -12 -9 17 18 -5 -1 -2 31 23 -23 28 27 -6 -24 -20 30 -22 32 -18 -34
right_child=1 10 13 16 5 6 7 15 -10 11 14 -13 -14 -15 -16 -17 21 -19 24 -21 29 22 25 -25 -26 -27 -28 -29 -30 -31 -32 -33 33 -35
leaf_value=0.023946258381992987 -0.0072412707796187074 -0.0028013581314838736 -0.017475885407678575 0.011828766540684637 -0.031437634952407395 0.04207020863162144 0.058502572516098826 -0.02571030743103923 -0.0068182527717921748 0.021633643693431081 0.018507878596290328 0.056088220225496158 0.011269577151967209 0.02537430410595589 0.058360150961604615 0.0143022379821097 -0.029882028666589414 0.019346540736899353 -0.019789030729756907 -0.0046884791350119796 -0.030237213441779411 0.016963873256419803 -0.030254909148883246 -0.015999111376710201 -0.0059146197415176054 -0.013543819629433079 -0.0096928329163891141 -0.019065706473404127 -0.02997749709304897 -0.032601597881973289 -0.029597229767333921 -0.030150679230812223 -0.029533886431823284 -0.029708499818216327
leaf_weight=4.3382119089365005 3.4020386785268775 4.2941831648349744 5.7890098989009839 2.5477525368332889 3.2292572036385563 5.3760334476828602 4.7527861297130602 5.4992975071072561 5.1837353855371475 5.9760278686881048 4.1566053628921509 7.7224002778530121 4.2816995233297339 3.2021412998437881 3.8078645840287209 2.8375417143106461 2.1997432708740234 5.3039239943027487 2.4650440067052823 3.9219400361180359 2.7981696873903257 3.934639289975169 10.213989593088625 3.8635124936699867 2.251158855855464 4.7219764664769182 2.5969687551259995 2.4526682570576677 6.7921916991472244 3.2115123271942139 2.100815936923027 3.4429664984345436 2.0623570084571821 2.4057590067386627
leaf_count=34 34 29 53 26 33 43 38 61 41 34 28 43 33 22 26 23 27 49 26 35 32 38 116 46 27 50 29 28 83 27 28 39 28 31
internal_value=0.000551582 -0.00489408 0.0202909 -0.00836782 0.000298425 0.00818912 0.0155637 0.00776544 0.0244257 0.0295062 0.0234225 0.0410572 -0.0144274 -0.00221506 0.0375615 -0.0120916 -0.0155456 -0.0068677 -0.0167593 0.0103504 -0.0239845 -0.0203052 -0.0164691 0.000632708 -0.0230882 -0.0241387 -0.0217452 -0.0280883 -0.0272645 -0.0310077 -0.0299628 -0.0298612 -0.0297117 -0.0296279
internal_weight=143.136 112.186 30.9497 99.9275 45.2699 29.4756 23.6494 18.2734 9.93652 21.9586 12.2587 13.6984 15.7942 8.99115 7.96447 8.33684 54.6577 19.3601 14.0561 8.26015 11.5125 35.2976 25.1868 7.79815 11.5084 17.3886 5.82623 12.6667 9.25724 8.1105 4.89899 10.1108 6.66786 4.46812
internal_count=1340 1119 221 1036 422 268 206 163 79 146 83 77 154 75 54 84 614 211 162 69 121 403 278 84 136 194 62 144 109 87 60 125 86 59
is_linear=0
shrinkage=0.0271627


Tree=23
num_leaves=28
num_cat=0
split_feature=28 5 16 28 25 23 13 23 19 22 28 25 0 1 7 0 22 19 14 16 7 19 9 28 28 2 23
split_gain=25.5867 14.5296 9.99887 6.11954 5.85689 5.50574 5.22496 6.98149 4.69753 5.25058 4.16492 3.96908 4.11169 3.5509 3.79022 2.63732 2.58205 2.65181 2.21276 6.10559 2.00995 1.28531 3.75031 1.08745 0.225873 0.000928589 0.000919527
threshold=1279022400.0000002 79.700000000000017 8.5500000000000025 1248912000.0000002 98.697916666650016 4.2250000000000005 376.06250000000006 4.6150000000000011 13.305208333350002 21.550000000000004 1561420800.0000002 99.990625000000009 3.4343750000000006 27.250000000000004 8.7500000000000018 4.8072916667000003 24.250000000000004 21.063541666650003 10.050000000000002 12.15 12.350000000000003 22.000000000000004 1.9229166666500002 1373544000.0000002 1634731200.0000002 -2.0864583332999995 6.1000000000000005
decision_type=2 2 2 2 2 2 2 2 2 2 2 2 2 2 2 2 2 2 2 2 2 2 2 2 2 2 2
left_child=3 2 10 5 -5 -1 8 -8 9 -4 -2 -12 -13 14 -3 -7 -9 26 21 -20 24 23 -23 -10 -14 -21 -18
right_child=1 13 6 4 -6 15 7 16 18 -11 11 12 20 -15 -16 -17 17 -19 19 25 -22 22 -24 -25 -26 -27 -28
leaf_value=0.035813077228678755 0.028502819713353687 0.039665015030734142 -0.016767901104274629 0.052496108521969544 0.018361605074664656 0.013094632188487502 0.036190212337097842 0.010167860851173393 -0.03006397729116117 0.030045635577243202 0.023239828080164362 0.012683946020633682 -0.030787202227654582 -0.004425352960229517 0.0093578590908786324 -0.01651291675511345 -0.029735277604691513 0.0053352157783757787 0.013521717292662336 -0.030529658429099646 -0.0003109391103380798 0.010275330017124829 -0.025474455642899598 -0.020808329405681277 -0.020311727606132351 -0.029755972391639757 -0.030482877247663989
leaf_weight=4.0065871626138714 4.787590958178046 6.445473328232767 4.0853166133165351 7.2099660933017713 7.6372223794460297 4.206969775259493 3.2131830230355254 3.3383614569902402 14.465362057089804 3.1159725114703178 4.2841776460409173 5.3437491059303293 3.5200900956988317 3.8982664644718161 5.7699466198682785 4.6992072835564613 2.5887404531240463 2.2930224537849426 4.8674241602420789 2.3828611969947815 3.4151605218648911 3.3257454931735975 6.2034031450748444 26.566410191357136 2.6710121184587479 2.2024739012122154 2.2855783253908157
leaf_count=21 33 36 48 37 39 22 31 36 174 31 29 37 35 31 41 32 33 26 47 26 28 36 78 323 28 28 25
internal_value=-0.000476077 -0.00586904 -0.00955607 0.0230442 0.0349377 0.00936897 -0.0141236 0.00115284 -0.0172416 0.00348815 0.00583282 0.00019002 -0.00641529 0.0181462 0.0253494 -0.00252734 -0.00956339 -0.0187537 -0.019729 -0.00766641 -0.0170398 -0.0219843 -0.0129975 -0.0240713 -0.0262678 -0.030158 -0.0300858
internal_weight=148.829 121.069 104.956 27.76 14.8472 12.9128 80.9339 13.7189 67.215 7.20129 24.0218 19.2342 14.95 16.1137 12.2154 8.90618 10.5057 7.16734 60.0137 9.45276 9.60626 50.5609 9.52915 41.0318 6.1911 4.58534 4.87432
internal_count=1391 1240 1132 151 76 75 942 151 791 79 190 157 128 108 77 54 120 84 712 101 91 611 114 497 63 54 58
is_linear=0
shrinkage=0.0271627


Tree=24
num_leaves=25
num_cat=0
split_feature=5 28 16 27 10 4 9 4 4 1 5 17 13 2 23 0 24 14 21 7 23 7 24 2
split_gain=23.5849 14.0515 13.6791 8.27239 6.94473 6.76814 9.28967 6.30288 5.80528 9.09274 3.34259 2.67902 4.08421 6.36966 5.90367 2.8556 2.2824 2.03212 1.96057 1.79777 0.854833 0.00157901 0.000388788 0.000161845
threshold=74.800000000000011 1279022400.0000002 8.3500000000000032 281.25000000000006 613.88437500000009 459.84000000000009 -2.0489583332999994 364.87500000000006 193.88500000000002 20.750000000000004 84.500000000000014 8.136000000000001 376.06250000000006 -0.54479166665000001 19.500000000000004 9.3716312057000017 33218.500000000007 9.1500000000000004 -9.9156249999999968 10.250000000000002 6.4450000000000012 16.750000000000004 33293.500000000007 -3.0270833332999998
decision_type=2 2 2 2 2 2 2 2 2 2 2 2 2 2 2 2 2 2 2 2 2 2 2 2
left_child=1 8 3 16 -5 7 10 -2 -1 -10 -7 21 14 20 15 18 -3 -17 -13 -18 -14 22 23 -4
right_child=5 2 11 4 -6 6 -8 -9 9 -11 -12 12 13 -15 -16 17 19 -19 -20 -21 -22 -23 -24 -25
leaf_value=0.03933268057573136 0.016826020261619883 0.0086412672507063647 -0.029804281265201567 0.048453005371127969 0.0034724877002131893 0.0099362215314920902 -0.018443795904934401 0.056879124474855512 0.024153887564451158 -0.020383751270545411 0.042793760873241056 -0.013667753719369114 -0.0069501151752709486 0.029863412107332697 0.02246895217188952 -0.014376426867614495 -0.0042117224451691648 0.018880926385608929 -0.025661393270043759 -0.03064763278391773 -0.030334437379270739 -0.030604306317577445 -0.02958716560740687 -0.030130892379622704
leaf_weight=4.9344429224729565 5.8851432427763957 3.8145454600453395 2.3078426867723456 4.901722274720667 5.2395718991756439 4.7344813272356969 5.6766803786158553 5.7124336957931519 7.8661213517189008 5.9330356419086456 4.414044514298439 14.569319710135451 2.3632287979125977 3.5937427878379804 2.5637984722852698 3.5420795977115622 3.8899345621466637 2.1959589496254921 32.461567021906383 3.7063945904374123 2.2529621571302414 2.2514320537447921 3.7244479060173035 2.1737224683165541
leaf_count=26 41 25 29 32 39 30 45 41 41 39 25 160 29 39 27 46 31 24 414 38 25 24 50 25
internal_value=-0.00211651 -0.00746365 -0.0116809 0.00736281 0.0252135 0.0210114 0.00885228 0.0365543 0.0140467 0.00500465 0.0257896 -0.0172273 -0.0151306 0.0027472 -0.0177832 -0.0197389 -0.00850181 -0.00164877 -0.021946 -0.0171103 -0.018363 -0.0299671 -0.0297923 -0.0299627
internal_weight=140.709 114.286 95.5523 21.5522 10.1413 26.4228 14.8252 11.5976 18.7336 13.7992 9.14853 74.0001 63.5427 8.20993 55.3327 52.7689 11.4109 5.73804 47.0309 7.59633 4.61619 10.4574 8.20601 4.48157
internal_count=1345 1163 1057 165 71 182 100 82 106 80 55 892 764 93 671 644 94 70 574 69 54 128 104 54
is_linear=0
shrinkage=0.0271627


Tree=25
num_leaves=31
num_cat=0
split_feature=28 28 24 24 5 0 10 23 13 24 22 13 2 3 3 9 8 17 0 12 7 0 22 27 2 10 13 7 24 28
split_gain=28.7594 11.2452 10.0433 7.33219 6.83798 5.24733 5.05225 4.88845 4.58381 4.42331 6.11317 7.04149 4.31308 3.44884 6.4653 6.46413 4.60782 2.20456 14.5817 1.59015 1.43075 2.05189 1.07718 1.45659 0.395855 0.444369 0.315587 0.273594 0.00328063 0.000760088
threshold=1279022400.0000002 1511395200.0000002 31884.000000000004 32361.000000000004 66.800000000000011 3.4343750000000006 605.77395833335015 5.285000000000001 208.85416666670002 33573.500000000007 24.250000000000004 281.32291666665009 -16.989583333349998 6.6656250000000012 13.278125000000001 -0.070833333349999986 7.736768617000001 13.893000000000002 3.8239583333500007 51.500000000000007 12.350000000000003 9.4156250000000004 22.250000000000004 202.86442454270002 2.1901785714000002 610.32500000000016 211.68750000000003 12.15 33241.500000000007 1369310400.0000002
decision_type=2 2 2 2 2 2 2 2 2 2 2 2 2 2 2 2 2 2 2 2 2 2 2 2 2 2 2 2 2 2
left_child=2 4 -1 -3 17 8 -4 -8 -5 10 11 12 -6 16 20 -16 -7 19 26 22 28 -22 23 -2 25 -24 29 -13 -15 -19
right_child=1 3 6 5 9 13 7 -9 -10 -11 -12 27 -14 14 15 -17 -18 18 -20 -21 21 -23 24 -25 -26 -27 -28 -29 -30 -31
leaf_value=-0.00921996493721991 -0.029523259095032096 0.038702709237580082 0.012315621798656206 -0.0014426011075279969 0.032363709928006558 0.021931512668636889 0.026884889235708948 0.056555545525335177 0.029741180744949712 -0.024463535848446481 0.033980355277342562 -0.030926045181547863 -0.011325069347580466 -0.031249569239704889 -0.019535371733179412 0.022974796879894763 -0.02017034343196265 -0.030251560411355516 0.051145853926264501 -0.0052929924974291064 -0.0044710198661285097 -0.030275486875252292 -0.029662123115507227 -0.00025767242382271235 -0.015600918272377456 -0.016189314143459796 -0.017729914022646887 -0.018968727463095397 -0.029993842712489401 -0.029608960763619237
leaf_weight=5.2574905455112484 2.3205139711499241 4.0052068531513205 6.6174808740615871 6.7155227437615377 4.1110117733478546 6.4894405454397184 8.9915477335453051 7.5262567996978751 7.2137990370392799 4.6308852583169928 4.1841420680284491 3.3787504807114601 2.8046381175518089 2.4710804149508538 4.3447574898600578 6.7230047807097417 2.7226196974515915 2.3459640294313413 2.3210878297686577 3.3214692771434775 6.1349149197339994 3.612270176410675 20.578012377023704 2.732149749994278 1.9100234583020199 1.9800182655453671 2.2003917768597603 2.4252410680055618 4.0521966144442558 3.2251198217272758
leaf_count=33 32 24 36 44 32 53 45 35 49 53 41 36 30 23 36 50 32 27 24 42 63 41 272 33 25 25 26 28 48 43
internal_value=0.000105918 -0.00575689 0.0246687 0.00332768 -0.0134345 0.000520916 0.0323699 0.0404042 0.014707 -0.000943569 0.00549986 -0.00386884 0.0146457 -0.00488542 -0.00972889 0.00628702 0.00948833 -0.0196995 -0.00859645 -0.0231116 -0.0206235 -0.0140341 -0.0251164 -0.0136983 -0.0274742 -0.0284796 -0.0264395 -0.0259296 -0.0304695 -0.0298796
internal_weight=147.347 118.954 28.3928 54.4848 64.4694 50.4796 23.1353 16.5178 13.9293 21.5347 16.9038 12.7196 6.91565 36.5503 27.3382 11.0678 9.21206 42.9348 10.0926 32.8422 16.2705 9.74719 29.5207 5.05266 24.4681 22.558 7.77148 5.80399 6.52328 5.57108
internal_count=1381 1232 149 463 769 439 116 80 93 220 167 126 62 346 261 86 85 549 120 429 175 104 387 65 322 297 96 64 71 70
is_linear=0
shrinkage=0.0271627


Tree=26
num_leaves=33
num_cat=0
split_feature=28 28 5 2 17 5 0 23 3 8 10 5 26 28 23 2 28 5 23 8 13 28 0 20 5 23 14 4 8 23 13 3
split_gain=18.3086 12.2242 7.38436 6.81234 9.82095 7.93593 7.28929 5.37608 7.05992 5.44915 5.19374 4.30307 5.54504 4.66501 6.84572 3.12818 2.89158 3.02244 4.30569 4.47887 8.56153 2.80688 2.45304 2.59337 2.3051 2.17545 1.62191 1.29865 0.355153 0.469953 0.00257673 0.000868791
threshold=1284076800.0000002 1511395200.0000002 81.300000000000011 -18.291666666649999 13.389000000000001 74.800000000000011 3.5732336956500004 8.4500000000000011 7.466666666650001 2.2635416666500006 705.5052083333502 47.500000000000007 214.59503034900004 1630411200.0000002 4.9250000000000007 -20.343749999999996 1320580800.0000002 52.300000000000004 5.495000000000001 2.7583333333000009 220.87500000000003 1252411200.0000002 3.8947916667000002 17.750000000000004 57.100000000000001 29.195000000000004 7.9500000000000011 269.52000000000004 8.8166666666500024 5.5550000000000006 235.90625000000003 9.7895833333500004
decision_type=2 2 2 2 2 2 2 2 2 2 2 2 2 2 2 2 2 2 2 2 2 2 2 2 2 2 2 2 2 2 2 2
left_child=7 2 16 4 -3 10 15 8 -1 -9 11 12 -5 26 -15 -6 22 28 19 20 -19 -10 -2 -24 -21 27 -13 -20 29 31 -12 -18
right_child=1 3 -4 5 6 -7 -8 9 21 -11 30 13 -14 14 -16 -17 17 18 25 24 -22 -23 23 -25 -26 -27 -28 -29 -30 -31 -32 -33
leaf_value=0.034514989892546484 -0.02109551218603626 0.056056142217411127 0.015589787322903059 -0.012520948172170372 0.0067197454379170811 0.024769346529228464 -0.024214137185245739 0.016671674238613422 -0.018381665692435371 0.054160305323877223 -0.031815047126789758 -0.0063855414248007647 0.036746198619801961 -0.021812070897208029 0.03585505074843038 0.03659540586555065 -0.029476678493949318 -0.012763924951800202 -0.0057908942891647429 0.0046341540571858417 0.054104161316129912 0.010009859397796046 0.028497657441829444 -0.0094141182266945303 -0.029566306014589611 0.0029508751712761369 -0.030197333591854454 -0.027989478114901829 -0.01579794670222779 -0.015227376884838868 -0.030677764801931313 -0.030075568942594218
leaf_weight=5.4583702385425594 2.8923302516341192 3.9532842785120037 6.0825708433985701 2.9782661199569764 6.0973708778619766 6.4966764524579039 3.8599196374416342 6.2006113529205305 4.969075068831442 5.3109924346208572 2.916986644268035 3.1555454134941083 3.8831602483987808 2.9248026758432379 3.1595395132899284 4.4900024905800802 13.37780804932118 3.1662455722689646 2.2657581418752697 2.3699689209461212 2.5508910790085793 5.3194814920425415 2.7249643430113792 2.6028539165854454 3.7622075527906418 2.3887804001569739 6.3728225231170654 13.709409635514019 1.9625168219208706 1.8960468396544445 2.962830550968647 2.0627315416932097
leaf_count=27 31 30 43 31 44 45 36 30 33 27 25 26 33 31 24 25 187 39 30 31 25 30 25 29 51 23 74 168 26 26 32 25
internal_value=-0.00019025 -0.00485862 -0.0128767 0.00475007 0.0181205 -0.0023093 0.00773997 0.0198588 0.00954491 0.0339674 -0.00851377 -0.00256748 0.0153613 -0.0104468 0.0081339 0.0193897 -0.0158759 -0.0183528 -0.0129891 -0.000223783 0.0170715 -0.00370243 -0.000956633 0.00997623 -0.0163485 -0.0212259 -0.0223115 -0.0248411 -0.0267498 -0.0279895 -0.031242 -0.0295567
internal_weight=144.325 117.066 63.8151 53.2512 18.4006 34.8506 14.4473 27.2585 15.7469 11.5116 28.354 22.4741 6.86143 15.6127 6.08434 10.5874 57.7325 49.5124 30.2133 11.8493 5.71714 10.2886 8.22015 5.32782 6.13218 18.3639 9.52837 15.9752 19.2991 17.3366 5.87982 15.4405
internal_count=1362 1215 759 456 135 321 105 147 90 57 276 219 64 155 55 69 716 631 367 146 64 63 85 54 82 221 100 198 264 238 57 212
is_linear=0
shrinkage=0.0271627


Tree=27
num_leaves=31
num_cat=0
split_feature=28 21 28 28 25 2 13 21 24 5 2 10 21 28 21 2 28 16 25 5 3 11 23 22 21 28 1 28 5 23
split_gain=19.6342 11.3375 8.95592 13.0636 8.59049 8.39831 8.01217 5.9853 6.10571 7.6334 5.85869 5.76572 5.07516 4.81183 4.45172 3.46363 2.92516 2.79099 2.69736 2.24111 2.06519 1.83422 6.47274 2.12179 2.57884 0.989814 0.789341 1.68998 0.00552515 0.00143146
threshold=1279022400.0000002 -8.1635416666499978 1614729600.0000002 1638230400.0000002 97.121875000000003 -22.579166666649996 323.68750000000006 -9.1656249999999968 33250.500000000007 74.800000000000011 -19.137499999999999 705.18333333335011 -14.138541666699998 1322265600.0000002 -8.0218749999999979 -13.902083333299997 1646481600.0000002 8.3500000000000032 99.855208333300013 79.700000000000017 21.491666666650001 1.7000000000000004 3.5150000000000006 28.650000000000002 -0.92083333334999995 1653048000.0000002 36.750000000000007 1443268800.0000002 73.200000000000017 5.3850000000000007
decision_type=2 2 2 2 2 2 2 2 2 2 2 2 2 2 2 2 2 2 2 2 2 2 2 2 2 2 2 2 2 2
left_child=4 5 13 -4 -1 19 14 8 9 12 11 20 -7 -3 -6 25 -5 -17 -14 29 -10 23 -23 26 -25 -12 27 -15 -28 -2
right_child=1 2 3 16 6 7 -8 -9 10 -11 15 -13 18 21 -16 17 -18 -19 -20 -21 -22 22 -24 24 -26 -27 28 -29 -30 -31
leaf_value=-0.0097631563649741536 -0.031026412075233691 0.011116704021838255 0.059209140719242243 -0.030202481534133966 0.023460044074827959 0.026446112507564876 -0.00059092413923999144 0.03535154977563832 -0.016187660602620182 0.0464003647249603 -0.030483269335326843 0.039234043694700085 -0.023815590035973364 -0.027374107137925291 0.051537867758598269 -0.016385797093142321 0.0089003154178783853 0.018891188862885121 0.0060411951720530776 -0.0024394071172652437 0.014798314560005575 -0.029461439409277965 0.029832616560210263 0.0070823250790502329 -0.029464914307236727 -0.010814544432987652 -0.029440480690504048 -0.010354938166795348 -0.03095347445055633 -0.030175282144424113
leaf_weight=5.4622149765491512 3.0855066999793035 3.9066042602062216 2.8968825563788396 2.9844140559434891 8.2830460667610222 5.8706535547971734 5.3617564812302581 5.2066586390137664 3.8050527945160848 4.6586997359991065 6.7009817808866465 3.6850461065769196 3.6975928917527199 12.035442158579828 8.3825577050447446 3.4080174192786261 2.6781255677342415 3.2163394764065742 5.6345829516649246 3.2314088270068169 2.7224543318152428 3.4106546565890303 2.2573847100138664 3.5914385914802551 2.3609182536602011 2.6281353682279587 12.927940562367437 6.7018330171704283 2.0652843192219725 2.7638288959860802
leaf_count=35 31 41 20 34 38 42 31 49 42 29 75 24 35 164 41 27 24 30 48 19 18 48 25 39 33 24 183 77 20 31
internal_value=5.34643e-05 -0.00475788 -0.0133526 0.012293 0.0207294 0.00348088 0.0282908 0.00774802 0.00462549 0.0159807 -0.00399374 0.0120706 0.00665897 -0.017809 0.0375828 -0.0142773 -0.0117086 0.00074232 -0.00578865 -0.0205946 -0.00326421 -0.0203007 -0.00584666 -0.0223653 -0.00741362 -0.0249423 -0.0250038 -0.0212868 -0.0296489 -0.0306243
internal_weight=145.621 118.132 57.8169 8.55942 27.4896 60.315 22.0274 51.2342 46.0276 19.8615 26.166 10.2126 15.2028 49.2575 16.6656 15.9535 5.66254 6.62436 9.33218 9.08074 6.52751 45.3509 5.66804 39.6829 5.95236 9.32912 33.7305 18.7373 14.9932 5.84934
internal_count=1377 1232 708 78 145 524 110 443 394 154 240 84 125 630 79 156 58 57 83 81 60 589 73 516 72 99 444 241 203 62
is_linear=0
shrinkage=0.0271627


Tree=28
num_leaves=27
num_cat=0
split_feature=28 5 16 24 4 23 11 17 6 2 1 21 1 16 25 2 2 23 5 0 6 28 0 28 21 11
split_gain=25.7127 12.7892 9.10598 7.04003 6.67044 4.93302 5.81228 6.42511 6.48483 4.72798 4.70064 7.07834 4.79145 4.56043 4.32808 3.78372 5.62455 2.13142 1.82054 1.44854 0.26353 0.00239094 0.00195473 0.000380017 0.000148442 4.50038e-05
threshold=1286928000.0000002 74.800000000000011 8.5500000000000025 33209.500000000007 109.80500000000002 3.6900000000000008 2.3000000000000003 12.154500000000001 -2.8499999999999992 -18.918749999999996 20.250000000000004 -0.86666666664999992 13.750000000000002 7.6500000000000012 99.905208333350018 -11.909374999999999 -19.487499999999994 4.9250000000000007 71.600000000000009 9.5020833333500025 -3.5499999999999994 1511395200.0000002 7.6260416666500008 1332331200.0000002 -4.8260416666999992 1.5000000000000002
decision_type=2 2 2 2 2 2 2 2 2 2 2 2 2 2 2 2 2 2 2 2 2 2 2 2 2 2
left_child=10 2 4 -3 -2 21 7 18 14 -6 12 -12 -1 17 -9 16 -5 20 19 -7 -11 23 -23 -4 -25 -26
right_child=1 3 5 15 9 6 -8 8 -10 13 11 -13 -14 -15 -16 -17 -18 -19 -20 -21 -22 22 -24 24 25 -27
leaf_value=0.018452822288998465 0.039936703404198595 -0.017071024768211911 -0.029725334467800284 0.0088153094733671011 0.020396582656434195 -0.028172019571767643 0.031094875832318718 0.027004363133937392 0.043184684130681439 -0.031980934395907171 -0.010200083649370459 0.031851143454036612 0.047895368198655176 0.018475346442739515 -0.013083620455617629 -0.0009385652456388538 0.043588935416626243 -0.0016530891612921098 0.00078699798855899855 -0.016328402342933371 -0.021306157361643908 -0.030678623389868809 -0.029538345407816913 -0.029455958746136629 -0.029162005809571335 -0.029330995097194251
leaf_weight=8.9272621273994499 3.2624738141894367 5.122209548950198 2.2103648781776419 6.8275391012430227 5.0141750499606177 16.793733980506662 2.203064799308776 2.3515910953283319 2.1847128346562377 4.1387998983263996 6.3148699849843979 5.548179015517233 7.5078366696834555 3.1073098108172426 12.818616144359112 5.1862954720854733 6.9003806561231613 3.5032443255186081 2.620440572500228 13.946586795151232 2.9032204300165096 2.4154494851827613 2.0510791391134262 3.691782668232916 2.9867830462753773 1.9038750194013117
leaf_count=46 21 40 29 43 37 221 23 25 22 34 38 31 34 23 156 41 46 28 29 177 30 26 28 52 47 28
internal_value=-0.000680762 -0.00642695 -0.0111229 0.0111771 0.00410242 -0.0160201 -0.0120966 -0.0139728 -0.000568401 -0.00216051 0.0224971 0.00946668 0.0319027 -0.010445 -0.00686943 0.0188271 0.0262944 -0.0189668 -0.0209461 -0.0227987 -0.02758 -0.0296265 -0.030155 -0.0294077 -0.0293259 -0.0292278
internal_weight=142.442 114.144 90.1073 24.0364 21.9292 68.1781 52.9187 50.7157 17.3549 18.6667 28.2981 11.863 16.4351 13.6526 15.1702 18.9142 13.7279 10.5453 33.3608 30.7403 7.04202 15.2593 4.46653 10.7928 8.58244 4.89066
internal_count=1355 1206 1036 170 173 863 653 630 203 152 149 69 80 115 181 130 89 92 427 398 64 210 54 156 127 75
is_linear=0
shrinkage=0.0271627


Tree=29
num_leaves=33
num_cat=0
split_feature=28 8 28 17 3 25 12 12 10 12 28 23 5 23 6 2 3 4 9 23 23 10 21 12 19 4 10 17 18 5 2 10
split_gain=19.7889 14.8261 12.8741 14.409 14.0685 7.33326 6.42224 4.93222 5.40541 3.67064 3.1834 3.0691 3.05944 10.1491 8.49996 3.00189 2.9207 2.74453 1.88543 1.59477 1.3169 1.16344 0.82193 2.4065 0.49814 2.1754 0.196009 0.336382 0.011936 0.00121413 0.000123545 3.70721e-05
threshold=1279022400.0000002 5.2916666666500012 1511395200.0000002 11.032000000000002 32.419791666650006 97.121875000000003 53.050000000000004 33.455000000000005 611.00000000000011 31.070000000000004 1322265600.0000002 10.235000000000001 57.100000000000001 6.1550000000000011 -3.0499999999999994 -18.621874999999996 16.771875000000005 180.20000000000002 -1.2479166666999999 29.805000000000003 13.125000000000002 606.62187500000016 -8.2093749999999979 30.900000000000002 17.003125000000001 218.42500000000004 600.88541666665003 8.0360000000000014 0.015500000000000002 55.500000000000007 -17.926041666699998 608.89375000000007
decision_type=2 2 2 2 2 2 2 2 2 2 2 2 2 2 2 2 2 2 2 2 2 2 2 2 2 2 2 2 2 2 2 2
left_child=5 2 4 -4 12 -1 10 9 -9 18 -3 17 22 14 16 -10 -14 -7 -5 21 24 -15 23 -2 25 29 27 -26 -28 -12 -24 -32
right_child=1 6 3 7 -6 11 -8 8 15 -11 20 -13 13 19 -16 -17 -18 -19 -20 -21 -22 -23 30 -25 26 -27 28 -29 -30 -31 31 -33
leaf_value=-0.0035466657363999125 -0.030158019366428132 0.0036977568375547668 0.0550169588530178 0.015636815943183602 0.046103388776453674 0.03215273575666712 0.012982321620517684 0.021338174684046168 -0.0013332271306307525 0.031653575653640659 -0.029417126696569627 0.039546029390433161 -0.020460545550629022 -0.030700944418436509 0.05625256535378606 -0.031018973830392271 0.021598882310738213 0.004646334769258265 -0.0074736954502387905 0.00029068384236968949 -0.0037941536939504715 -0.014969319870562419 -0.029494577473304338 0.0060213320236065446 -0.030063229433585484 -0.00049459691420068546 -0.029736938716223179 -0.014881824774082623 -0.031896060827465759 -0.03020980778834681 -0.029336872733684936 -0.029189319269524547
leaf_weight=6.8714866414666202 3.3941327109932899 3.1682539507746688 5.3240079656243315 6.4949640333652505 3.2135787755250922 5.4645607769489306 4.2843003198504439 4.0236208885908118 5.1167130023241043 6.9524314478039733 4.1431754566729122 10.112703740596769 2.9273381344974041 7.1691733226180094 2.7809936739504364 4.9395682960748655 2.0863654538989067 5.2453689426183701 4.3482877388596579 2.5472019165754309 2.047726869583129 6.7193325981497765 2.6518259420990944 2.2594659104943275 2.5145413018763092 2.6827688775956631 14.015016507357361 1.8834108933806417 2.1833588257431975 2.173557948321104 2.5958317629992944 2.434531707316637
leaf_count=43 41 33 29 42 16 25 45 33 41 47 61 47 38 78 26 51 23 30 35 22 25 72 37 27 32 30 188 28 20 26 38 38
internal_value=0.000136617 -0.00474771 0.00209659 0.0136522 -0.00844454 0.0207849 -0.0183991 0.0067433 -0.00526888 0.0162473 -0.0222612 0.0288143 -0.0131108 -0.00736007 0.018167 -0.0159146 -0.00295825 0.018681 0.00636919 -0.0194664 -0.0248603 -0.0230899 -0.0235596 -0.0156989 -0.0263178 -0.0209867 -0.0286472 -0.0235618 -0.030028 -0.0296899 -0.0293446 -0.0292655
internal_weight=144.77 117.075 77.9794 37.1996 40.7798 27.6941 39.0961 31.8756 14.0799 17.7957 34.8118 20.8226 37.5662 24.2304 7.7947 10.0563 5.0137 10.7099 10.8433 16.4357 31.6436 13.8885 13.3358 5.6536 29.5958 8.9995 20.5963 4.39795 16.1984 6.31673 7.68219 5.03036
internal_count=1367 1222 734 278 456 145 488 249 125 124 443 102 440 259 87 92 61 55 77 172 410 150 181 68 385 117 268 60 208 87 113 76
is_linear=0
shrinkage=0.0271627


Tree=30
num_leaves=34
num_cat=0
split_feature=28 21 24 26 20 19 26 24 23 3 23 23 22 3 7 28 22 12 12 3 23 20 7 15 20 22 21 24 6 20 6 3 24
split_gain=16.8027 9.2554 9.76921 7.13064 8.17046 6.8899 6.3042 5.94903 5.44967 5.85844 5.30268 8.08749 6.61907 4.84017 4.52126 3.71042 3.47232 4.91233 3.37007 3.06032 2.89003 2.69036 1.93508 1.82805 1.75311 1.4385 1.58156 1.30527 1.4072 0.38579 0.0125861 0.00099203 0.000687637
threshold=1279022400.0000002 -5.5656249999999989 33304.500000000007 123.75000000000001 11.750000000000002 18.694791666650001 303.75000000000006 33542.500000000007 8.4500000000000011 7.5041666666500015 5.5700000000000012 4.8450000000000006 22.650000000000002 17.844791666700004 10.550000000000002 1322265600.0000002 22.150000000000002 43.865000000000002 37.910000000000004 10.035416666700003 15.035000000000002 10.750000000000002 10.850000000000003 0.51093750000000016 12.750000000000002 19.150000000000002 -7.1656249999999995 33619.500000000007 4.3500000000000005 39.250000000000007 -8.3499999999999996 10.993750000000002 33514.500000000007
decision_type=2 2 2 2 2 2 2 2 2 2 2 2 2 2 2 2 2 2 2 2 2 2 2 2 2 2 2 2 2 2 2 2 2
left_child=8 2 3 4 -2 10 25 21 9 -1 11 12 -5 -10 -9 -3 17 -17 -6 -11 22 -8 -12 27 -7 -4 30 28 29 -18 -27 -26 -32
right_child=1 15 6 5 18 24 7 14 13 19 20 -13 -14 -15 -16 16 23 -19 -20 -21 -22 -23 -24 -25 31 26 -28 -29 -30 -31 32 -33 -34
leaf_value=0.030725506433666505 0.063114234408154696 0.014288867655240829 -0.0053042604658420835 -0.015220922565796425 -0.011547240857037542 -0.0049806698426179191 0.0051762614695102368 0.0018221698922565052 0.051713684155278647 -0.021475513563620551 -0.024837001749213394 0.054473183856296979 0.024682595971794861 0.017663150446798965 0.049482032176501649 -0.029536332380566153 -0.028312871339466507 0.017403765975428889 0.031791398965126796 0.0097687403721345208 0.017378247986577663 -0.030882681255282356 0.00034077690985716432 0.00027042799977920783 -0.029564778396404902 -0.031810164585661611 -0.0051562873832849227 -0.00214006902269263 -0.003731041786925965 -0.015675181136251121 -0.030025271869797206 -0.030401836139169851 -0.029503824999821533
leaf_weight=5.6751799732446697 3.5680562481284124 3.0372661948204032 3.0486404374241856 4.8392722718417707 2.6704845875501633 4.0801421850919706 2.7635830193757993 3.2511340901255608 5.68981786072254 4.1977181583642942 4.1338931024074537 3.9252847954630843 8.3748720623552781 6.7151153534650803 2.6784910634160042 2.6083000265061846 19.900793839246049 4.4535036869347095 2.6252333745360374 5.1514706984162331 3.6932406947016707 3.4106808081269264 4.9479057267308235 2.652352023869752 2.0047031901776791 3.2007853388786298 2.213469184935092 1.9675567969679821 2.0665495805442324 1.9575213901698578 3.8811586573719978 2.1812216937541962 3.593438271433115
leaf_count=27 22 33 30 42 27 36 22 31 28 27 39 25 66 30 25 37 273 46 30 28 32 37 43 31 28 29 31 26 29 28 46 26 50
internal_value=0.000874179 -0.00372816 0.00183082 0.00939513 0.0313431 0.00429981 -0.0108596 0.00391902 0.0199567 0.00895532 0.0103653 0.0202386 0.0100692 0.0332812 0.0233508 -0.0145293 -0.0169876 6.62889e-05 0.00993692 -0.0042597 -0.00288103 -0.0147428 -0.0111198 -0.0212066 -0.0176509 -0.0220834 -0.0260523 -0.0234066 -0.0251556 -0.0271811 -0.0303849 -0.030001 -0.0297746
internal_weight=141.159 113.73 75.0857 47.0443 8.86377 38.1805 28.0414 12.1039 27.4293 15.0244 29.9145 17.1394 13.2141 12.4049 5.92963 38.6438 35.6066 7.0618 5.29572 9.34919 12.775 6.17426 9.0818 28.5448 8.26607 15.9375 12.8889 25.8924 23.9249 21.8583 10.6754 4.18592 7.4746
internal_count=1360 1220 717 416 79 337 301 115 140 82 247 133 108 58 56 503 470 83 57 55 114 59 82 387 90 186 156 356 330 301 125 54 96
is_linear=0
shrinkage=0.0271627


Tree=31
num_leaves=31
num_cat=0
split_feature=28 16 25 14 4 23 8 22 17 13 24 13 23 28 10 28 25 1 4 2 8 2 10 20 2 10 1 22 4 28
split_gain=11.2025 10.8535 8.86587 6.9084 6.7987 8.82726 7.96479 6.1781 5.14474 5.12838 5.09266 4.51835 5.94619 3.31121 3.16835 2.61693 4.21117 2.32813 3.57228 1.94051 1.92699 1.47442 2.50444 1.27577 1.9527 1.01981 0.688841 0.189262 0.00339233 0.0016987
threshold=1284076800.0000002 8.5500000000000025 99.984375000000014 6.4500000000000011 281.19500000000005 5.9850000000000003 0.82083333335000008 24.450000000000003 13.162500000000003 324.32291666665009 33300.500000000007 376.06250000000006 4.4850000000000012 1656504000.0000002 705.18333333335011 1261353600.0000002 96.835416666650019 17.750000000000004 234.91000000000003 -17.756249999999998 8.1489583333500022 -18.621874999999996 606.82916666670019 15.250000000000002 -19.403124999999996 600.88541666665003 17.250000000000004 24.050000000000004 508.54000000000002 1552910400.0000002
decision_type=2 2 2 2 2 2 2 2 2 2 2 2 2 2 2 2 2 2 2 2 2 2 2 2 2 2 2 2 2 2
left_child=2 3 15 8 11 6 10 21 -2 26 -6 13 -13 23 -5 16 -1 -10 -19 -20 -14 22 -7 24 -3 -25 -9 28 -23 -27
right_child=1 4 -4 14 5 7 -8 9 17 -11 -12 12 20 -15 -16 -17 -18 18 19 -21 -22 27 -24 25 -26 29 -28 -29 -30 -31
