tree
version=v4
num_class=1
num_tree_per_iteration=1
label_index=0
max_feature_idx=28
objective=binary sigmoid:1
feature_names=TempOut OutHum DewPt. WSpeed WRun WHSpeed WChill HeatIx ThwIx ThswI Bar Rain HiSlE Rad. uvIndex uDose hiUV hetD-D colD-D inTemp inHum inDew iHeat ET WSamp iRecept WDir_deg HWDir_deg Date_num
feature_infos=[-2.2312500000000002:13.3375] [5:91.5] [-30.9354166667:5.2770833333000002] [0:40.897916666699999] [0:981.70000000000005] [0:289.69999999999999] [-22.800000000000001:7.2000000000000002] [2.7000000000000002:19.5] [-9.0124999999999993:11.860416666700001] [-10.297916666700001:11.6111111111] [591.58749999999998:1012.3354166667] [0:16] [0:63.689999999999998] [0:563.04166666670005] [0:16] [0:3.4300000000000002] [0:16] [0:20.568999999999999] [0:0.80600000000000005] [4.4000000000000004:29.25] [4:52] [-27.585416666699999:8.15625] [12:40.700000000000003] [0:86.030000000000001] [0:33640] [0:100] [0:337.5] [0:337.5] [1204243200:1670457600]
tree_sizes=1056 987 1090 984 989 1095 985 889 1200 886 992 992 989 994 989 1091 895 889 1097 997 789 1096 1096 1203 1100 991 992 897 993 787 1093 1310 790 1209 1098 889 1103 688 895 891 1097 1407 890 897 997 790 1306 777 790 996 1199 1418 994 1512 889 784 791 786 794 792 999 888 1001 897 992 688 1206 788 788 791 894 897 788 898 1087 1098 1091 997 1102 996 1309 1310 892 999 792 897 1203 1305 896 888 1416 994 1421 789 996 1204 1522 1308 790 1093

Tree=0
num_leaves=9
num_cat=0
split_feature=5 2 9 24 19 24 15 8
split_gain=58.2997 25.9398 20.7902 17.3341 21.069 12.119 7.49661 7.13579
threshold=74.800000000000011 -17.669791666699997 -2.6583333333499994 33526.000000000007 18.998958333350004 32475.000000000004 0.38885416670000006 2.3333333333500001
decision_type=2 2 2 2 2 2 2 2
left_child=1 3 -2 4 -1 -3 -7 -4
right_child=2 5 7 -5 -6 6 -8 -9
leaf_value=-1.863157632869068 -1.7863929781353058 -1.8998986696083806 -1.9289017876603494 -1.9775524622058978 -1.9531624298871852 -1.9304070684321795 -1.9703123170648635 -1.8550027042587434
leaf_weight=32.79598343372345 11.966102063655851 13.074074476957319 9.6393599957227725 11.079724133014677 14.625235855579374 22.381042748689651 100.60389512777328 10.747332409024237
leaf_count=296 108 118 87 100 132 202 908 97
internal_value=-1.92916 -1.94205 -1.85164 -1.90732 -1.89092 -1.95698 -1.96305 -1.88994
internal_weight=226.913 194.56 32.3528 58.5009 47.4212 136.059 122.985 20.3867
internal_count=2048 1756 292 528 428 1228 1110 184
is_linear=0
shrinkage=1


Tree=1
num_leaves=8
num_cat=0
split_feature=28 16 5 1 24 16 28
split_gain=165.638 46.826 38.9424 23.0814 12.2667 7.46662 5.82376
threshold=1279022400.0000002 8.5500000000000025 81.300000000000011 21.250000000000004 33217.000000000007 6.2500000000000009 1603713600.0000002
decision_type=2 2 2 2 2 2 2
left_child=3 4 6 -1 -2 -6 -3
right_child=1 2 -4 -5 5 -7 -8
leaf_value=0.20796715921262807 0.09444936780557342 -0.045743494937253312 0.086616078576077116 0.086207758478407628 -0.01335855178830552 0.051616835528353541 -0.0063298314018894403
leaf_weight=13.367588870227339 12.001191578805445 136.85438904166222 9.8110311478376371 11.067784406244753 13.857222653925421 13.656411565840243 16.318119458854198
leaf_count=116 105 1254 83 99 121 121 149
internal_value=-0.000556349 -0.0190639 -0.0338298 0.152817 0.0418398 0.018892 -0.0415446
internal_weight=226.934 202.498 162.984 24.4354 39.5148 27.5136 153.173
internal_count=2048 1833 1486 215 347 242 1403
is_linear=0
shrinkage=0.0623619


Tree=2
num_leaves=9
num_cat=0
split_feature=22 5 19 2 24 21 22 6
split_gain=48.1781 37.1862 26.5655 25.455 14.809 10.2711 8.77356 3.83711
threshold=19.550000000000004 74.800000000000011 13.990625000000001 -17.541666666649999 33281.500000000007 -7.9437499999999988 24.050000000000004 -5.1499999999999995
decision_type=2 2 2 2 2 2 2 2
left_child=2 4 -1 -4 5 -2 -3 -6
right_child=1 6 3 -5 7 -7 -8 -9
leaf_value=0.0068983681875205731 0.018708992765471652 0.021975994945049825 0.17416090774336765 0.039144343926578576 -0.021607776157917175 -0.024274669586958907 0.10138908390298508 -0.053482493634797068
leaf_weight=18.968338191509247 35.829957790672779 10.539227969944479 11.06528512388468 10.664000056684015 20.166782684624195 54.512329757213593 11.117858447134493 54.059282250702381
leaf_count=165 316 87 85 93 188 505 93 516
internal_value=-0.000641827 -0.0140747 0.0608248 0.107899 -0.0241839 -0.00722725 0.0627434 -0.0448223
internal_weight=226.923 186.225 40.6976 21.7293 164.568 90.3423 21.6571 74.2261
internal_count=2048 1705 343 178 1525 821 180 704
is_linear=0
shrinkage=0.0623619


Tree=3
num_leaves=8
num_cat=0
split_feature=28 28 5 28 24 5 20
split_gain=120.71 40.3649 21.1307 16.6593 14.0108 11.2585 4.802
threshold=1279022400.0000002 1552910400.0000002 81.300000000000011 1248912000.0000002 33217.000000000007 73.200000000000017 12.750000000000002
decision_type=2 2 2 2 2 2 2
left_child=3 2 6 -1 -3 -6 -2
right_child=1 4 -4 -5 5 -7 -8
leaf_value=0.068333020386709534 -0.012947306699049645 0.07410958044713814 0.052402227934179139 0.16430893529267468 -0.01038942883619812 0.057808387303724444 -0.049562511401629546
leaf_weight=13.103558152914049 16.028761588037014 15.286409191787241 9.369776323437689 15.183212734758852 38.938508525490761 12.415843293070791 106.36242334544659
leaf_count=98 147 126 71 117 358 102 1029
internal_value=-0.000670159 -0.017853 -0.0378574 0.119849 0.0216993 0.00609863 -0.0447673
internal_weight=226.688 198.402 131.761 28.2868 66.6408 51.3544 122.391
internal_count=2048 1833 1247 215 586 460 1176
is_linear=0
shrinkage=0.0623619


Tree=4
num_leaves=8
num_cat=0
split_feature=28 28 5 3 3 28 23
split_gain=98.7649 36.4573 19.0456 13.5029 20.7877 11.3868 4.67484
threshold=1279022400.0000002 1552910400.0000002 81.300000000000011 6.6041666666500012 10.890625000000002 1248912000.0000002 3.9750000000000005
decision_type=2 2 2 2 2 2 2
left_child=5 2 6 -3 -5 -1 -2
right_child=1 3 -4 4 -6 -7 -8
leaf_value=0.061121633112434376 -0.062973175426722566 0.073104144148905967 0.047363310961023537 -0.039009961773506678 0.039693431731811918 0.13756168367258562 -0.035603238084073285
leaf_weight=13.714752666652204 34.106021910905838 14.599630586802958 9.7084760069847089 23.139025501906872 29.937546417117119 16.939493581652641 84.147105298936367
leaf_count=98 342 126 71 212 248 117 834
internal_value=-0.000717613 -0.0170258 -0.0366035 0.0199917 0.00538225 0.103362 -0.0434971
internal_weight=226.292 195.638 127.962 67.6762 53.0766 30.6542 118.253
internal_count=2048 1833 1247 586 460 215 1176
is_linear=0
shrinkage=0.0623619


Tree=5
num_leaves=9
num_cat=0
split_feature=28 16 13 20 19 14 0 28
split_gain=81.7608 31.8237 11.0027 10.4637 8.97496 7.78724 10.1583 6.24364
threshold=1284076800.0000002 8.5500000000000025 252.02083333335003 13.250000000000002 18.797916666650003 6.4500000000000011 3.5732336956500004 1603713600.0000002
decision_type=2 2 2 2 2 2 2 2
left_child=2 5 -1 4 -3 6 -2 -5
right_child=1 3 -4 7 -6 -7 -8 -9
leaf_value=0.13214325798894611 0.057861335404224792 0.033656932894642708 0.059226604173102729 -0.044762384239712322 -0.030349495917943049 0.071800075415080364 -0.016618725233966961 0.0055105155149849016
leaf_weight=13.368025965988634 11.849711783230306 15.850624792277811 20.222594574093819 102.85352477431297 18.420889012515545 12.483198411762713 17.84831940382719 10.597353659570215
leaf_count=86 92 136 137 1049 176 101 150 100
internal_value=-0.00143907 -0.0173026 0.0882452 -0.0309442 -0.00074643 0.0304713 0.0130993 -0.0400664
internal_weight=223.494 189.904 33.5906 147.722 34.2715 42.1812 29.698 113.451
internal_count=2027 1804 223 1461 312 343 242 1149
is_linear=0
shrinkage=0.0623619


Tree=6
num_leaves=8
num_cat=0
split_feature=28 16 3 9 21 24 16
split_gain=68.8228 28.3778 11.207 10.0107 6.29073 5.68003 5.31902
threshold=1284076800.0000002 8.5500000000000025 23.718750000000004 2.3052083333500004 -13.124999999999998 33217.000000000007 6.2500000000000009
decision_type=2 2 2 2 2 2 2
left_child=3 5 4 -1 -3 -2 -7
right_child=1 2 -4 -5 -6 6 -8
leaf_value=0.11737209620564569 0.060910845817962439 0.0024391597326382485 0.037907210623703176 0.050170834275382742 -0.039161864180761313 -0.015073602828584732 0.03809911116659289
leaf_weight=14.824639230966566 13.79313652962446 16.037535585463047 8.9283874332904798 20.600311458110809 119.23381930589676 14.171799927949907 15.124449379742144
leaf_count=87 101 148 71 136 1242 121 121
internal_value=-0.00141687 -0.0164937 -0.0297632 0.0782932 -0.0342297 0.0279131 0.0123773
internal_weight=222.714 187.289 144.2 35.425 135.271 43.0894 29.2962
internal_count=2027 1804 1461 223 1390 343 242
is_linear=0
shrinkage=0.0623619


Tree=7
num_leaves=7
num_cat=0
split_feature=28 5 28 28 28 28
split_gain=58.4285 30.632 19.0885 16.0838 7.91405 5.08416
threshold=1279022400.0000002 79.700000000000017 1552910400.0000002 1568592000.0000002 1248912000.0000002 1322265600.0000002
decision_type=2 2 2 2 2 2
left_child=4 2 5 -4 -1 -2
right_child=1 -3 3 -5 -6 -7
leaf_value=0.038792862515085111 -0.0046214231266994256 0.052912840763016292 0.073450016353817732 -0.011579183897859004 0.097783805173201496 -0.045821552660247039
leaf_weight=15.925679847598074 13.334053568542002 22.42931642383337 10.578171923756598 47.500193819403648 19.890708982944489 92.132700093090534
leaf_count=99 138 163 83 422 115 1007
internal_value=-0.00138302 -0.0154297 -0.0248025 0.00390771 0.0715536 -0.0406127
internal_weight=221.791 185.974 163.545 58.0784 35.8164 105.467
internal_count=2027 1813 1650 505 214 1145
is_linear=0
shrinkage=0.0623619


Tree=8
num_leaves=10
num_cat=0
split_feature=28 28 1 10 20 13 28 23 23
split_gain=49.9495 24.1401 9.67289 14.0825 8.61172 9.91236 7.70271 6.97141 3.82597
threshold=1284076800.0000002 1552910400.0000002 34.750000000000007 613.88437500000009 13.250000000000002 281.32291666665009 1603713600.0000002 8.4500000000000011 20.710000000000004
decision_type=2 2 2 2 2 2 2 2 2
left_child=7 4 3 -3 5 -2 -4 -1 -6
right_child=1 2 6 -5 8 -7 -8 -9 -10
leaf_value=0.041606771891011585 0.031681457303394625 0.075292457475888738 -0.059243324631879479 0.0039622232718741299 -0.04632098283494606 -0.046972832761919256 0.012629955433616499 0.095833868692984603 -0.00090370732929209783
leaf_weight=23.11244759708643 14.96991888433695 17.147252321243286 10.249644041061403 28.914741165935993 79.080372951924801 10.674354590475557 13.354432225227354 15.338777735829352 7.9373701214790335
leaf_count=139 134 135 97 230 901 109 123 84 75
internal_value=-0.00135299 -0.0149748 0.0138815 0.0305159 -0.0328184 -0.00105816 -0.0185797 0.0632388 -0.0421782
internal_weight=220.779 182.328 69.6661 46.062 112.662 25.6443 23.6041 38.4512 87.0177
internal_count=2027 1804 585 365 1219 243 220 223 976
is_linear=0
shrinkage=0.0623619


Tree=9
num_leaves=7
num_cat=0
split_feature=28 5 28 28 28 28
split_gain=42.9159 25.6964 15.9703 15.0914 5.89702 4.7282
threshold=1279022400.0000002 79.700000000000017 1552910400.0000002 1567339200.0000002 1248912000.0000002 1322265600.0000002
decision_type=2 2 2 2 2 2
left_child=4 2 5 -4 -1 -2
right_child=1 -3 3 -5 -6 -7
leaf_value=0.03082679875160951 -0.0034078945252053331 0.047070527658322051 0.071833469900752109 -0.011726428614031363 0.080052682603604708 -0.043608407329588407
leaf_weight=16.827205970883369 13.110438868403433 23.33417221903801 10.163708761334417 48.596029050648212 21.629259958863258 86.112541303038597
leaf_count=99 138 163 73 432 115 1007
internal_value=-0.0013246 -0.0140159 -0.0230384 0.00272698 0.0585132 -0.0382967
internal_weight=219.773 181.317 157.983 58.7597 38.4565 99.223
internal_count=2027 1813 1650 505 214 1145
is_linear=0
shrinkage=0.0623619


Tree=10
num_leaves=8
num_cat=0
split_feature=28 5 16 20 23 3 23
split_gain=37.2983 20.1789 12.5391 11.3711 8.80205 7.57436 5.88084
threshold=1284076800.0000002 74.800000000000011 8.1000000000000032 13.750000000000002 8.4500000000000011 6.6656250000000012 3.6750000000000003
decision_type=2 2 2 2 2 2 2
left_child=4 2 5 -3 -1 -2 -4
right_child=1 3 6 -5 -6 -7 -8
leaf_value=0.028730399912216244 0.050741208557754373 0.06442147530681322 -0.059281374006196437 -0.0079568609217997403 0.087782655472030027 -0.012968774667420437 -0.025485971022843463
leaf_weight=24.309876918792725 11.889633975923063 17.665091633796692 25.891128018498421 16.16744901239872 16.464839890599251 18.626433588564396 88.374790392816067
leaf_count=139 88 120 307 131 84 152 1014
internal_value=-0.00124125 -0.0135268 -0.0236593 0.0298343 0.0525757 0.0118538 -0.0331436
internal_weight=219.389 178.615 144.782 33.8325 40.7747 30.5161 114.266
internal_count=2035 1812 1561 251 223 240 1321
is_linear=0
shrinkage=0.0623619


Tree=11
num_leaves=8
num_cat=0
split_feature=28 5 16 20 27 25 23
split_gain=32.3357 19.9527 11.6674 10.581 9.04403 6.2425 5.49148
threshold=1279022400.0000002 74.800000000000011 8.5500000000000025 13.750000000000002 281.25000000000006 98.442708333350012 3.6750000000000003
decision_type=2 2 2 2 2 2 2
left_child=5 2 4 -3 -2 -1 -4
right_child=1 3 6 -5 -6 -7 -8
leaf_value=0.020855163345501498 -0.020468081169502154 0.06140914697417562 -0.05851502976558326 -0.0075036640409563184 0.045340020150668618 0.070348768723643665 -0.025182279285450911
leaf_weight=17.357945933938026 17.698674373328686 18.793486304581165 24.804350554943085 16.077748581767082 15.008927546441553 23.099056258797646 85.399067834019661
leaf_count=95 144 122 308 131 111 119 1005
internal_value=-0.00120638 -0.0126575 -0.0229774 0.0296362 0.00973007 0.0491137 -0.0326847
internal_weight=218.239 177.782 142.911 34.8712 32.7076 40.457 110.203
internal_count=2035 1821 1568 253 255 214 1313
is_linear=0
shrinkage=0.0623619


Tree=12
num_leaves=8
num_cat=0
split_feature=28 5 16 27 0 1 23
split_gain=28.0121 17.6681 10.651 8.19018 8.17341 6.76032 5.45996
threshold=1279022400.0000002 74.800000000000011 8.1000000000000032 281.25000000000006 3.7885416667000005 20.750000000000004 3.6750000000000003
decision_type=2 2 2 2 2 2 2
left_child=5 2 3 -2 -3 -1 -4
right_child=1 4 6 -5 -6 -7 -8
leaf_value=0.066943090804462715 -0.019864022601220777 0.063166958133669987 -0.057667104583352537 0.044433386980075061 0.0023154049368031629 0.016033024925441897 -0.023810591825292739
leaf_weight=23.535520046949387 16.414066180586818 14.551605127751825 23.636651061475277 14.519930876791475 20.932545378804207 17.827236592769623 85.647212095558643
leaf_count=114 136 96 308 104 157 100 1020
internal_value=-0.00117124 -0.0120408 -0.021989 0.0103162 0.0272699 0.045001 -0.0311333
internal_weight=217.065 175.702 140.218 30.934 35.4842 41.3628 109.284
internal_count=2035 1821 1568 240 253 214 1328
is_linear=0
shrinkage=0.0623619


Tree=13
num_leaves=8
num_cat=0
split_feature=22 24 0 21 22 8 8
split_gain=14.2932 11.011 9.16891 8.56959 7.23589 5.06132 4.26016
threshold=19.550000000000004 32405.500000000004 2.9927083333500004 -7.6854166666499992 17.850000000000005 3.9822916667000006 1.7843750000000003
decision_type=2 2 2 2 2 2 2
left_child=2 -2 -1 5 -4 -3 -5
right_child=1 3 4 6 -6 -7 -8
leaf_value=0.060219558923476836 0.032565298066264563 -0.0090297989863436807 -0.027372973866348512 0.0086871835986533971 0.034600105785664886 0.031939682024536974 -0.036270545607200284
leaf_weight=20.442296557128429 20.744692876935005 55.299494616687298 13.661909803748133 9.3663003221154195 15.801284149289129 14.882940217852591 65.659769058227539
leaf_count=129 151 489 109 105 109 145 798
internal_value=-0.00113405 -0.009934 0.0281289 -0.0160055 0.00586355 -0.00034178 -0.030658
internal_weight=215.859 165.953 49.9055 145.209 29.4632 70.1824 75.0261
internal_count=2035 1688 347 1537 218 634 903
is_linear=0
shrinkage=0.0623619


Tree=14
num_leaves=8
num_cat=0
split_feature=28 28 20 3 5 28 1
split_gain=22.672 14.7363 7.91673 7.70766 13.6628 5.84429 5.81791
threshold=1284076800.0000002 1552910400.0000002 12.750000000000002 6.5677083333500006 74.800000000000011 1322265600.0000002 20.750000000000004
decision_type=2 2 2 2 2 2 2
left_child=6 2 -2 -3 -5 -4 -1
right_child=1 3 5 4 -6 -7 -8
leaf_value=0.058318281124608483 0.011134751149015439 0.049438540682208633 0.019722297761604526 -0.02156185218920122 0.045791323194773068 -0.039567217555902409 0.012292450254190207
leaf_weight=25.370868697762489 17.905173040926456 15.544907897710798 7.0623625367879859 37.214999057352543 17.09236840903759 76.529096305370331 18.446434147655964
leaf_count=120 170 121 87 348 109 977 103
internal_value=-0.00108881 -0.0113255 -0.0264973 0.0107194 -0.000363526 -0.034558 0.0389421
internal_weight=215.166 171.349 101.497 69.8523 54.3074 83.5915 43.8173
internal_count=2035 1812 1234 578 457 1064 223
is_linear=0
shrinkage=0.0623619


Tree=15
num_leaves=9
num_cat=0
split_feature=22 5 22 24 26 1 5 22
split_gain=12.6126 13.2594 14.2369 9.5932 8.11626 6.6842 6.60225 4.17211
threshold=19.550000000000004 73.200000000000017 24.050000000000004 33281.500000000007 281.25000000000006 33.250000000000007 58.70000000000001 25.150000000000002
decision_type=2 2 2 2 2 2 2 2
left_child=4 3 -3 5 6 -2 -1 -5
right_child=1 2 -4 7 -6 -7 -8 -9
leaf_value=0.078270768188408224 0.0082761427913872355 -0.009331124357756241 0.073700762115455509 -0.023625532665796575 -0.010997254791172322 -0.031282965482349823 0.022794856453063908 -0.05962684971214921
leaf_weight=13.319949842989443 56.225498996675014 18.159593254327774 14.398570686578749 31.959860101342201 15.123756632208822 23.576213769614697 22.328497245907784 20.579689223319292
leaf_count=95 521 134 102 421 116 266 135 260
internal_value=0.000104694 -0.00826345 0.027389 -0.0170346 0.027283 -0.003411 0.0435233 -0.0377272
internal_weight=215.672 164.899 32.5582 132.341 50.7722 79.8017 35.6484 52.5395
internal_count=2050 1704 236 1468 346 787 230 681
is_linear=0
shrinkage=0.0623619


Tree=16
num_leaves=7
num_cat=0
split_feature=24 22 0 24 21 13
split_gain=11.4131 10.3588 9.95733 9.24512 8.7661 0.81778
threshold=33585.500000000007 18.650000000000002 2.9260416666500006 32405.500000000004 -7.6135416666499989 341.83333333335003
decision_type=2 2 2 2 2 2
left_child=1 2 -1 -3 -5 -2
right_child=5 3 -4 4 -6 -7
leaf_value=0.066277340280033847 -0.054610606588421179 0.033406529918166193 0.00095309328834365019 0.0057371515419373173 -0.026146818303636837 -0.027078686826073523
leaf_weight=18.727594546973705 13.056668281555178 23.995964005589485 17.605865679681301 74.634750232100487 60.898023806512356 6.1823279410600653
leaf_count=108 171 164 128 646 742 91
internal_value=7.00902e-05 0.00457219 0.0346236 -0.00227217 -0.00858906 -0.0457634
internal_weight=215.101 195.862 36.3335 159.529 135.533 19.239
internal_count=2050 1788 236 1552 1388 262
is_linear=0
shrinkage=0.0623619


Tree=17
num_leaves=7
num_cat=0
split_feature=28 16 5 23 14 13
split_gain=17.5998 11.4366 12.4554 6.95802 5.12891 5.14678
threshold=1261353600.0000002 8.5500000000000025 84.500000000000014 3.3350000000000004 6.4500000000000011 218.50000000000003
decision_type=2 2 2 2 2 2
left_child=-1 4 3 -3 5 -2
right_child=1 2 -4 -5 -6 -7
leaf_value=0.043366532961640253 0.022700616038849319 -0.060895740993691785 0.042768235237744617 -0.016988940447916823 0.048212298387731722 -0.028228797798648356
leaf_weight=31.173511683940887 21.960493944585323 16.192371647804976 12.402939192950724 105.42931224033237 15.400962471961973 11.897517919540403
leaf_count=153 156 228 72 1246 104 91
internal_value=4.82151e-05 -0.00731952 -0.0167635 -0.0228346 0.0183759 0.0048043
internal_weight=214.457 183.284 134.025 121.622 49.259 33.858
internal_count=2050 1897 1546 1474 351 247
is_linear=0
shrinkage=0.0623619


Tree=18
num_leaves=9
num_cat=0
split_feature=28 28 3 3 23 7 28 22
split_gain=15.7736 12.4448 7.54853 12.0059 7.18251 7.16046 4.09163 0.485341
threshold=1279022400.0000002 1552910400.0000002 6.5677083333500006 9.2760416666500021 3.6750000000000003 11.250000000000002 1248912000.0000002 24.850000000000005
decision_type=2 2 2 2 2 2 2 2
left_child=6 4 -3 -4 7 -6 -1 -2
right_child=1 2 3 -5 5 -7 -8 -9
leaf_value=0.011461508284661236 -0.067300085571920396 0.048821865598226884 -0.051493279971167726 0.016371738300142769 0.0073786639879542745 -0.030664402509660169 0.049541257695617215 -0.044925821647727987
leaf_weight=19.412272244691849 11.466408528387548 15.961959667503832 13.311516679823397 42.520286202430725 32.130097083747387 47.964452132582664 25.24329748749733 5.6175915114581576
leaf_count=98 178 119 145 324 339 641 118 88
internal_value=2.46192e-05 -0.00868674 0.0110033 0.000191241 -0.0232334 -0.0154033 0.0329876 -0.0599429
internal_weight=213.628 168.972 71.7938 55.8318 97.1785 80.0945 44.6556 17.084
internal_count=2050 1834 588 469 1246 980 216 266
is_linear=0
shrinkage=0.0623619


Tree=19
num_leaves=8
num_cat=0
split_feature=24 9 3 21 3 22 23
split_gain=9.53044 8.55782 5.72555 11.1708 10.187 4.25016 1.30674
threshold=33585.500000000007 -2.7937499999999997 7.0072916666500005 2.4531250000000004 8.8229166666500003 18.350000000000005 5.205000000000001
decision_type=2 2 2 2 2 2 2
left_child=1 5 3 -3 -4 -1 -2
right_child=6 2 4 -5 -6 -7 -8
leaf_value=0.053325097191132098 -0.027729003795184157 0.031888769674224479 -0.045974786791859935 -0.048057145406169184 2.9232816860371381e-05 0.008409631981434771 -0.061527675309066276
leaf_weight=18.028632983565331 9.4728093743324298 36.542288564145565 23.406496733427048 8.3504471220076066 93.48215264454484 15.018273320049046 8.3877557888627035
leaf_count=103 149 357 257 112 837 122 113
internal_value=-2.16233e-06 0.00399475 -0.00191237 0.0170181 -0.00918289 0.0329131 -0.0436017
internal_weight=212.689 194.828 161.781 44.8927 116.889 33.0469 17.8606
internal_count=2050 1788 1563 469 1094 225 262
is_linear=0
shrinkage=0.0623619


Tree=20
num_leaves=6
num_cat=0
split_feature=24 3 21 3 23
split_gain=9.55812 7.3405 5.33639 7.04924 1.89983
threshold=33585.500000000007 26.640625000000004 2.4531250000000004 7.0072916666500005 5.205000000000001
decision_type=2 2 2 2 2
left_child=1 2 3 -1 -2
right_child=4 -3 -4 -5 -6
leaf_value=0.025869761313363805 -0.026732692601479147 0.046305017425879717 -0.038558547759045957 -0.0045513438358373622 -0.068503825427320572
leaf_weight=38.601133141666651 9.2744172662496585 14.039959013462065 13.280033107846974 127.36528339609504 7.792254999279975
leaf_count=371 150 76 172 1158 111
internal_value=-0.00106844 0.00288163 -0.000519619 0.00252412 -0.0458044
internal_weight=210.353 193.286 179.246 165.966 17.0667
internal_count=2038 1777 1701 1529 261
is_linear=0
shrinkage=0.0623619


Tree=21
num_leaves=9
num_cat=0
split_feature=28 28 23 23 24 25 25 5
split_gain=13.883 10.3424 6.51687 6.0954 4.90057 4.5925 4.40055 0.403249
threshold=1284076800.0000002 1552910400.0000002 3.6750000000000003 4.7000000000000011 33217.000000000007 98.442708333350012 99.998958333350018 36.20000000000001
decision_type=2 2 2 2 2 2 2 2
left_child=5 2 7 -4 -3 -1 -6 -2
right_child=1 4 3 -5 6 -7 -8 -9
leaf_value=0.0061319339020607889 -0.046548180168478358 0.03554914276234547 0.013350017746954686 -0.026210838065267583 -0.038151250423558589 0.046315003363007437 0.0074964439776044585 -0.066880602125558283
leaf_weight=19.027210794389248 6.1064000912010696 19.013278663158417 20.712302047759295 56.364022828638554 10.209278181195257 26.420114085078239 42.005398008972406 10.015004202723501
leaf_count=96 99 124 290 683 81 124 372 169
internal_value=-0.00101618 -0.00944858 -0.0231217 -0.0155799 0.00844191 0.0294918 -0.00142882 -0.0591792
internal_weight=209.873 164.426 93.1977 77.0763 71.228 45.4473 52.2147 16.1214
internal_count=2038 1818 1241 973 577 220 453 268
is_linear=0
shrinkage=0.0623619


Tree=22
num_leaves=9
num_cat=0
split_feature=24 5 19 3 19 9 18 23
split_gain=8.41068 6.89897 7.02417 6.18968 5.14478 8.70727 4.63078 1.88737
threshold=33585.500000000007 71.600000000000009 18.426041666650004 7.0072916666500005 18.391666666650003 -2.8812499999999996 0.011500000000000002 5.205000000000001
decision_type=2 2 2 2 2 2 2 2
left_child=1 2 3 -1 5 -3 -4 -2
right_child=7 4 6 -5 -6 -7 -8 -9
leaf_value=0.02811072985110975 -0.02507837223160397 0.044031842759162068 -0.031719101698172006 -0.0067403058954547445 0.044598687594616361 -0.019891990126945147 0.018509157288276016 -0.067969822032511604
leaf_weight=31.22378296032548 8.9451981671154517 13.912000425159929 42.384247656911612 54.257749151438475 21.941587790846825 20.495469443500042 8.5840523205697519 7.2022291384637347
leaf_count=284 150 75 524 511 156 146 81 111
internal_value=-0.00097595 0.00264495 -0.00493586 0.00598971 0.021002 0.00595439 -0.0232597 -0.0442092
internal_weight=208.946 192.799 136.45 85.4815 56.3491 34.4075 50.9683 16.1474
internal_count=2038 1777 1400 795 377 221 605 261
is_linear=0
shrinkage=0.0623619


Tree=23
num_leaves=10
num_cat=0
split_feature=22 23 5 22 3 5 9 5 23
split_gain=7.12751 8.34726 7.06556 9.68365 6.57684 5.72852 7.56688 5.53661 0.355629
threshold=19.550000000000004 3.5750000000000006 73.200000000000017 24.050000000000004 6.9385416666500008 58.70000000000001 -3.6864583333499996 33.000000000000007 3.3150000000000004
decision_type=2 2 2 2 2 2 2 2 2
left_child=5 7 4 -4 -3 -1 -7 -2 -9
right_child=1 2 3 -5 -6 6 -8 8 -10
leaf_value=0.048267304298611029 -0.00089213482088111194 0.01837953445558831 -0.008400532512328477 0.060508829329555661 -0.01881018854752042 0.034366269253787933 -0.023309442495473044 -0.070765065618814432 -0.051761402149405139
leaf_weight=17.319223269820213 8.625860735774042 24.574012219905853 16.784407496452335 15.035233795642851 74.733723640441895 17.086660485714674 18.34376647695899 9.3552441261708719 6.4839392080903044
leaf_count=120 97 267 125 101 879 98 127 137 87
internal_value=-0.000936411 -0.00765248 -0.00141336 0.0241601 -0.00960747 0.0188736 0.00450522 -0.0410928 -0.0629857
internal_weight=208.342 155.592 131.127 31.8196 99.3077 52.7497 35.4304 24.465 15.8392
internal_count=2038 1693 1372 226 1146 345 225 321 224
is_linear=0
shrinkage=0.0623619


Tree=24
num_leaves=9
num_cat=0
split_feature=28 28 23 23 4 4 23 22
split_gain=11.8558 8.51617 6.09637 5.43287 3.79225 10.1749 3.58195 0.540868
threshold=1284076800.0000002 1552910400.0000002 3.6750000000000003 4.7000000000000011 158.88000000000002 261.52000000000004 8.4500000000000011 24.850000000000005
decision_type=2 2 2 2 2 2 2 2
left_child=6 2 7 -4 -3 -6 -1 -2
right_child=1 4 3 -5 5 -7 -8 -9
leaf_value=0.012171733230361489 -0.066541955023531468 0.032525682436387988 0.012678437771758509 -0.024742627536455987 -0.037695525396350717 0.018908453024434321 0.047463123417471449 -0.041242420805210928
leaf_weight=26.435635812580585 9.8996379449963552 17.426590174436569 20.858554922044277 54.539684601128101 19.004625398665667 35.272004641592503 19.386977255344391 4.9192830808460704
leaf_count=134 181 120 290 683 209 248 86 87
internal_value=-0.00090174 -0.00882696 -0.0215771 -0.0143903 0.00721532 -0.000911079 0.0271031 -0.0581435
internal_weight=207.743 161.92 90.2172 75.3982 71.7032 54.2766 45.8226 14.8189
internal_count=2038 1818 1241 973 577 457 220 268
is_linear=0
shrinkage=0.0623619


Tree=25
num_leaves=8
num_cat=0
split_feature=28 28 8 28 13 5 28
split_gain=9.0055 9.88388 5.86727 5.22174 4.76017 3.59128 3.39192
threshold=1279022400.0000002 1441238400.0000002 8.1489583333500022 1248912000.0000002 328.58333333335003 81.300000000000011 1322265600.0000002
decision_type=2 2 2 2 2 2 2
left_child=3 5 4 -1 -3 6 -2
right_child=1 2 -4 -5 -6 -7 -8
leaf_value=0.0011727727726423851 -0.0034773533043971415 0.0038793440390594023 -0.041584355213733652 0.04395995997624691 0.043083856649380137 0.013971284011330815 -0.042319634878387184
leaf_weight=19.65833368897438 11.377972319722174 83.414738729596138 9.5886569172143918 25.456538900732994 14.077134899795054 7.152322217822074 37.758129715919495
leaf_count=97 139 742 149 116 151 45 611
internal_value=0.000651986 -0.00615903 0.00496219 0.0253159 0.0095402 -0.0273155 -0.0333253
internal_weight=208.484 163.369 107.081 45.1149 97.4919 56.2884 49.1361
internal_count=2050 1837 1042 213 893 795 750
is_linear=0
shrinkage=0.0623619


Tree=26
num_leaves=8
num_cat=0
split_feature=28 28 10 20 19 10 28
split_gain=8.35665 7.38587 8.55928 7.91476 5.86744 5.70817 5.23098
threshold=1261353600.0000002 1603713600.0000002 701.74687500000016 16.250000000000004 13.305208333350002 607.48541666665017 1651449600.0000002
decision_type=2 2 2 2 2 2 2
left_child=-1 3 -3 5 -5 -2 -4
right_child=1 2 6 4 -6 -7 -8
leaf_value=0.029851551080170964 0.02155400333714147 0.066980161254688558 -0.031056098572744214 0.025824325113905689 -0.034876486982410623 -0.014021809671630182 0.021152012890723895
leaf_weight=32.107499361038208 32.476558685302734 10.423412851989267 11.810990426689385 6.9689132720232001 55.619660440832376 38.136441674083471 20.276786051690578
leaf_count=151 311 82 111 83 795 364 153
internal_value=0.000597243 -0.00474831 0.0178836 -0.0119713 -0.0281178 0.00234033 0.00193505
internal_weight=207.82 175.713 42.5112 133.202 62.5886 70.613 32.0878
internal_count=2050 1899 346 1553 878 675 264
is_linear=0
shrinkage=0.0623619


Tree=27
num_leaves=7
num_cat=0
split_feature=28 21 28 23 17 11
split_gain=7.29588 8.7034 5.36155 7.70679 7.50164 1.06971
threshold=1261353600.0000002 2.1270833333500003 1552910400.0000002 3.5750000000000006 11.032000000000002 0.50000000000000011
decision_type=2 2 2 2 2 2
left_child=-1 2 3 -2 -4 -3
right_child=1 5 4 -5 -6 -7
leaf_value=0.027720062403694803 -0.061552562409276868 -0.068272132683099659 0.042664233968318956 -0.0037434893149043197 -0.0011663257225248615 -0.035088991338288106
leaf_weight=32.40990374982357 10.112570911645888 6.5552663430571547 22.255983870476484 79.273522637784481 47.803812362253666 8.917772673070429
leaf_count=151 177 110 196 934 340 142
internal_value=0.000542676 -0.00449289 -0.000159518 -0.0102836 0.0127574 -0.0491473
internal_weight=207.329 174.919 159.446 89.3861 70.0598 15.473
internal_count=2050 1899 1647 1111 536 252
is_linear=0
shrinkage=0.0623619


Tree=28
num_leaves=8
num_cat=0
split_feature=28 28 28 8 5 25 24
split_gain=6.59313 7.89953 5.22916 4.83413 3.87097 3.78695 3.71696
threshold=1279022400.0000002 1441238400.0000002 1248912000.0000002 8.1489583333500022 82.90000000000002 99.998958333350018 33057.000000000007
decision_type=2 2 2 2 2 2 2
left_child=2 4 -1 5 6 -3 -2
right_child=1 3 -4 -5 -6 -7 -8
leaf_value=-0.0024764411676406447 -0.0050715471682451774 -0.0098534577683255398 0.039970358156309664 -0.03953001399958004 0.022736909697979642 0.01652292684240066 -0.042665097224929428
leaf_weight=20.099410384893417 14.874771144241093 30.782761309295893 25.743779882788658 8.9713430032134038 5.8734485059976569 67.7807184047997 32.742964267730713
leaf_count=97 217 254 116 149 36 639 542
internal_value=0.000494608 -0.00544567 0.0213601 0.00429611 -0.0250298 0.00828521 -0.0309217
internal_weight=206.869 161.026 45.8432 107.535 53.4912 98.5635 47.6177
internal_count=2050 1837 213 1042 795 893 759
is_linear=0
shrinkage=0.0623619


Tree=29
num_leaves=6
num_cat=0
split_feature=25 24 21 24 6
split_gain=5.33508 15.6044 4.94897 4.66591 3.05596
threshold=96.223958333350012 32405.500000000004 2.1270833333500003 33585.500000000007 2.4500000000000006
decision_type=2 2 2 2 2
left_child=-1 -2 3 -3 -4
right_child=1 2 4 -5 -6
leaf_value=-0.040398072692578661 0.05821418849754921 0.0030463582626440071 -0.006158802625853675 -0.03893144377000976 -0.067072066973721228
leaf_weight=11.726718053221701 18.007248017936945 152.49697809666395 5.7948453538119775 11.043304085731505 7.1614804826676846
leaf_count=84 106 1429 94 196 141
internal_value=0.000451653 0.0029145 -0.00272751 0.000211744 -0.039828
internal_weight=206.231 194.504 176.497 163.54 12.9563
internal_count=2050 1966 1860 1625 235
is_linear=0
shrinkage=0.0623619


Tree=30
num_leaves=9
num_cat=0
split_feature=28 28 25 9 10 2 2 7
split_gain=6.83821 12.4423 7.61909 6.39221 4.60506 4.19427 0.978518 0.00249736
threshold=1322265600.0000002 1372507200.0000002 99.984375000000014 7.9947916666500012 607.30520833335015 -21.729166666649999 -17.509374999999995 12.15
decision_type=2 2 2 2 2 2 2 2
left_child=2 6 4 5 -1 -3 -2 -8
right_child=1 3 -4 -5 -6 -7 7 -9
leaf_value=0.022090352200734395 -0.035586879789687657 -0.029774129627861426 0.056327425154815258 -0.052534825142379414 -0.01949080671877668 0.0073816586480920394 -0.068171223742154868 -0.066327707405757566
leaf_weight=24.978295162320137 5.7040289565920856 13.268190275877712 15.149627994745968 8.531620701774953 17.696597676724195 107.89458858594298 5.1765890680253488 6.3796920590102673
leaf_count=149 79 114 92 148 115 1143 84 116
internal_value=0.000167739 -0.00698071 0.0183347 -0.000360964 0.00484731 0.00331283 -0.0567217 -0.0671535
internal_weight=204.779 146.955 57.8245 129.694 42.6749 121.163 17.2603 11.5563
internal_count=2040 1684 356 1405 264 1257 279 200
is_linear=0
shrinkage=0.0623619


Tree=31
num_leaves=11
num_cat=0
split_feature=28 28 8 25 6 13 24 6 4 0
split_gain=5.99896 11.5891 6.68674 6.53506 4.93467 5.30147 3.75659 1.15689 1.02162 0.00131568
threshold=1322265600.0000002 1372507200.0000002 8.1489583333500022 99.984375000000014 -4.4499999999999993 321.84375000000006 33573.500000000007 -5.6499999999999995 166.53500000000003 7.5458333333500009
decision_type=2 2 2 2 2 2 2 2 2 2
left_child=3 7 6 4 -1 -6 -3 -2 -4 -9
right_child=1 2 8 -5 5 -7 -8 9 -10 -11
leaf_value=-0.024604141490900695 -0.03088771156605491 0.0078229194127691359 -0.02735352092958309 0.051901080564292351 0.047727421534605297 -0.0065912555421831038 -0.026710904578550364 -0.067485137879045781 -0.066778915825013718 -0.066146007020827916
leaf_weight=14.788374587893484 4.9972880296409157 105.47639912739396 4.7451348435133678 15.407530866563318 13.658201195299627 14.307843495160339 13.859899066388605 6.0299941226840001 5.5408076569437981 5.4160218015313148
leaf_count=89 72 965 92 92 82 93 248 103 100 104
internal_value=0.000141783 -0.00660265 -0.000346255 0.0170795 0.00453073 0.0199372 0.00381211 -0.0559217 -0.0485911 -0.0668515
internal_weight=204.227 146.066 129.622 58.162 42.7544 27.966 119.336 16.4433 10.2859 11.446
internal_count=2040 1684 1405 356 264 175 1213 279 192 207
is_linear=0
shrinkage=0.0623619


Tree=32
num_leaves=6
num_cat=0
split_feature=25 25 21 22 27
split_gain=5.06486 7.92949 5.18891 3.87176 1.99131
threshold=97.121875000000003 97.876041666650011 2.1270833333500003 18.350000000000005 101.25000000000001
decision_type=2 2 2 2 2
left_child=-1 -2 3 -3 -4
right_child=1 2 4 -5 -6
leaf_value=-0.036831110195826008 0.062149840500728776 0.021381943957347899 -0.0082373397803111141 -0.0019431626216270714 -0.059280818668096945
leaf_weight=13.474305737763641 8.3517547175288183 34.844288848340511 4.9420444611459953 134.52388904243708 7.4575739204883575
leaf_count=95 48 224 85 1436 152
internal_value=0.00011603 0.00273458 4.60176e-06 0.00285554 -0.0389367
internal_weight=203.594 190.12 181.768 169.368 12.3996
internal_count=2040 1945 1897 1660 237
is_linear=0
shrinkage=0.0623619


Tree=33
num_leaves=10
num_cat=0
split_feature=28 28 5 24 13 0 20 6 5
split_gain=5.14782 10.6538 5.46636 6.12187 5.42081 5.45908 3.75014 1.16874 0.0026128
threshold=1322265600.0000002 1372507200.0000002 73.200000000000017 33220.500000000007 250.02083333335003 7.4250000000000016 13.750000000000002 -5.6499999999999995 58.70000000000001
decision_type=2 2 2 2 2 2 2 2 2
left_child=4 7 3 -3 -1 -6 -4 -2 -9
right_child=1 2 6 -5 5 -7 -8 8 -10
leaf_value=0.038820396454130171 -0.029652154983838393 0.017632380977423718 0.036571333011013167 -0.018699744068960831 -0.029794464995890193 0.020484502168411092 -0.0024857664681321363 -0.065636749550834636 -0.067594471429204689
leaf_weight=23.578018713742495 4.8630510158836833 24.861142750829458 21.575993150472641 65.697969917207956 14.124485608190296 20.714934196323156 17.167950633913279 5.7693290039896947 4.9053889811038971
leaf_count=142 72 252 122 892 81 133 139 128 79
internal_value=0.00010119 -0.00620159 -0.000338637 -0.00872551 0.0157284 0.000100565 0.0192646 -0.0549923 -0.0665364
internal_weight=203.258 144.841 129.303 90.5591 58.4174 34.8394 38.7439 15.5378 10.6747
internal_count=2040 1684 1405 1144 356 214 261 279 207
is_linear=0
shrinkage=0.0623619


Tree=34
num_leaves=9
num_cat=0
split_feature=28 28 28 21 2 28 28 28
split_gain=4.61045 5.40733 8.64945 6.07273 6.5673 5.66481 4.65962 2.93394
threshold=1279022400.0000002 1603713600.0000002 1636200000.0000002 -7.7645833333499992 -21.611458333349997 1651449600.0000002 1322265600.0000002 1248912000.0000002
decision_type=2 2 2 2 2 2 2 2
left_child=7 3 -3 4 -2 -4 -5 -1
right_child=1 2 5 6 -6 -7 -8 -9
leaf_value=-0.00070826212410751179 -0.037865614939752074 0.061294806221990218 -0.038644676276305211 0.027145643658902648 0.011063611294814412 0.016405198978464149 -0.035110944252634779 0.030979589850297869
leaf_weight=19.940665766596794 13.578615192323921 11.05784175544977 11.118984173983334 5.2256135232746592 49.771488025784492 20.998428821563721 44.403950152918696 26.417253836989403
leaf_count=96 133 76 111 71 480 154 803 116
internal_value=7.96611e-05 -0.00504717 0.013725 -0.012221 0.000576002 -0.00265296 -0.0285558 0.0173492
internal_weight=202.513 156.155 43.1753 112.98 63.3501 32.1174 49.6296 46.3579
internal_count=2040 1828 341 1487 613 265 874 212
is_linear=0
shrinkage=0.0623619


Tree=35
num_leaves=7
num_cat=0
split_feature=24 21 6 4 20 7
split_gain=3.53532 3.90624 4.62369 4.36394 1.03504 2.07009
threshold=33585.500000000007 2.4531250000000004 2.5500000000000003 289.64500000000004 18.750000000000004 13.750000000000002
decision_type=2 2 2 2 2 2
left_child=1 2 3 -1 -2 -6
right_child=4 -3 -4 -5 5 -7
leaf_value=-0.01071664025751254 -0.054952464797278423 -0.036032193153354437 0.03647689993243193 0.0097715267529898727 0.013658664864698055 -0.050173026515505599
leaf_weight=73.541827660053968 4.8917660266160947 10.219519613310693 15.227367397397755 89.799046248197556 3.9275137856602669 3.9762127529829741
leaf_count=747 84 170 165 691 88 92
internal_value=-0.00068508 0.00146497 0.00361094 0.000547031 -0.0324074 -0.0184538
internal_weight=201.583 188.788 178.568 163.341 12.7955 7.90373
internal_count=2037 1773 1603 1438 264 180
is_linear=0
shrinkage=0.0623619


Tree=36
num_leaves=9
num_cat=0
split_feature=28 28 3 28 28 23 2 7
split_gain=3.3491 9.41218 5.28738 4.52371 5.91566 3.99064 1.15229 0.00196072
threshold=1322265600.0000002 1372507200.0000002 7.8760416667000008 1386763200.0000002 1441238400.0000002 10.540000000000001 -17.756249999999998 11.850000000000003
decision_type=2 2 2 2 2 2 2 2
left_child=2 6 -1 -3 -5 -4 -2 -8
right_child=1 3 5 4 -6 -7 7 -9
leaf_value=0.045480392112507387 -0.028790182047489961 0.045953672763792121 -0.015768385337208014 -0.040810318579772707 0.0016950995309790052 0.021204274362194821 -0.067284753249717402 -0.065484643585987837
leaf_weight=13.87291209772229 4.7873580865561953 7.6709218062460414 24.288945123553276 14.485716098919509 105.2794402949512 21.317562274634838 4.1976518183946592 5.355416813865304
leaf_count=105 73 94 149 288 1024 103 79 122
internal_value=-0.000651874 -0.0058625 0.0117683 -0.000472398 -0.00344597 0.00151351 -0.0537616 -0.0662756
internal_weight=201.256 141.777 59.4794 127.436 119.765 45.6065 14.3404 9.55307
internal_count=2037 1680 357 1406 1312 252 274 201
is_linear=0
shrinkage=0.0623619


Tree=37
num_leaves=5
num_cat=0
split_feature=23 28 28 21
split_gain=3.06634 3.15249 12.4449 5.20712
threshold=29.195000000000004 1237852800.0000002 1261353600.0000002 2.1270833333500003
decision_type=2 2 2 2
left_child=1 -1 -3 -4
right_child=-2 2 3 -5
leaf_value=-0.032790793470602639 0.035539243340341718 0.048801040292535958 -0.0024423747544297164 -0.04442741403633671
leaf_weight=12.316963016986845 8.7207609154283983 18.137967303395271 149.03529148921371 12.447550075128673
leaf_count=63 66 78 1577 253
internal_value=-0.000627008 -0.00227023 -0.000177378 -0.0056787
internal_weight=200.659 191.938 179.621 161.483
internal_count=2037 1971 1908 1830
is_linear=0
shrinkage=0.0623619


Tree=38
num_leaves=7
num_cat=0
split_feature=20 2 10 28 28 28
split_gain=3.00071 6.37225 8.41054 4.2999 12.7951 4.70718
threshold=12.750000000000002 -21.729166666649999 611.93854166665017 1237852800.0000002 1261353600.0000002 1603713600.0000002
decision_type=2 2 2 2 2 2
left_child=1 -1 -3 -2 -5 -6
right_child=3 2 -4 4 5 -7
leaf_value=-0.022657772227300085 -0.040828134083208747 0.061803614032285258 -4.0970415507471612e-05 0.044069836937322651 -0.015777546513965301 0.015314679485067519
leaf_weight=13.991236712783573 11.949955239892004 15.28230197355151 19.417875703424215 20.182548046112061 95.642072247341275 23.611145190894604
leaf_count=118 62 120 137 86 1308 206
internal_value=-0.000595556 0.0128708 0.027196 -0.00492684 -0.00185002 -0.00962154
internal_weight=200.077 48.6914 34.7002 151.386 139.436 119.253
internal_count=2037 375 257 1662 1600 1514
is_linear=0
shrinkage=0.0623619


Tree=39
num_leaves=7
num_cat=0
split_feature=24 21 3 4 12 23
split_gain=2.65588 3.04459 4.61519 8.72803 7.42562 1.60267
threshold=33585.500000000007 2.4531250000000004 7.0072916666500005 211.60500000000005 40.100000000000001 5.205000000000001
decision_type=2 2 2 2 2 2
left_child=1 2 4 -4 -1 -2
right_child=5 -3 3 -5 -6 -7
leaf_value=0.0026069644550485668 -0.0087349464465737194 -0.03308497800169017 -0.04265388834861155 0.0037932194749994014 0.060110070326378016 -0.054957041623556462
leaf_weight=25.878674367442727 6.5747587233781797 9.54180217720568 18.086024319753051 120.98400924727321 13.182241901755331 5.2442557699978352
leaf_count=243 152 170 218 1010 132 112
internal_value=-0.000571449 0.00123427 0.00307263 -0.00224722 0.0220131 -0.0292443
internal_weight=199.492 187.673 178.131 139.07 39.0609 11.819
internal_count=2037 1773 1603 1228 375 264
is_linear=0
shrinkage=0.0623619


Tree=40
num_leaves=9
num_cat=0
split_feature=23 10 10 10 24 1 22 1
split_gain=4.44672 4.30535 9.31534 6.9061 4.98541 3.21068 6.06759 5.75156
threshold=29.195000000000004 604.9156250000002 607.15833333335013 608.89375000000007 33227.500000000007 28.750000000000004 25.550000000000004 35.250000000000007
decision_type=2 2 2 2 2 2 2 2
left_child=1 5 4 -4 -3 6 -1 -7
right_child=-2 2 3 -5 -6 7 -8 -9
leaf_value=-0.062026142638915926 0.043697122381190744 0.05967370912406679 -0.037437372667280304 0.0028662758766628783 0.0085895106186258657 0.050934645846278576 0.0018319066489207345 -0.020289300439503836
leaf_weight=13.251791693270208 8.8895801939070207 15.356494829058649 20.065276900306344 93.954430736601353 14.393167797476051 6.0267561450600651 10.272060144692658 16.429750688374043
leaf_count=144 65 120 240 832 164 70 119 289
internal_value=0.000589253 -0.00143031 0.00388203 -0.00422639 0.0349587 -0.0180407 -0.0341415 -0.0011746
internal_weight=198.639 189.75 143.769 114.02 29.7497 45.9804 23.5239 22.4565
internal_count=2043 1978 1356 1072 284 622 263 359
is_linear=0
shrinkage=0.0623619


Tree=41
num_leaves=12
num_cat=0
split_feature=7 9 27 20 28 5 23 9 7 24 23
split_gain=3.96914 4.64307 7.57387 7.2615 3.67217 2.86154 11.6858 5.10775 3.84381 2.88644 1.54285
threshold=10.450000000000001 1.8114583333500003 303.75000000000006 11.250000000000002 1603713600.0000002 62.000000000000007 4.285000000000001 -2.8812499999999996 9.3500000000000032 33322.500000000007 5.9850000000000003
decision_type=2 2 2 2 2 2 2 2 2 2 2
left_child=5 2 10 -3 -5 6 8 9 -1 -7 -2
right_child=1 3 -4 4 -6 7 -8 -9 -10 -11 -12
leaf_value=-0.02853821369596057 -0.030263803794810043 0.06006772237356995 0.018401227787219487 -0.0093607210600887194 0.026608777637895167 0.036467046881427469 0.08905909323256278 -0.028004058782011589 0.027856599597726683 -0.0032386877359092963 -0.061022740077011445
leaf_weight=9.0114940553903633 15.630208095535638 7.5827147029340258 11.247026801109312 69.942396080121398 13.10644970461726 15.020716007798912 8.4732315018773061 14.30812521278858 9.8246823921799642 13.537328153848646 10.672052610665558
leaf_count=100 159 63 105 905 129 84 80 132 100 98 88
internal_value=0.000537237 -0.00598995 -0.0244294 0.00164967 -0.00368415 0.0124596 0.0282367 0.00240825 0.000876521 0.0176454 -0.0427441
internal_weight=198.356 128.181 37.5493 90.6316 83.0488 70.1756 27.3094 42.8662 18.8362 28.558 26.3023
internal_count=2043 1449 352 1097 1034 594 280 314 200 182 247
is_linear=0
shrinkage=0.0623619


Tree=42
num_leaves=7
num_cat=0
split_feature=5 6 4 22 7 9
split_gain=3.56068 4.65388 5.25606 7.7667 7.04284 4.30937
threshold=79.700000000000017 -8.6499999999999968 167.33500000000004 22.150000000000002 10.450000000000001 -2.6583333333499994
decision_type=2 2 2 2 2 2
left_child=1 -1 3 -3 -4 -2
right_child=5 2 4 -5 -6 -7
leaf_value=-0.037619930062013668 0.04243232860892264 0.058974791479010982 0.017804714468286156 0.0009394692596102612 -0.017358360333394617 -0.0026224392562524124
leaf_weight=14.023842867463825 15.98827390372753 12.874293224886058 30.987317847087979 29.555360000580549 77.691325666382909 17.071255460381508
leaf_count=121 82 106 295 417 916 106
internal_value=0.000485524 -0.00325451 -6.51756e-05 0.0185489 -0.00733239 0.019167
internal_weight=198.192 165.132 151.108 42.4297 108.679 33.0595
internal_count=2043 1855 1734 523 1211 188
is_linear=0
shrinkage=0.0623619


Tree=43
num_leaves=7
num_cat=0
split_feature=23 28 28 10 21 2
split_gain=3.79054 3.79394 8.17979 5.73386 1.90059 1.35764
threshold=29.195000000000004 1320580800.0000002 1372507200.0000002 603.47604166665008 -7.4302083333499995 -18.476041666649994
decision_type=2 2 2 2 2 2
left_child=1 4 5 -4 -1 -3
right_child=-2 2 3 -5 -6 -7
leaf_value=0.00089565526883456504 0.039954751050543483 -0.023373576642555932 -0.032916630664578575 0.0040382297850645151 0.024347158579022778 -0.065991508327821982
leaf_weight=26.992792122066021 9.0137985572218877 4.2047457993030539 19.439699521288276 102.01922182366252 26.766432255506516 9.4182431232184154
leaf_count=159 65 67 332 1037 169 214
internal_value=0.000446239 -0.00143959 -0.00701586 -0.00187646 0.012572 -0.0528375
internal_weight=197.855 188.841 135.082 121.459 53.7592 13.623
internal_count=2043 1978 1650 1369 328 281
is_linear=0
shrinkage=0.0623619


Tree=44
num_leaves=8
num_cat=0
split_feature=23 28 28 10 3 23 2
split_gain=3.28109 3.33814 7.61914 5.18101 3.17848 2.91668 1.41688
threshold=29.195000000000004 1320580800.0000002 1372507200.0000002 603.47604166665008 8.1562500000000018 10.235000000000001 -18.832291666649997
decision_type=2 2 2 2 2 2 2
left_child=1 4 6 -4 -1 -6 -3
right_child=-2 2 3 -5 5 -7 -8
leaf_value=0.036066751373458099 0.036866056931633202 -0.021213362945597652 -0.031754286576597443 0.0037759139374943813 -0.012577780526318286 0.021841502178584913 -0.0657684932636107
leaf_weight=15.048637911677359 9.1549996286630613 4.0166833586990824 18.911733530461788 102.29334595985711 22.110681667923927 16.887533515691757 8.9843744672834855
leaf_count=110 65 65 332 1037 139 79 216
internal_value=0.000408475 -0.00136451 -0.00663438 -0.00176789 0.0117213 0.00232692 -0.0520032
internal_weight=197.408 188.253 134.206 121.205 54.0469 38.9982 13.0011
internal_count=2043 1978 1650 1369 328 218 281
is_linear=0
shrinkage=0.0623619


Tree=45
num_leaves=6
num_cat=0
split_feature=28 21 21 4 22
split_gain=3.20695 4.86527 3.47309 4.34867 1.44267
threshold=1261353600.0000002 2.1270833333500003 0.68333333335000013 102.18500000000002 24.650000000000002
decision_type=2 2 2 2 2
left_child=-1 2 3 -2 -3
right_child=1 4 -4 -5 -6
leaf_value=0.018084335587921167 0.035539034342546294 -0.062644364122817334 0.038166418604954337 -0.0057068653085233997 -0.018345518977845938
leaf_weight=32.633112922310829 10.734543688595293 6.2548341769725067 8.583242664113639 134.48863068223 5.266206918284297
leaf_count=151 127 119 129 1386 137
internal_value=0.000218656 -0.00330776 -0.000379838 -0.00265807 -0.0423956
internal_weight=197.961 165.327 153.806 145.223 11.521
internal_count=2049 1898 1642 1513 256
is_linear=0
shrinkage=0.0623619


Tree=46
num_leaves=11
num_cat=0
split_feature=20 10 2 28 28 13 19 10 22 19
split_gain=2.93458 4.67625 5.44823 3.95168 6.64824 4.04819 6.34499 3.67558 3.1608 0.216999
threshold=12.750000000000002 611.93854166665017 -20.182291666699996 1322265600.0000002 1372507200.0000002 221.56250000000003 17.746875000000003 603.47604166665008 25.350000000000005 20.526041666650006
decision_type=2 2 2 2 2 2 2 2 2 2
left_child=1 2 -1 5 9 -2 -7 -6 -3 -5
right_child=3 8 -4 4 7 6 -8 -9 -10 -11
leaf_value=0.0046013938901076331 0.038962812541944863 -0.02739115843769491 0.06304138037046364 -0.066154319322565602 -0.030094236930578756 -0.029294007287830451 0.023096114364511165 0.00074886231969038949 0.016982096382887224 -0.046827175746723682
leaf_weight=13.031379360705616 13.686523899435995 12.813873492181303 11.841633833944796 6.6136254221200925 19.233913399279118 16.557231169193983 19.671325270086527 68.686185693368316 12.174466304481028 3.431410264223814
leaf_count=110 80 88 87 152 338 92 116 795 94 97
internal_value=0.000198284 0.0132816 0.0324237 -0.00421306 -0.0114898 0.0100685 -0.0008473 -0.00599855 -0.00577225 -0.0595521
internal_weight=197.742 49.8614 24.873 147.88 97.9651 49.9151 36.2286 87.9201 24.9883 10.045
internal_count=2049 379 197 1670 1382 288 208 1133 182 249
is_linear=0
shrinkage=0.0623619


Tree=47
num_leaves=6
num_cat=0
split_feature=25 24 23 11 7
split_gain=2.59601 8.1626 3.62787 3.37974 3.34481
threshold=97.121875000000003 32202.500000000004 3.1450000000000005 0.3000000000000001 10.15
decision_type=2 2 2 2 2
left_child=-1 -2 4 -4 -3
right_child=1 2 3 -5 -6
leaf_value=-0.025925424906240814 0.055609848394037209 -0.00058600447136246425 -0.0010003617897471494 0.037932936694216768 -0.070714860380147279
leaf_weight=13.787286307662724 10.467101790010927 5.1682500019669515 153.1997209712863 9.1914308741688711 5.4173870589584112
leaf_count=100 55 69 1563 153 109
internal_value=0.000171966 0.0021334 -0.00110255 0.00120328 -0.0364757
internal_weight=197.231 183.444 172.977 162.391 10.5856
internal_count=2049 1949 1894 1716 178
is_linear=0
shrinkage=0.0623619


Tree=48
num_leaves=6
num_cat=0
split_feature=28 21 26 21 4
split_gain=2.57734 4.25196 4.4394 3.11214 3.61311
threshold=1261353600.0000002 2.1270833333500003 101.25000000000001 0.8968750000000002 102.18500000000002
decision_type=2 2 2 2 2
left_child=-1 3 -3 4 -2
right_child=1 2 -4 -5 -6
leaf_value=0.016145318093363396 0.031893109007162947 0.014807125682854097 -0.069048272614151918 0.037567612448236115 -0.0052423904968497493
leaf_weight=32.694825515151024 11.024897292256354 3.7177177369594556 7.2304865047335625 7.9814917314797631 134.4241003934294
leaf_count=151 129 86 170 112 1401
internal_value=0.000154382 -0.00302621 -0.0405732 -0.000346996 -0.00242755
internal_weight=197.074 164.379 10.9482 153.43 145.449
internal_count=2049 1898 256 1642 1530
is_linear=0
shrinkage=0.0623619


Tree=49
num_leaves=8
num_cat=0
split_feature=20 10 2 28 28 28 22
split_gain=2.63497 4.04195 4.50844 3.93225 11.3066 3.25212 2.77397
threshold=12.750000000000002 611.93854166665017 -20.182291666699996 1237852800.0000002 1261353600.0000002 1603713600.0000002 25.350000000000005
decision_type=2 2 2 2 2 2 2
left_child=1 2 -1 -2 -5 -6 -3
right_child=3 6 -4 4 5 -7 -8
leaf_value=0.0045179546272602015 -0.038992701545658245 -0.025937486891687716 0.057227966231516582 0.041784522380730049 -0.014129228506072792 0.011541783905970044 0.015720323994013113
leaf_weight=13.030430242419245 11.558340042829512 12.590071234852077 12.237320821732281 20.319319173693657 90.463389651849866 24.359899017959833 12.27986718714237
leaf_count=110 61 88 87 86 1316 207 94
internal_value=0.000137155 0.0124792 0.0300457 -0.00408095 -0.00109505 -0.00868309 -0.00536838
internal_weight=196.839 50.1377 25.2678 146.701 135.143 114.823 24.8699
internal_count=2049 379 197 1670 1609 1523 182
is_linear=0
shrinkage=0.0623619


Tree=50
num_leaves=10
num_cat=0
split_feature=23 4 23 1 15 12 23 5 3
split_gain=2.49189 4.92833 3.85284 4.74682 4.8658 4.10524 5.19689 2.76251 1.3337
threshold=3.5750000000000006 111.78500000000001 4.7250000000000005 54.250000000000007 0.27572916665000008 47.415000000000006 24.930000000000003 58.70000000000001 6.2677083333500008
decision_type=2 2 2 2 2 2 2 2 2
left_child=1 -1 3 4 -2 6 -4 -7 -3
right_child=2 8 5 -5 -6 7 -8 -9 -10
leaf_value=0.012295530211954663 -0.030491075689080879 -0.064626805641296997 -0.0035590397536134463 0.060549622131284515 0.020434807095294116 -0.061685166567675094 0.041502758054693813 -0.010556750429378464 -0.026511873900555153
leaf_weight=11.834942578338088 9.4785832874476892 5.905088795349001 91.272898625582457 8.2453912831842882 31.694891661405563 7.031240817159417 11.17149357870221 9.8911695033311826 9.0300614703446609
leaf_count=159 74 81 830 114 345 129 77 93 137
internal_value=-8.65728e-05 -0.0177629 0.00271696 0.0173602 0.00871111 -0.00334547 0.00135492 -0.0318005 -0.0415818
internal_weight=195.556 26.7701 168.786 49.4189 41.1735 119.367 102.444 16.9224 14.9352
internal_count=2039 377 1662 533 419 1129 907 222 218
is_linear=0
shrinkage=0.0623619


Tree=51
num_leaves=12
num_cat=0
split_feature=10 10 10 19 19 12 12 12 13 10 23
split_gain=2.62924 8.13319 7.06904 4.75245 6.85737 3.67933 4.966 3.63723 3.60422 2.75928 1.70574
threshold=607.42604166665012 608.92812500000002 604.9156250000002 16.434375000000003 18.797916666650003 47.030000000000008 42.920000000000009 49.025000000000006 182.43750000000003 610.91041666665012 5.535000000000001
decision_type=2 2 2 2 2 2 2 2 2 2 2
left_child=2 10 5 -4 -5 6 -1 -7 -3 -10 -2
right_child=1 8 3 4 -6 7 -8 -9 9 -11 -12
leaf_value=-0.01341008234066318 -0.028234879431033852 0.036228111816059165 -0.0015475623727440784 0.078135817469124111 0.0096510147692049526 -0.060979279389920413 0.036470301088494958 -0.0015778871701153526 0.016336009880722827 -0.0099854560027766992 -0.069243577160153086
leaf_weight=21.354355094023049 8.2497482718899828 9.8285341989248973 12.427556110545991 12.256605837494137 10.606514861807225 8.1034998092800397 12.195070950314401 7.9335633404552928 20.385234035551548 64.48172183893621 7.5586994010955086
leaf_count=265 121 94 110 91 133 115 145 140 198 539 88
internal_value=-9.50823e-05 -0.00643524 0.00815934 0.0294925 0.0463648 -0.00702348 0.00472122 -0.0315933 0.000477354 -0.00366298 -0.0478429
internal_weight=195.381 110.504 84.8772 35.2907 22.8631 49.5865 33.5494 16.0371 94.6955 84.867 15.8084
internal_count=2039 1040 999 334 224 665 410 255 831 737 209
is_linear=0
shrinkage=0.0623619


Tree=52
num_leaves=8
num_cat=0
split_feature=28 23 23 10 16 23 13
split_gain=2.35172 4.58572 5.26084 8.31837 4.91075 3.95518 2.81092
threshold=1261353600.0000002 3.9550000000000005 5.6350000000000007 611.93854166665017 8.6500000000000004 24.930000000000003 302.19791666670005
decision_type=2 2 2 2 2 2 2
left_child=-1 4 3 -3 -2 -4 -6
right_child=1 2 5 -5 6 -7 -8
leaf_value=0.015258313005961864 0.00648397966446446 0.032950634600003123 -0.016651871129815182 -0.014122193851795407 -0.053589759152618086 0.026090666217863698 -0.0013637653426964878
leaf_weight=32.321575701236725 13.651967566460369 38.982116281986237 54.689175941050053 23.341034051030874 16.77508677914739 9.9515090100467187 5.2660057852044693
leaf_count=150 92 515 595 193 317 81 96
internal_value=-0.000105855 -0.00315887 0.00239299 0.0153211 -0.0229074 -0.0100716 -0.041112
internal_weight=194.978 162.657 126.964 62.3232 35.6931 64.6407 22.0411
internal_count=2039 1889 1384 708 505 676 413
is_linear=0
shrinkage=0.0623619


Tree=53
num_leaves=13
num_cat=0
split_feature=7 4 4 0 3 9 19 21 7 24 9 0
split_gain=2.23831 3.36111 9.42364 4.94559 4.76755 3.12842 3.0473 2.40272 5.40314 3.02376 3.42581 2.10074
threshold=10.250000000000002 167.33500000000004 211.60500000000005 7.1593750000000016 5.0458333333500009 7.4656250000000011 17.076041666700004 -8.7187499999999982 9.0500000000000025 33243.500000000007 -4.1385416666499992 7.0947916666500008
decision_type=2 2 2 2 2 2 2 2 2 2 2 2
left_child=7 4 5 -4 11 -3 -6 9 -9 -1 -11 -2
right_child=1 2 3 -5 6 -7 -8 8 -10 10 -12 -13
leaf_value=0.024665315340423516 0.010449079659741893 -0.066614524889985482 -0.017856477824688445 0.014163550238656661 0.054386472082291686 -0.012221501043488237 0.0061765164372992757 -0.0045764709089743004 0.0668398669570026 0.012887249659843142 -0.028241262472070955 -0.035098217247158656
leaf_weight=15.722093585878609 7.2489912100136271 13.350654942914845 35.650336962193251 39.592918131500483 10.631980491802098 5.9426650218665591 9.7978720236569625 8.5206703599542397 7.9769534803926936 14.934933602809904 16.664420899003748 8.6221643881872279
leaf_count=104 84 191 338 419 102 94 127 101 84 88 163 144
internal_value=-0.0001135 -0.0047839 -0.0109776 -0.00100757 0.0113461 -0.0498606 0.0312657 0.00946144 0.0299549 0.00231684 -0.00880252 -0.0142949
internal_weight=194.657 130.838 94.5366 75.2433 36.301 19.2933 20.4299 63.8191 16.4976 47.3214 31.5994 15.8712
internal_count=2039 1499 1042 757 457 285 229 540 185 355 251 228
is_linear=0
shrinkage=0.0623619


Tree=54
num_leaves=7
num_cat=0
split_feature=5 6 7 4 23 3
split_gain=2.28442 4.18082 4.07022 5.41701 4.85783 2.97361
threshold=79.700000000000017 -8.6499999999999968 10.250000000000002 167.33500000000004 5.455000000000001 20.209375000000005
decision_type=2 2 2 2 2 2
left_child=1 -1 4 -4 -3 -2
right_child=5 2 3 -5 -6 -7
leaf_value=-0.037666496265231268 0.034254585483337374 0.032846949772025937 0.014659804591044406 -0.01480825878486231 -0.020154427881466871 -0.003456008815789809
leaf_weight=12.591349713504313 15.884624950587748 25.058315500617027 34.817877599969506 80.007408129051328 9.1922677941620332 16.661760665476322
leaf_count=116 93 255 441 956 84 94
internal_value=-0.000124897 -0.00315954 -0.000244995 -0.00587281 0.0186223 0.0149491
internal_weight=194.214 161.667 149.076 114.825 34.2506 32.5464
internal_count=2039 1852 1736 1397 339 187
is_linear=0
shrinkage=0.0623619


Tree=55
num_leaves=6
num_cat=0
split_feature=25 28 13 0 23
split_gain=2.81489 3.40295 3.94526 4.13437 3.13659
threshold=97.121875000000003 1259150400.0000002 385.84375000000006 7.7979166666500008 6.3850000000000007
decision_type=2 2 2 2 2
left_child=-1 -2 3 -3 -4
right_child=1 2 4 -5 -6
leaf_value=-0.0285399713971736 0.023832763338413356 0.0010800282172694811 0.060412600742964666 -0.023278732972604872 -9.7452854751718082e-05
leaf_weight=13.223359167575834 22.727327555418015 109.73748543579131 6.7420254033058864 35.98366516456008 6.5858321115374565
leaf_count=98 102 1121 130 511 77
internal_value=-0.000760064 0.00126079 -0.00196463 -0.004935 0.0305121
internal_weight=195 181.776 159.049 145.721 13.3279
internal_count=2039 1941 1839 1632 207
is_linear=0
shrinkage=0.0623619


Tree=56
num_leaves=6
num_cat=0
split_feature=28 28 23 23 10
split_gain=2.74751 6.24829 3.82338 6.02748 5.05638
threshold=1237852800.0000002 1253966400.0000002 3.9950000000000006 5.495000000000001 607.71666666670012
decision_type=2 2 2 2 2
left_child=-1 -2 4 -4 -3
right_child=1 2 3 -5 -6
leaf_value=-0.029728544942869552 0.040402252641991494 -0.062299041335430828 0.017455125354214587 -0.0093685608586821893 -0.0073429821886920833
leaf_weight=11.920536205172537 14.533310815691946 8.4626382142305356 59.419445753097534 72.123387351632118 28.232546495273709
leaf_count=64 62 177 649 741 346
internal_value=-0.000720346 0.0011716 -0.00221736 0.00274801 -0.0200169
internal_weight=194.692 182.771 168.238 131.543 36.6952
internal_count=2039 1975 1913 1390 523
is_linear=0
shrinkage=0.0623619


Tree=57
num_leaves=6
num_cat=0
split_feature=28 28 23 23 27
split_gain=2.4489 5.4953 3.4183 5.2591 4.92629
threshold=1237852800.0000002 1253966400.0000002 3.9950000000000006 5.495000000000001 236.25000000000003
decision_type=2 2 2 2 2
left_child=-1 -2 4 -4 -3
right_child=1 2 3 -5 -6
leaf_value=-0.028267249752067226 0.037880181566027467 -0.039385077181624026 0.01617455295698679 -0.0088341604660570928 0.0070314230721258558
leaf_weight=11.760208860039709 14.534189522266386 20.330116736702621 60.101981278508902 71.729511206969619 15.805562257766722
leaf_count=64 62 340 649 741 183
internal_value=-0.000684572 0.00109283 -0.00209038 0.00256731 -0.0190827
internal_weight=194.262 182.501 167.967 131.831 36.1357
internal_count=2039 1975 1913 1390 523
is_linear=0
shrinkage=0.0623619


Tree=58
num_leaves=6
num_cat=0
split_feature=2 2 25 5 28
split_gain=2.60015 5.48289 4.93952 2.45305 3.22572
threshold=-21.729166666649999 -20.453124999999996 99.984375000000014 87.700000000000017 1248912000.0000002
decision_type=2 2 2 2 2
left_child=2 -2 -1 4 -3
right_child=1 3 -4 -5 -6
leaf_value=-0.041450589021965613 0.043332671295800207 -0.039514874291884675 0.0071648555296736196 0.02589312100573166 -0.00054528984278612704
leaf_weight=15.988396551460026 11.899595603346823 8.8296771943569166 16.532022202387452 12.414293274283407 128.18119301833212
leaf_count=112 106 49 131 72 1569
internal_value=-0.000649964 0.00259282 -0.0167365 -0.000651528 -0.00305669
internal_weight=193.845 161.325 32.5204 149.425 137.011
internal_count=2039 1796 243 1690 1618
is_linear=0
shrinkage=0.0623619


Tree=59
num_leaves=6
num_cat=0
split_feature=2 2 25 8 4
split_gain=2.29937 4.69673 4.42879 2.36671 4.20879
threshold=-21.729166666649999 -20.453124999999996 99.984375000000014 -2.7541666666499998 459.84000000000009
decision_type=2 2 2 2 2
left_child=2 -2 -1 -3 -5
right_child=1 3 -4 4 -6
leaf_value=-0.039481873319058565 0.039656918487544705 0.026418041862946752 0.0066975022544698871 0.001398984372134926 -0.030580877042876226
leaf_weight=15.746749319136141 12.18208149448037 11.616773243993519 16.581083204597235 119.24968386162072 18.485426276922226
leaf_count=112 106 67 131 1477 146
internal_value=-0.000614537 0.00242379 -0.0157963 -0.000613181 -0.00289303
internal_weight=193.862 161.534 32.3278 149.352 137.735
internal_count=2039 1796 243 1690 1623
is_linear=0
shrinkage=0.0623619


Tree=60
num_leaves=8
num_cat=0
split_feature=24 25 25 13 0 2 21
split_gain=2.16552 4.42638 3.20098 3.98665 6.42781 3.72606 3.92153
threshold=32405.500000000004 97.164583333300016 99.982291666650013 376.06250000000006 7.6260416666500008 -21.816666666649997 -6.4343749999999993
decision_type=2 2 2 2 2 2 2
left_child=1 -1 5 4 -4 -2 -7
right_child=2 -3 3 -5 -6 6 -8
leaf_value=-0.010312911500632594 -0.055912353221798564 0.038357166704582613 0.0067531680897780794 0.04092083647353853 -0.029655539475795665 0.010264089290260099 -0.030580352303046669
leaf_weight=13.808117873966696 8.0124519038945419 15.341015934944151 86.698174028657377 9.503664229065178 24.099777668714523 19.411513851955529 17.279321721754972
leaf_count=102 73 87 819 152 396 189 231
internal_value=-0.000367914 0.0153019 -0.00313608 0.00215869 -0.00116613 -0.0173849 -0.00897135
internal_weight=194.154 29.1491 165.005 120.302 110.798 44.7033 36.6908
internal_count=2049 189 1860 1367 1215 493 420
is_linear=0
shrinkage=0.0623619


Tree=61
num_leaves=7
num_cat=0
split_feature=5 17 7 23 10 3
split_gain=2.37472 3.1612 3.2695 5.37598 4.29838 2.31396
threshold=79.700000000000017 16.977500000000003 10.450000000000001 5.705000000000001 705.5052083333502 20.209375000000005
decision_type=2 2 2 2 2 2
left_child=1 2 3 -1 -4 -2
right_child=5 -3 4 -5 -6 -7
leaf_value=0.027133500597629458 0.031884872217745046 -0.039841272516220085 -0.0034709874746180606 -0.022625150596710924 -0.049912977186853016 -0.0014659983277244795
leaf_weight=30.592969134449959 16.039742171764374 8.776398425921796 102.08700937777758 11.663546055555342 8.3870969191193563 16.325085327029228
leaf_count=301 93 89 1288 102 83 93
internal_value=-0.00035556 -0.00344521 -0.00135377 0.0133992 -0.00699682 0.0150624
internal_weight=193.872 161.507 152.731 42.2565 110.474 32.3648
internal_count=2049 1863 1774 403 1371 186
is_linear=0
shrinkage=0.0623619


Tree=62
num_leaves=8
num_cat=0
split_feature=20 0 0 21 5 10 24
split_gain=2.08958 3.42988 6.28567 3.34739 3.12659 5.14893 2.79026
threshold=12.750000000000002 6.0968750000000007 3.7885416667000005 -12.017708333299998 81.300000000000011 603.47604166665008 33267.500000000007
decision_type=2 2 2 2 2 2 2
left_child=1 2 -1 6 5 -5 -2
right_child=3 -3 -4 4 -6 -7 -8
leaf_value=0.025440289981850491 -0.003803449519314646 0.037288381443477625 -0.027451122902115127 -0.029049525403981133 0.033027038515136255 0.0037695779965059343 -0.048159413492865517
leaf_weight=18.522711921483278 10.798648390918972 13.697437077760695 16.541830535978079 23.485734976828098 10.174125403165815 89.202043307945132 11.273289624601601
leaf_count=122 79 110 143 385 61 1035 114
internal_value=-0.000341126 0.0108258 0.000488566 -0.00409815 -8.11819e-05 -0.00307039 -0.0264584
internal_weight=193.696 48.762 35.0645 144.934 122.862 112.688 22.0719
internal_count=2049 375 265 1674 1481 1420 193
is_linear=0
shrinkage=0.0623619


Tree=63
num_leaves=7
num_cat=0
split_feature=24 24 10 17 10 13
split_gain=1.93164 1.83512 2.63895 6.22288 2.76126 1.39244
threshold=33585.500000000007 33547.500000000007 604.9156250000002 11.165500000000002 603.77395833335015 340.72916666665009
decision_type=2 2 2 2 2 2
left_child=1 2 4 -4 -1 -2
right_child=5 -3 3 -5 -6 -7
leaf_value=-0.0044105959513923917 -0.041184860955419539 0.025393520839795809 0.025440177451515947 -0.0046330515430991395 -0.04223261266323524 0.0067267648469493176
leaf_weight=26.231055289506912 7.3891018629074079 11.420170791447161 36.888317986391485 97.449021372944117 10.516402262262998 3.4653944801539183
leaf_count=300 166 165 364 822 135 97
internal_value=-0.000330372 0.00118971 -0.000425933 0.0036249 -0.0152345 -0.0258886
internal_weight=193.359 182.505 171.085 134.337 36.7475 10.8545
internal_count=2049 1786 1621 1186 435 263
is_linear=0
shrinkage=0.0623619


Tree=64
num_leaves=8
num_cat=0
split_feature=4 4 23 22 5 17 4
split_gain=1.92807 4.63126 3.45442 3.4007 2.44395 3.35517 2.24348
threshold=108.22000000000001 70.38000000000001 3.5750000000000006 20.750000000000004 79.700000000000017 9.355500000000001 483.98000000000008
decision_type=2 2 2 2 2 2 2
left_child=1 -1 3 -2 5 -4 -6
right_child=2 -3 4 -5 6 -7 -8
leaf_value=-0.018148347021414071 0.00075338604367068966 0.049555799797624207 -0.021986447033981785 -0.057319329854661261 0.032816660251999891 0.0021060761329359879 -0.00035680268931783125
leaf_weight=6.9014380313456085 7.388119548559188 9.1236274642869812 28.927142379805446 8.3580165430903417 15.683369889855387 100.85501352138817 16.033623114228249
leaf_count=116 76 115 410 156 89 996 91
internal_value=-0.000317031 0.020398 -0.00218991 -0.0300715 0.000528537 -0.00326391 0.0160468
internal_weight=193.27 16.0251 177.245 15.7461 161.499 129.782 31.717
internal_count=2049 231 1818 232 1586 1406 180
is_linear=0
shrinkage=0.0623619


Tree=65
num_leaves=5
num_cat=0
split_feature=25 24 23 27
split_gain=2.50526 5.82425 3.19017 3.32014
threshold=96.223958333350012 32405.500000000004 29.195000000000004 168.75000000000003
decision_type=2 2 2 2
left_child=-1 -2 3 -3
right_child=1 2 -4 -5
leaf_value=-0.030811137108578031 0.034523747539015159 -0.018744762292167479 0.036876713267670877 0.0015699767101942715
leaf_weight=9.7542523983865959 18.773777529597282 43.405119475908577 7.7569986991584292 112.07298684678972
leaf_count=82 106 597 59 1191
internal_value=-2.09243e-05 0.00162919 -0.00215403 -0.00410133
internal_weight=191.763 182.009 163.235 155.478
internal_count=2035 1953 1847 1788
is_linear=0
shrinkage=0.0623619


Tree=66
num_leaves=10
num_cat=0
split_feature=20 10 2 21 22 22 3 5 22
split_gain=2.38149 4.0932 4.26809 3.18556 3.02249 5.98649 3.25751 2.22482 1.90913
threshold=12.750000000000002 611.31979166665008 -20.182291666699996 -12.017708333299998 22.050000000000004 24.050000000000004 7.3010416666500006 70.000000000000014 25.350000000000005
decision_type=2 2 2 2 2 2 2 2 2
left_child=1 2 -1 7 6 -6 -5 -2 -3
right_child=3 8 -4 4 5 -7 -8 -9 -10
leaf_value=0.0050543231160696516 -0.0076854077675187994 -0.022614293549479018 0.057436857567946989 0.039043050833040674 -0.041376115520592699 0.0016744508144295885 0.002476616769133412 -0.047806404928004163 0.012154954010890118
leaf_weight=12.681062169373037 11.69041194021702 12.895347680896522 11.567008588463066 12.370621183887122 16.622577431611717 51.421701769344509 40.470811458304524 9.9500904045999032 11.726669281721113
leaf_count=109 110 92 80 106 295 757 311 85 90
internal_value=-2.40128e-05 0.0118556 0.0300423 -0.00409736 -0.000152682 -0.0088424 0.0110371 -0.0261326 -0.00605483
internal_weight=191.396 48.8701 24.2481 142.526 120.886 68.0443 52.8414 21.6405 24.622
internal_count=2035 371 189 1664 1469 1052 417 195 182
is_linear=0
shrinkage=0.0623619


Tree=67
num_leaves=6
num_cat=0
split_feature=25 24 23 11 7
split_gain=2.28809 6.44372 3.12069 3.85441 2.01453
threshold=97.121875000000003 32405.500000000004 3.1450000000000005 0.3000000000000001 9.9500000000000011
decision_type=2 2 2 2 2
left_child=-1 -2 4 -4 -3
right_child=1 2 3 -5 -6
leaf_value=-0.026361104028405889 0.038896070087673991 -0.0085439279130517659 -0.0024226038769473461 0.039834978384224853 -0.06854648762742116
leaf_weight=12.02929914742708 16.477320495992899 4.3796116746962053 144.96740871388465 8.9102912191301566 4.3249869048595428
leaf_count=96 92 61 1526 146 114
internal_value=-3.31871e-05 0.00173553 -0.0020306 2.43222e-05 -0.0383569
internal_weight=191.089 179.06 162.582 153.878 8.7046
internal_count=2035 1939 1847 1672 175
is_linear=0
shrinkage=0.0623619


Tree=68
num_leaves=6
num_cat=0
split_feature=6 9 3 4 12
split_gain=2.18285 3.71099 2.92972 3.96314 1.5255
threshold=-10.049999999999999 -4.7010416666499992 19.508333333350006 374.13000000000005 35.82500000000001
decision_type=2 2 2 2 2
left_child=-1 -2 3 -3 -4
right_child=1 2 4 -5 -6
leaf_value=-0.032719094806614064 0.034321413750767707 -0.0025119746345191952 -0.037790647461338547 0.024236166149100812 -0.0066857202474506373
leaf_weight=7.6301822103559962 12.360201708972452 119.90539331641048 11.309866294264795 26.260113665834069 13.393196929246185
leaf_count=68 69 1469 90 236 103
internal_value=-3.74005e-05 0.00132356 -0.00106342 0.0022936 -0.0209266
internal_weight=190.859 183.229 170.869 146.166 24.7031
internal_count=2035 1967 1898 1705 193
is_linear=0
shrinkage=0.0623619


Tree=69
num_leaves=6
num_cat=0
split_feature=25 28 13 21 21
split_gain=2.05987 2.86155 3.1118 4.64592 4.10432
threshold=96.223958333350012 1261353600.0000002 376.06250000000006 -5.5656249999999989 -2.3968749999999996
decision_type=2 2 2 2 2
left_child=-1 -2 3 -3 -4
right_child=1 2 4 -5 -6
leaf_value=-0.028454879579192356 0.021206184949360017 0.0014464444990593464 -0.0064641857192152628 -0.025776843645808522 0.057009351931213426
leaf_weight=9.4307229630649072 24.613887086510658 109.51728338375688 8.11449061706662 31.361023961566389 7.7415511142462483
leaf_count=82 112 1034 94 579 134
internal_value=-3.91749e-05 0.00143854 -0.00166581 -0.00461375 0.0245261
internal_weight=190.779 181.348 156.734 140.878 15.856
internal_count=2035 1953 1841 1613 228
is_linear=0
shrinkage=0.0623619


Tree=70
num_leaves=7
num_cat=0
split_feature=20 0 7 28 28 22
split_gain=1.81338 3.30349 6.60715 2.78266 5.36473 3.11601
threshold=12.750000000000002 6.0968750000000007 9.6500000000000004 1237852800.0000002 1252411200.0000002 27.550000000000004
decision_type=2 2 2 2 2 2
left_child=1 2 -1 -2 -5 -6
right_child=3 -3 -4 4 5 -7
leaf_value=0.025231137272107081 -0.034906693451494844 0.035483809824650929 -0.028313326643338601 0.038540653869668311 -0.0079919704313055114 0.028165339479002311
leaf_weight=19.257189013063908 10.064573273062704 14.591665558516977 16.764775756746531 12.178701072931288 108.9124467857182 10.131522530689834
leaf_count=125 59 111 146 53 1376 171
internal_value=0.000322922 0.0104514 0.000311316 -0.00330542 -0.000881648 -0.00491472
internal_weight=191.901 50.6136 36.022 141.287 131.223 119.044
internal_count=2041 382 271 1659 1600 1547
is_linear=0
shrinkage=0.0623619


Tree=71
num_leaves=7
num_cat=0
split_feature=28 28 28 28 28 28
split_gain=1.70582 5.19136 3.62787 2.88566 2.83973 4.3347
threshold=1603713600.0000002 1636200000.0000002 1570276800.0000002 1652227200.0000002 1552910400.0000002 1479384000.0000002
decision_type=2 2 2 2 2 2
left_child=2 -2 4 -3 5 -1
right_child=1 3 -4 -5 -6 -7
leaf_value=0.0011545209512757565 0.046528941236704063 -0.027453038067985647 -0.034325553624186773 0.011875739787712669 0.024011653482798097 -0.035426900424135419
leaf_weight=103.64018279500306 11.767982959747313 11.187157761305572 13.026778612285851 20.644121799618006 16.941447459161282 14.340321922674773
leaf_count=1233 75 118 133 150 109 223
internal_value=0.000296829 0.0111377 -0.00289788 -0.00194643 0.000136477 -0.00329189
internal_weight=191.548 43.5993 147.949 31.8313 134.922 117.981
internal_count=2041 343 1698 268 1565 1456
is_linear=0
shrinkage=0.0623619


Tree=72
num_leaves=6
num_cat=0
split_feature=13 13 17 4 4
split_gain=2.01927 5.64094 5.32884 2.46782 2.90279
threshold=376.06250000000006 343.65625000000006 9.0065000000000008 102.18500000000002 148.85500000000005
decision_type=2 2 2 2 2
left_child=1 3 -2 -1 -5
right_child=2 -3 -4 4 -6
leaf_value=0.027789325998300977 -0.0074012848504653615 -0.04664412597200733 0.056162190191560726 -0.02511667532832286 0.001879399342308507
leaf_weight=12.250050392933188 12.644433123990895 10.335719677619634 8.6301106959581357 17.587668447755277 129.87690889742225
leaf_count=171 164 172 93 195 1246
internal_value=0.000270575 -0.00199549 0.0183835 0.000893891 -0.00134034
internal_weight=191.325 170.05 21.2745 159.715 147.465
internal_count=2041 1784 257 1612 1441
is_linear=0
shrinkage=0.0623619


Tree=73
num_leaves=7
num_cat=0
split_feature=13 13 17 24 19 17
split_gain=1.7548 5.13914 4.49429 2.13225 2.10973 1.41543
threshold=376.06250000000006 343.65625000000006 9.0065000000000008 33573.500000000007 20.526041666650006 12.816500000000001
decision_type=2 2 2 2 2 2
left_child=1 3 -2 4 -1 -5
right_child=2 -3 -4 5 -6 -7
leaf_value=-0.0003953126859312012 -0.0069755014210918197 -0.045244354735368086 0.050892079955395811 -0.052094863700432807 0.020559579871849903 -0.0041735787296925354
leaf_weight=128.33244849462062 12.581664046272637 10.001770542003213 8.9199268240481597 4.7032295754179341 21.869173706509173 4.8884083442389965
leaf_count=1105 164 172 93 133 288 86
internal_value=0.000246423 -0.00187903 0.0170308 0.000835288 0.00265569 -0.0276716
internal_weight=191.297 169.795 21.5016 159.793 150.202 9.59164
internal_count=2041 1784 257 1612 1393 219
is_linear=0
shrinkage=0.0623619


Tree=74
num_leaves=9
num_cat=0
split_feature=2 25 2 17 2 7 28 5
split_gain=1.69386 4.11642 3.23652 4.01258 3.34101 3.21928 3.17002 1.45094
threshold=-21.729166666649999 99.984375000000014 -17.669791666699997 12.7155 -15.918749999999998 10.550000000000002 1603713600.0000002 62.000000000000007
decision_type=2 2 2 2 2 2 2 2
left_child=1 -1 3 -2 7 -5 -6 -4
right_child=2 -3 4 5 6 -7 -8 -9
leaf_value=-0.036865473811104457 0.043853322499888471 0.008146469510661912 -0.050138737904343533 0.017260326909751125 -0.0053110227981488295 -0.022191802618178044 0.021900730048276799 -0.010703939077230039
leaf_weight=14.861883582547309 14.234151577576993 16.870771938934922 7.5255492366850358 25.803505267947912 71.53480897564441 11.686859035864471 21.6992665566504 7.006994366645813
leaf_count=111 120 131 95 187 1010 112 186 89
internal_value=0.000223659 -0.0129347 0.00284168 0.0156645 -0.00331287 0.00496193 0.00102223 -0.0311249
internal_weight=191.224 31.7327 159.491 51.7245 107.767 37.4904 93.2341 14.5325
internal_count=2041 242 1799 419 1380 299 1196 184
is_linear=0
shrinkage=0.0623619


Tree=75
num_leaves=9
num_cat=0
split_feature=10 10 10 17 28 3 5 7
split_gain=3.09749 6.63269 5.30979 3.41416 3.63367 3.28625 3.07078 0.734891
threshold=607.42604166665012 608.89375000000007 606.45520833335001 11.032000000000002 1317211200.0000002 19.169791666650003 78.050000000000026 11.350000000000003
decision_type=2 2 2 2 2 2 2 2
left_child=2 7 5 -3 -5 6 -1 -2
right_child=1 3 -4 4 -6 -7 -8 -9
leaf_value=0.0022813085789234215 -0.033826813289882351 0.025048414669715847 0.043207791168495373 0.014421151915823617 -0.015441927290358521 -0.025695512256494583 0.046347220760682234 -0.062544142557258445
leaf_weight=46.220462656579912 6.9971048403531295 15.359684912487863 14.046460932120679 21.99307519569993 56.691661966964602 14.114835143089293 7.09401936456561 6.866364186629653
leaf_count=715 87 145 124 132 565 107 48 111
internal_value=-0.000851225 -0.00778134 0.00832714 -0.00184516 -0.00709493 0.00106101 0.00814471 -0.0480501
internal_weight=189.384 107.908 81.4758 94.0444 78.6847 67.4293 53.3145 13.8635
internal_count=2034 1040 994 842 697 870 763 198
is_linear=0
shrinkage=0.0623619


Tree=76
num_leaves=9
num_cat=0
split_feature=24 24 1 4 3 22 20 3
split_gain=3.13259 2.3575 4.24187 2.51818 8.24023 2.87103 1.72495 1.42288
threshold=33585.500000000007 33539.500000000007 25.750000000000004 109.80500000000002 3.6989583333000007 25.050000000000004 18.750000000000004 8.2260416666500031
decision_type=2 2 2 2 2 2 2 2
left_child=1 3 -3 4 -1 -5 -2 -8
right_child=6 2 -4 5 -6 -7 7 -9
leaf_value=-0.02419616487414971 -0.0666301543832441 -0.0051787287566307924 0.066024185481218189 -0.0085637423765055221 0.06916810202737983 0.010785645703303162 -0.044197904641106713 0.016417602754581002
leaf_weight=7.1668631220236403 3.9798108749091607 7.3192571420222503 5.8582167131826282 110.21475768648088 7.548423838801682 40.885214909911156 2.9956294912844896 3.0287568792700768
leaf_count=115 85 104 90 967 64 434 98 77
internal_value=-0.000810327 0.00108776 0.0264754 -0.000929817 0.0236964 -0.00332811 -0.0347705 -0.0137235
internal_weight=188.997 178.993 13.1775 165.815 14.7153 151.1 10.0042 6.02439
internal_count=2034 1774 194 1580 179 1401 260 175
is_linear=0
shrinkage=0.0623619


Tree=77
num_leaves=8
num_cat=0
split_feature=23 20 21 22 22 27 3
split_gain=1.86974 2.25416 5.59618 4.82307 3.97058 5.78482 5.31616
threshold=29.195000000000004 21.750000000000004 -5.5656249999999989 25.950000000000003 25.350000000000005 281.25000000000006 5.6656250000000012
decision_type=2 2 2 2 2 2 2
left_child=1 4 -3 -4 6 -6 -1
right_child=-2 2 3 -5 5 -7 -8
leaf_value=0.028554679799073307 0.026943717683658826 0.059193744844341985 0.0087403376293050585 -0.054618948727913001 -0.0060977744091194235 0.045514146029635161 -0.018651402064125203
leaf_weight=10.450619615614412 9.0147484391927701 7.4256083928048602 35.058538415469229 5.3908786680549374 26.456362562254071 12.405803464353083 82.663944886997342
leaf_count=81 66 62 522 129 292 108 774
internal_value=-0.00077118 -0.00216034 0.00943141 0.000296156 -0.00636529 0.0103781 -0.0133533
internal_weight=188.867 179.852 47.875 40.4494 131.977 38.8622 93.1146
internal_count=2034 1968 713 651 1255 400 855
is_linear=0
shrinkage=0.0623619


Tree=78
num_leaves=9
num_cat=0
split_feature=24 10 10 17 4 22 27 13
split_gain=2.82508 2.98787 5.42567 3.97772 6.31466 3.63951 2.76782 2.37541
threshold=33585.500000000007 607.42604166665012 608.89375000000007 10.648500000000002 351.20000000000005 22.050000000000004 191.25000000000003 340.72916666665009
decision_type=2 2 2 2 2 2 2 2
left_child=1 3 -3 5 -5 -1 -4 -2
right_child=7 2 6 4 -6 -7 -8 -9
leaf_value=0.029123581763908165 -0.056072955369150537 -0.044812319301207271 -0.016365505909914521 0.06771056238805781 0.0084233156839827652 -0.012803100347842163 0.0068263002909573342 0.0088864298662605316
leaf_weight=10.823395872488616 6.3192467177286726 12.229212710633872 29.436378078535199 10.160294866189359 22.367002883926034 31.445157133974135 62.513855904340744 3.3497042283415794
leaf_count=87 165 170 292 114 171 432 508 95
internal_value=-0.000734769 0.00103904 -0.0057883 0.0105485 0.0269424 -0.00206724 -0.000598181 -0.0335685
internal_weight=188.644 178.975 104.179 74.7959 32.5273 42.2686 91.9502 9.66895
internal_count=2034 1774 970 804 285 519 800 260
is_linear=0
shrinkage=0.0623619


Tree=79
num_leaves=8
num_cat=0
split_feature=24 10 10 24 10 17 13
split_gain=2.56528 2.61812 4.95852 3.74219 4.57066 2.57311 2.54798
threshold=33585.500000000007 607.42604166665012 608.89375000000007 33539.500000000007 605.47708333335015 11.032000000000002 347.10416666665009
decision_type=2 2 2 2 2 2 2
left_child=1 3 -3 4 -1 -4 -2
right_child=6 2 5 -5 -6 -7 -8
leaf_value=-0.0080656698355851923 -0.0556734664812953 -0.043441088689374276 0.022502545545121773 0.046787964086885854 0.025921784126746217 -0.005286530398315472 0.013039193922135501
leaf_weight=41.332298125140369 6.218259113840757 11.841053889133034 15.611603025346993 9.3300817599520069 24.514700805768371 76.244301524013281 3.1679937578737736
leaf_count=469 173 170 145 132 203 655 87
internal_value=-0.000703343 0.000964211 -0.00545971 0.00982517 0.00458779 -0.000563568 -0.032482
internal_weight=188.26 178.874 103.697 75.1771 65.847 91.8559 9.38625
internal_count=2034 1774 970 804 672 800 260
is_linear=0
shrinkage=0.0623619


Tree=80
num_leaves=11
num_cat=0
split_feature=2 2 13 4 17 0 13 10 13 10
split_gain=2.00458 4.35907 2.98294 3.12333 2.60482 8.99307 5.30044 4.47459 3.65022 1.6427
threshold=-9.5927083333499983 -8.1052083333499976 265.61458333335003 166.53500000000003 11.165500000000002 7.8114583333000009 250.02083333335003 606.82916666670019 215.21875000000003 602.68541666665021
decision_type=2 2 2 2 2 2 2 2 2 2
left_child=4 -2 -3 -4 5 -1 8 -8 -6 -7
right_child=1 2 3 -5 6 9 7 -9 -10 -11
leaf_value=0.065984217769816028 -0.051519738925981474 -0.034346453573543843 0.028116963330560525 -0.0093079524974217943 -0.0033890420252508479 -0.025678194939729632 0.0089652174869114514 -0.042627538179614372 0.025115182555497224 0.0095525041167596504
leaf_weight=10.681060168892143 8.4882125575095397 9.3308477113023383 14.135255441069601 22.43946164753288 45.12112015299499 8.3039340209215897 10.209657201543452 18.17641743272543 28.512541640549898 13.53850590996444
leaf_count=85 93 138 220 339 389 107 92 198 256 124
internal_value=-0.000362252 -0.0104647 -0.00287343 0.00515588 0.00372203 0.0190901 -0.00117726 -0.0240711 0.00764841 -0.0038413
internal_weight=188.937 54.3938 45.9056 36.5747 134.543 32.5235 102.02 28.3861 73.6337 21.8424
internal_count=2041 790 697 559 1251 316 935 290 645 231
is_linear=0
shrinkage=0.0623619


Tree=81
num_leaves=11
num_cat=0
split_feature=2 2 23 23 1 23 6 1 27 1
split_gain=1.77461 4.02153 2.75763 3.48632 2.70845 4.23433 2.42015 2.20836 2.8824 2.8123
threshold=-9.5927083333499983 -8.1052083333499976 3.5750000000000006 4.285000000000001 25.750000000000004 5.535000000000001 2.2500000000000004 21.250000000000004 281.25000000000006 19.750000000000004
decision_type=2 2 2 2 2 2 2 2 2 2
left_child=4 -2 6 -4 7 -6 -3 9 -9 -1
right_child=1 2 3 -5 5 -7 -8 8 -10 -11
leaf_value=-5.3285698225214004e-05 -0.050182441941356903 -0.05302740393847908 0.036401228168969367 -0.0069069986962695586 0.051910858358047401 -0.0071265159105413393 0.0058457934084039497 -0.038898942792120562 0.0084922409971122555 0.03314378527775718
leaf_weight=83.834823556244373 8.1808403655886632 6.7765786079689843 10.316080477088688 24.154741365462542 10.460294729098679 8.6165062636136991 4.5311986040323973 11.726667711511256 8.6895698197185975 11.256879154592751
leaf_count=750 93 115 119 354 110 82 109 121 93 95
internal_value=-0.000354531 -0.00990947 -0.00271251 0.00605385 0.00347636 0.0252452 -0.029436 -0.000118889 -0.0187283 0.00387656
internal_weight=188.544 53.9594 45.7786 34.4708 134.585 19.0768 11.3078 115.508 20.4162 95.0917
internal_count=2041 790 697 473 1251 192 224 1059 214 845
is_linear=0
shrinkage=0.0623619


Tree=82
num_leaves=7
num_cat=0
split_feature=5 6 7 3 9 9
split_gain=1.75211 4.09066 3.00365 4.63177 2.88261 1.81624
threshold=79.700000000000017 -8.6499999999999968 10.450000000000001 7.0072916666500005 -0.86354166664999987 -2.6583333333499994
decision_type=2 2 2 2 2 2
left_child=1 -1 4 -4 -3 -2
right_child=5 2 3 -5 -6 -7
leaf_value=-0.037479509474220157 0.027617008219201492 0.0027932534979894308 0.01339886503777224 -0.014815935682338528 0.03878934848814139 -0.001642004269673717
leaf_weight=12.398037161678074 16.185372583568096 26.558480449020863 33.404296647757292 70.134658052586019 12.832310097292064 16.830224897712469
leaf_count=120 82 261 427 912 131 108
internal_value=-0.000344613 -0.00311768 -0.000137056 -0.00571312 0.0145197 0.0127018
internal_weight=188.343 155.328 142.93 103.539 39.3908 33.0156
internal_count=2041 1851 1731 1339 392 190
is_linear=0
shrinkage=0.0623619


Tree=83
num_leaves=8
num_cat=0
split_feature=24 6 6 1 11 9 24
split_gain=1.71185 2.71638 3.50348 4.4892 3.30906 3.07385 1.37006
threshold=32405.500000000004 2.9500000000000006 1.3500000000000003 39.750000000000007 0.3000000000000001 3.7006340579500008 31884.000000000004
decision_type=2 2 2 2 2 2 2
left_child=6 2 5 -4 -3 -2 -1
right_child=1 4 3 -5 -6 -7 -8
leaf_value=0.0010313644776563894 0.00017938917169625651 -0.069419028700438715 0.070084615185733182 -0.00093926307140100378 0.0038085280357818938 -0.025613848503231153 0.028393029532259847
leaf_weight=15.355079699307682 114.23017365951091 5.0986023712903243 5.9306466728448859 8.3111726874485594 4.5341049991548061 21.322437390685081 13.26534630730748
leaf_count=120 1084 113 67 167 95 322 73
internal_value=-0.000329752 -0.00285076 -0.000786527 0.0286368 -0.0349509 -0.00387789 0.0137133
internal_weight=188.048 159.427 149.794 14.2418 9.63271 135.553 28.6204
internal_count=2041 1848 1640 234 208 1406 193
is_linear=0
shrinkage=0.0623619


Tree=84
num_leaves=6
num_cat=0
split_feature=23 24 22 27 25
split_gain=1.70939 2.07099 2.82049 3.20011 2.64002
threshold=29.195000000000004 32405.500000000004 28.350000000000005 33.750000000000007 97.402083333350006
decision_type=2 2 2 2 2
left_child=1 4 3 -3 -1
right_child=-2 2 -4 -5 -6
leaf_value=-0.0057803120207597456 0.025604788460527567 -0.04070188898160608 0.027272662906423734 -0.0042098266177865787 0.033127824954833442
leaf_weight=13.223296159878375 9.3973210640251619 10.063454341143368 10.118165876716374 131.00971986353397 13.923232991248367
leaf_count=104 67 148 149 1493 80
internal_value=-0.00031828 -0.00168427 -0.00453188 -0.00681299 0.0141754
internal_weight=187.735 178.338 151.191 141.073 27.1465
internal_count=2041 1974 1790 1641 184
is_linear=0
shrinkage=0.0623619


Tree=85
num_leaves=7
num_cat=0
split_feature=23 13 13 28 23 19
split_gain=1.69475 2.38352 2.69076 2.81327 1.71317 1.36371
threshold=29.195000000000004 386.19791666670005 343.65625000000006 1268913600.0000002 5.535000000000001 18.426041666650004
decision_type=2 2 2 2 2 2
left_child=1 2 3 -1 -4 -3
right_child=-2 5 4 -5 -6 -7
leaf_value=0.017735750010099506 0.026348745502589394 0.040139041814723331 -0.0072308074449052096 -0.0046224051353236685 -0.052258888097659863 0.0028754317469208697
leaf_weight=26.640254534780979 9.4189922884106618 8.161881670355795 6.4808296747505647 122.65660770609975 6.6658748984336853 7.1786181256175032
leaf_count=126 68 104 105 1437 97 101
internal_value=0.00057015 -0.000795599 -0.00301456 -0.000632857 -0.0300617 0.0227015
internal_weight=187.203 177.784 162.444 149.297 13.1467 15.3405
internal_count=2038 1970 1765 1563 202 205
is_linear=0
shrinkage=0.0623619


Tree=86
num_leaves=10
num_cat=0
split_feature=25 24 27 23 12 0 1 3 3
split_gain=1.67138 5.02651 4.82873 3.2572 5.83546 8.28447 5.81312 2.44386 2.37472
threshold=99.998958333350018 33225.500000000007 78.750000000000014 5.495000000000001 30.730000000000004 7.5458333333500009 26.750000000000004 10.993750000000002 19.062500000000004
decision_type=2 2 2 2 2 2 2 2 2
left_child=1 2 -1 4 -2 -6 8 -4 -5
right_child=3 -3 7 6 5 -7 -8 -9 -10
leaf_value=0.0321564111437758 -0.018846326947979261 -0.041523296221886462 -0.022673412091010082 -0.015923234265097126 0.047401406067089688 -0.0066769469211318214 -0.051806319185808622 0.0031367414666578267 0.019721555872262358
leaf_weight=14.944840377196668 14.935769105330108 13.022044915705917 24.332512522116303 12.283877659589054 27.849375193938613 18.227270529605448 9.0617974214255792 34.489570004865527 17.803686739876866
leaf_count=136 169 126 282 178 302 317 139 272 117
internal_value=0.000531207 -0.0058033 0.000502342 0.00601998 0.0150283 0.0260088 -0.00801906 -0.00753996 0.00516882
internal_weight=186.951 86.789 73.7669 100.162 61.0124 46.0766 39.1494 58.8221 30.0876
internal_count=2038 816 690 1222 788 619 434 554 295
is_linear=0
shrinkage=0.0623619


Tree=87
num_leaves=11
num_cat=0
split_feature=25 24 26 22 23 13 8 20 13 8
split_gain=1.46823 4.5482 3.60707 3.18897 2.84204 5.17716 6.1046 3.54373 2.5407 1.71831
threshold=99.998958333350018 33225.500000000007 78.750000000000014 22.050000000000004 5.495000000000001 215.21875000000003 2.7583333333000009 10.750000000000002 195.31250000000003 -1.9406249999999998
decision_type=2 2 2 2 2 2 2 2 2 2
left_child=1 2 -1 -4 5 8 -7 -6 -2 -9
right_child=4 -3 3 -5 7 6 -8 9 -10 -11
leaf_value=0.028367164892635882 0.008565556756507867 -0.039933571119700896 0.0087703381897844459 -0.02020097338733174 0.022918122721032153 0.059051351633717969 0.0092926128427509806 0.0084314468985134013 -0.038319301480938359 -0.027847072608087137
leaf_weight=14.478838951326905 9.2596543729305285 12.706295320764182 28.299007937312126 30.920449464581907 10.706695999950169 14.249430533498524 29.315263291820884 6.6545936353504684 8.735475776717065 21.422555850818753
leaf_count=131 96 126 185 374 73 128 462 44 102 317
internal_value=0.000483296 -0.00547558 0.000465307 -0.00635655 0.00561441 0.0139448 0.025568 -0.00760807 -0.014194 -0.0192487
internal_weight=186.748 86.4046 73.6983 59.2195 100.344 61.5598 43.5647 38.7838 17.9951 28.0771
internal_count=2038 816 690 559 1222 788 590 434 198 361
is_linear=0
shrinkage=0.0623619


Tree=88
num_leaves=7
num_cat=0
split_feature=23 13 5 13 17 23
split_gain=1.53186 2.1634 3.5007 2.31711 2.06585 1.52431
threshold=29.195000000000004 386.19791666670005 55.500000000000007 343.65625000000006 8.3615000000000013 5.535000000000001
decision_type=2 2 2 2 2 2
left_child=1 3 -3 4 -1 -5
right_child=-2 2 -4 5 -6 -7
leaf_value=0.028560278573650098 0.024898106545181865 -0.0065116189736768955 0.052960255132450069 -0.0071941548052321972 -0.0026466610922789985 -0.050263772196231835
leaf_weight=8.7659845463931543 9.4544655345380288 8.1938299685716611 7.2594524268060914 6.4679267108440381 140.05467096995562 6.3167599234730005
leaf_count=110 68 131 74 105 1453 97
internal_value=0.000440462 -0.000865512 0.0214263 -0.00299714 -0.000808478 -0.0284743
internal_weight=186.513 177.059 15.4533 161.605 148.821 12.7847
internal_count=2038 1970 205 1765 1563 202
is_linear=0
shrinkage=0.0623619


Tree=89
num_leaves=7
num_cat=0
split_feature=23 13 0 4 3 13
split_gain=1.33462 1.881 2.43877 2.35395 4.78402 2.56182
threshold=29.195000000000004 386.19791666670005 9.3010416666500024 108.22000000000001 3.4968750000000006 343.65625000000006
decision_type=2 2 2 2 2 2
left_child=1 3 -3 4 -1 -5
right_child=-2 2 -4 5 -6 -7
leaf_value=-0.019993492981433474 0.023128773668588992 0.045724415236837679 -0.0036021286369909418 -0.0028355329366914444 0.05127293400109767 -0.033694249805558303
leaf_weight=6.4084357116371384 9.5401456803083402 7.4280347097665063 8.2025575414299947 134.99502939451486 8.5513457451015693 11.341397015377877
leaf_count=120 68 73 132 1370 90 185
internal_value=0.000408387 -0.000816729 0.019839 -0.0028184 0.020744 -0.00522715
internal_weight=186.467 176.927 15.6306 161.296 14.9598 146.336
internal_count=2038 1970 205 1765 210 1555
is_linear=0
shrinkage=0.0623619


Tree=90
num_leaves=12
num_cat=0
split_feature=12 10 22 3 13 23 10 2 22 22 23
split_gain=1.55708 2.97386 4.74647 4.19784 2.31313 3.70697 2.51571 2.18017 2.02527 5.37849 1.44138
threshold=35.265000000000008 611.31979166665008 16.950000000000003 17.760416666650006 262.19791666670005 4.285000000000001 607.35625000000016 -18.291666666649999 24.150000000000002 18.450000000000003 4.0450000000000008
decision_type=2 2 2 2 2 2 2 2 2 2 2
left_child=1 2 -1 -4 7 10 -7 -2 9 -3 -6
right_child=4 8 3 -5 5 6 -8 -9 -10 -11 -12
leaf_value=-0.019748382424880837 -0.0012507851767367844 0.012114928317962065 0.047815463657696483 0.00025143124899485028 0.010583445619042724 0.00073819869526704882 -0.024332730109934617 -0.043738796196956337 0.010494072536873776 -0.047163365496756336 0.048234001764712972
leaf_weight=9.8747135512530786 8.3362701535224932 11.835352167487146 19.205429573543373 11.559506621211765 10.133066403679551 47.63542976975441 23.120010888203979 10.757771288044749 16.971729870885611 11.975930411368607 6.4850559756159774
leaf_count=73 61 70 234 97 178 576 277 144 152 127 64
internal_value=-0.000561228 0.00593048 0.0178696 0.0299439 -0.00552585 -0.00122881 -0.00745396 -0.0251889 -0.00596666 -0.0176992 0.0252762
internal_weight=187.89 81.4227 40.6396 30.7649 106.468 87.3736 70.7554 19.094 40.783 23.8113 16.6181
internal_count=2053 753 404 331 1300 1095 853 205 349 197 242
is_linear=0
shrinkage=0.0623619


Tree=91
num_leaves=8
num_cat=0
split_feature=20 10 28 28 8 13 10
split_gain=1.5194 2.81491 2.44922 4.18388 2.49337 2.20262 1.8681
threshold=12.750000000000002 611.93854166665017 1237852800.0000002 1252411200.0000002 0.82083333335000008 271.46875000000006 706.4312500000002
decision_type=2 2 2 2 2 2 2
left_child=1 5 -2 -4 -5 -1 -3
right_child=2 6 3 4 -6 -7 -8
leaf_value=0.042077619817031481 -0.033697471923535179 -0.023383199671490974 0.033692101636376287 -0.021089521803716111 5.6966308956027079e-05 0.0056951024331824644 0.01171037976601463
leaf_weight=12.34640493988991 9.9558172300457937 12.43506954982877 11.862758561968802 28.833866139873862 87.453756297938526 13.599415410310028 11.223281495273111
leaf_count=83 61 106 53 298 1261 113 78
internal_value=-0.000539664 0.00882213 -0.00390218 -0.00158743 -0.00518637 0.0230078 -0.00673516
internal_weight=187.71 49.6042 138.106 128.15 116.288 25.9458 23.6584
internal_count=2053 380 1673 1612 1559 196 184
is_linear=0
shrinkage=0.0623619


Tree=92
num_leaves=12
num_cat=0
split_feature=12 10 4 5 11 6 1 6 22 27 10
split_gain=1.3897 2.58272 2.53036 3.92779 2.11871 4.19719 2.49883 3.45147 2.78642 1.8972 2.30522
threshold=35.265000000000008 610.00930851065016 429.25000000000006 53.900000000000013 0.50000000000000011 2.3500000000000001 39.750000000000007 0.95000000000000007 24.250000000000004 191.25000000000003 613.68958333330011
decision_type=2 2 2 2 2 2 2 2 2 2 2
left_child=1 2 3 -1 6 -6 7 -2 -8 -3 -11
right_child=4 9 -4 -5 5 -7 8 -9 -10 10 -12
leaf_value=0.0028632461409547733 -0.0092668726625098324 -0.026749422196271092 -6.7013020109116443e-05 0.062437178219145573 -0.01633673478018224 0.056976555494412946 -0.0093949692972720763 0.027056246276177375 -0.060070432887372904 0.021916014015748529 -0.0089870767188437988
leaf_weight=7.8482863791287008 64.073140179738402 10.501272262074052 14.034449171274899 9.5306317005306465 6.2520137252286059 5.9055085415020585 10.602290520444514 12.09394847974181 7.0096849165856829 15.399502838030456 24.045314623042941
leaf_count=90 666 121 113 108 102 109 132 132 159 131 190
internal_value=-0.000511454 0.00561819 0.0196285 0.0355337 -0.00521903 0.0192751 -0.00839445 -0.00349942 -0.0295641 -0.00319353 0.00307768
internal_weight=187.296 81.3595 31.4134 17.3789 105.937 12.1575 93.7791 76.1671 17.612 49.9461 39.4448
internal_count=2053 753 311 198 1300 211 1089 798 291 442 321
is_linear=0
shrinkage=0.0623619


Tree=93
num_leaves=6
num_cat=0
split_feature=25 24 23 7 11
split_gain=1.40107 3.73205 1.84758 3.14417 1.8743
threshold=97.121875000000003 32202.500000000004 3.1450000000000005 9.9500000000000011 0.3000000000000001
decision_type=2 2 2 2 2
left_child=-1 -2 3 -3 -4
right_child=1 2 4 -5 -6
leaf_value=-0.02140925265388937 0.036357552201863048 0.0088611543634603152 -0.0016759795027586142 -0.06828310640068419 0.026603892250285248
leaf_weight=11.676755238324402 10.831420324742792 4.0525731015950424 146.67810095660388 4.167632807046175 9.7181488052010518
leaf_count=98 58 60 1570 116 151
internal_value=-0.000492421 0.000899678 -0.00143338 -0.0302509 8.12749e-05
internal_weight=187.125 175.448 164.616 8.22021 156.396
internal_count=2053 1955 1897 176 1721
is_linear=0
shrinkage=0.0623619


Tree=94
num_leaves=8
num_cat=0
split_feature=20 10 25 24 6 22 1
split_gain=1.39255 2.34412 2.21252 2.38196 2.5403 1.83524 1.65222
threshold=12.750000000000002 611.93854166665017 96.223958333350012 32435.500000000004 2.8500000000000001 25.350000000000005 14.750000000000002
decision_type=2 2 2 2 2 2 2
left_child=1 6 -2 -4 -5 -3 -1
right_child=2 5 3 4 -6 -7 -8
leaf_value=0.0060691458907748729 -0.035990495036948109 -0.023021232198819099 0.02104464252626129 -0.0020660513712482996 -0.035550194637834584 0.011917533342911698 0.037418037310722456
leaf_weight=13.444276545196773 7.785043664276599 11.897550597786905 15.658352360129355 104.22229532618076 9.6251472011208516 11.496389068663118 12.728260971605776
leaf_count=108 74 91 93 1286 220 93 88
internal_value=-0.000466631 0.00849312 -0.00370139 -0.00176038 -0.00489694 -0.00585142 0.0213148
internal_weight=186.857 49.5665 137.291 129.506 113.847 23.3939 26.1725
internal_count=2053 380 1673 1599 1506 184 196
is_linear=0
shrinkage=0.0623619


Tree=95
num_leaves=10
num_cat=0
split_feature=20 27 23 27 21 2 0 3 0
split_gain=1.97369 3.4904 3.66141 3.54058 3.25207 2.1633 2.18204 2.08852 0.929043
threshold=12.750000000000002 78.750000000000014 5.5550000000000006 146.25000000000003 -11.829166666649998 -21.729166666649999 5.2437500000000012 6.9385416666500008 8.4875000000000025
decision_type=2 2 2 2 2 2 2 2 2
left_child=5 2 7 8 -5 -1 -7 -2 -3
right_child=1 3 -4 4 -6 6 -8 -9 -10
leaf_value=-0.011542975263254412 0.025458591190836242 -0.067785576959296101 0.055153412908471075 -0.027494594250652774 0.00012068378148562222 0.0058539164939136884 0.037026186408469164 -0.018777781635117181 -0.02628323052038738
leaf_weight=12.626052550971506 7.7563917823135915 4.2827578242868167 7.1388207683339706 20.689173642545938 83.58927735965699 21.652684286236763 14.636105235666035 8.9286467321217042 4.1112682847306132
leaf_count=116 88 92 81 189 979 151 107 126 103
internal_value=-5.74522e-05 -0.00390913 0.0177778 -0.0084947 -0.00535827 0.0106906 0.0184264 0.00178643 -0.0474583
internal_weight=185.411 136.496 23.8239 112.672 104.278 48.9148 36.2888 16.685 8.39403
internal_count=2032 1658 295 1363 1168 374 258 214 195
is_linear=0
shrinkage=0.0623619


Tree=96
num_leaves=13
num_cat=0
split_feature=4 4 22 19 22 28 19 1 19 23 25 28
split_gain=1.47042 5.33698 4.44726 4.04776 5.69494 3.91134 3.64213 3.15829 3.65391 3.1659 2.03738 0.6797
threshold=228.48500000000004 167.33500000000004 25.050000000000004 17.003125000000001 22.350000000000005 1406116800.0000002 20.582291666650004 25.750000000000004 19.884375000000002 5.705000000000001 99.998958333350018 1614729600.0000002
decision_type=2 2 2 2 2 2 2 2 2 2 2 2
left_child=1 3 7 10 -5 -3 -4 8 -2 -9 -1 -7
right_child=2 5 6 4 -6 11 -8 9 -10 -11 -12 -13
leaf_value=0.00079242433062111568 -0.0031938175878816954 -0.0044818026425749447 0.0082266276910543754 0.038176224123165896 -0.035613647968031979 -0.066525989827634538 0.056557400061555831 0.033219177368361906 -0.044096119833000089 -0.012145486250644943 0.036648622406591225 -0.038044456382547699
leaf_weight=10.378872809000313 53.097136428579688 12.044644206762316 15.32087615132332 5.6226599831134108 14.706821208819745 7.2162173725664598 10.035938329994677 15.989465748891236 10.111230008304117 9.5596747603267413 15.171596331521869 5.9415903743356466
leaf_count=102 407 171 159 45 282 160 102 158 129 100 139 78
internal_value=-6.32527e-05 -0.00710389 0.00432239 0.00556084 -0.0152051 -0.0301595 0.0273554 -0.00225782 -0.00973682 0.0162452 0.0220835 -0.0536648
internal_weight=185.197 71.0824 114.114 45.88 20.3295 25.2025 25.3568 88.7575 63.2084 25.5491 25.5505 13.1578
internal_count=2032 977 1055 568 327 409 261 794 536 258 241 238
is_linear=0
shrinkage=0.0623619


Tree=97
num_leaves=11
num_cat=0
split_feature=20 10 22 13 20 7 22 1 0 22
split_gain=1.71056 2.01825 1.79772 1.5798 1.56099 3.99998 3.69511 2.5064 2.47377 1.82987
threshold=12.750000000000002 611.93854166665017 25.350000000000005 271.46875000000006 21.750000000000004 12.350000000000003 27.350000000000005 46.750000000000007 5.7072916666500006 25.250000000000004
decision_type=2 2 2 2 2 2 2 2 2 2
left_child=1 3 -3 -1 6 7 8 -6 -2 -7
right_child=4 2 -4 -5 5 9 -8 -9 -10 -11
leaf_value=0.037841435938754053 -0.0045935191140221484 -0.020921007365720612 0.013694859447399706 0.0069372192443275249 0.059160514358794665 -0.0001850992902979002 0.026312120847638037 0.0095160183823515092 -0.027542428365358574 -0.038254847762957046
leaf_weight=12.498128455132248 48.258211821317673 11.516519747674467 11.825957618653772 13.255682863295077 6.8730735369026688 25.336060944013301 10.394349457696078 9.3154286639764887 29.393763560801744 6.0905743101611725
